{"learner":{"attributes":{"best_iteration":"162","best_score":"0.4671645020645884","scikit_learn":"{\"_estimator_type\": \"classifier\"}"},"feature_names":["seconds_remaining","score_diff","is_overtime","is_playoff","rating_diff"],"feature_types":["float","float","int","int","float"],"gradient_booster":{"model":{"gbtree_model_param":{"num_parallel_tree":"1","num_trees":"213"},"iteration_indptr":[0,1,2,3,4,5,6,7,8,9,10,11,12,13,14,15,16,17,18,19,20,21,22,23,24,25,26,27,28,29,30,31,32,33,34,35,36,37,38,39,40,41,42,43,44,45,46,47,48,49,50,51,52,53,54,55,56,57,58,59,60,61,62,63,64,65,66,67,68,69,70,71,72,73,74,75,76,77,78,79,80,81,82,83,84,85,86,87,88,89,90,91,92,93,94,95,96,97,98,99,100,101,102,103,104,105,106,107,108,109,110,111,112,113,114,115,116,117,118,119,120,121,122,123,124,125,126,127,128,129,130,131,132,133,134,135,136,137,138,139,140,141,142,143,144,145,146,147,148,149,150,151,152,153,154,155,156,157,158,159,160,161,162,163,164,165,166,167,168,169,170,171,172,173,174,175,176,177,178,179,180,181,182,183,184,185,186,187,188,189,190,191,192,193,194,195,196,197,198,199,200,201,202,203,204,205,206,207,208,209,210,211,212,213],"tree_info":[0,0,0,0,0,0,0,0,0,0,0,0,0,0,0,0,0,0,0,0,0,0,0,0,0,0,0,0,0,0,0,0,0,0,0,0,0,0,0,0,0,0,0,0,0,0,0,0,0,0,0,0,0,0,0,0,0,0,0,0,0,0,0,0,0,0,0,0,0,0,0,0,0,0,0,0,0,0,0,0,0,0,0,0,0,0,0,0,0,0,0,0,0,0,0,0,0,0,0,0,0,0,0,0,0,0,0,0,0,0,0,0,0,0,0,0,0,0,0,0,0,0,0,0,0,0,0,0,0,0,0,0,0,0,0,0,0,0,0,0,0,0,0,0,0,0,0,0,0,0,0,0,0,0,0,0,0,0,0,0,0,0,0,0,0,0,0,0,0,0,0,0,0,0,0,0,0,0,0,0,0,0,0,0,0,0,0,0,0,0,0,0,0,0,0,0,0,0,0,0,0,0,0,0,0,0,0,0,0,0,0,0,0],"trees":[{"base_weights":[4.7325767E-3,-5.774318E-1,5.953431E-1,-1.0247004E0,-3.0295506E-1,2.889751E-1,9.063448E-1,-1.3602585E0,-8.4619254E-1,-4.9313968E-1,-1.3048083E-1,1.0402117E-1,3.859047E-1,7.781882E-1,1.2030066E0,-1.5181918E0,-1.2199544E0,-9.345975E-1,-7.6813227E-1,-5.814163E-1,-4.289427E-1,-2.0303872E-1,-7.014749E-2,7.994415E-2,3.2735947E-1,7.062841E-1,3.7806875E-1,7.049731E-1,8.6594987E-1,1.1630074E0,1.4157194E0,-1.6017694E0,-1.4345552E0,-1.2294157E0,-2.3387118E-1,-1.0042688E0,-8.998131E-1,-7.8008914E-1,-4.7817728E-1,-5.528412E-1,-7.829072E-1,-1.5309017E-2,-4.488872E-1,-1.9764732E-1,-8.225908E-1,-2.0662278E-2,-1.851466E-1,9.996645E-2,-4.8481442E-2,7.3945695E-1,2.2771354E-1,7.1135694E-1,3.3851415E-1,3.6163288E-1,5.306626E-1,4.6192047E-1,7.14103E-1,8.734176E-1,-1.4387523E-1,1.0640808E0,1.1858588E0,1.3710204E0,1.5041826E0,-8.031637E-2,-4.6477173E-2,-7.116621E-2,-1.220297E-1,-5.652342E-2,-6.393292E-2,-6.1208524E-2,-6.547436E-3,-4.609884E-2,-6.671267E-2,-4.2102113E-2,-4.7868498E-2,-3.385968E-2,-4.114006E-2,-3.7563E-2,4.036388E-2,-2.9576201E-2,-1.6115112E-2,-3.9399836E-2,-1.8787537E-2,-3.8092756E-3,5.116226E-2,-2.4570264E-2,-1.7123712E-2,-9.00102E-3,-1.3190525E-2,-3.5793595E-2,-8.1801586E-2,-2.0989627E-3,7.943656E-3,-6.9226744E-3,-1.2502672E-2,2.7454665E-3,1.3502841E-2,-1.9056784E-3,-6.676559E-2,1.452466E-2,4.713473E-2,-8.960072E-3,1.799496E-2,3.6102396E-2,3.123483E-2,3.574006E-2,9.211221E-3,9.162813E-3,1.8398914E-2,-7.294625E-3,2.9454509E-2,1.8356223E-2,2.7564174E-2,3.6154054E-2,2.537096E-2,5.6713413E-2,4.2976134E-2,5.207998E-3,-4.782031E-2,5.630836E-2,4.6937563E-2,7.063552E-2,5.834889E-2,7.511735E-2,6.198901E-2,7.543965E-2,-2.3657542E-3],"categories":[],"categories_nodes":[],"categories_segments":[],"categories_sizes":[],"default_left":[0,0,0,0,0,0,0,0,0,0,0,0,0,0,0,0,0,0,0,0,0,0,0,0,0,0,0,0,0,0,0,0,0,0,0,0,0,0,0,0,0,0,0,0,0,0,0,0,0,0,0,0,0,0,0,0,0,0,0,0,0,0,0,0,0,0,0,0,0,0,0,0,0,0,0,0,0,0,0,0,0,0,0,0,0,0,0,0,0,0,0,0,0,0,0,0,0,0,0,0,0,0,0,0,0,0,0,0,0,0,0,0,0,0,0,0,0,0,0,0,0,0,0,0,0,0,0],"id":0,"left_children":[1,3,5,7,9,11,13,15,17,19,21,23,25,27,29,31,33,35,37,39,41,43,45,47,49,51,53,55,57,59,61,63,65,67,69,71,73,75,77,79,81,83,85,87,89,91,93,95,97,99,101,103,105,107,109,111,113,115,117,119,121,123,125,-1,-1,-1,-1,-1,-1,-1,-1,-1,-1,-1,-1,-1,-1,-1,-1,-1,-1,-1,-1,-1,-1,-1,-1,-1,-1,-1,-1,-1,-1,-1,-1,-1,-1,-1,-1,-1,-1,-1,-1,-1,-1,-1,-1,-1,-1,-1,-1,-1,-1,-1,-1,-1,-1,-1,-1,-1,-1,-1,-1,-1,-1,-1,-1],"loss_changes":[8.970157E5,1.6129197E5,1.23392625E5,2.9927438E4,2.6706906E4,1.1695555E4,2.44325E4,3.842625E3,2.2500156E3,2.1941172E3,1.8691406E3,1.2062812E3,1.0743477E3,2.8830938E3,1.647875E3,5.6821875E2,8.569375E2,3.6971875E2,6.001406E2,9.3821875E2,1.8494688E3,6.473428E2,1.3266715E3,5.207162E2,8.962717E2,1.8822754E1,1.0477422E3,5.42625E2,1.5393594E3,3.6767188E2,1.1925781E2,1.2357031E2,4.575703E2,4.4198438E2,8.8967834E1,1.3815E3,3.3840625E2,7.3053125E2,2.4095845E3,1.2731367E3,4.1660156E1,6.521365E2,9.675E2,2.2408008E2,1.4397632E2,6.238037E2,2.1252832E2,1.3426045E3,3.643615E2,3.8755396E2,9.4572064E2,8.887207E0,8.0507145E0,4.268828E2,1.6060332E3,7.486133E1,4.3721875E2,7.3340625E2,3.0224628E2,2.3729688E2,5.66125E2,3.496328E2,7.3666016E1,0E0,0E0,0E0,0E0,0E0,0E0,0E0,0E0,0E0,0E0,0E0,0E0,0E0,0E0,0E0,0E0,0E0,0E0,0E0,0E0,0E0,0E0,0E0,0E0,0E0,0E0,0E0,0E0,0E0,0E0,0E0,0E0,0E0,0E0,0E0,0E0,0E0,0E0,0E0,0E0,0E0,0E0,0E0,0E0,0E0,0E0,0E0,0E0,0E0,0E0,0E0,0E0,0E0,0E0,0E0,0E0,0E0,0E0,0E0,0E0,0E0,0E0,0E0,0E0],"parents":[2147483647,0,0,1,1,2,2,3,3,4,4,5,5,6,6,7,7,8,8,9,9,10,10,11,11,12,12,13,13,14,14,15,15,16,16,17,17,18,18,19,19,20,20,21,21,22,22,23,23,24,24,25,25,26,26,27,27,28,28,29,29,30,30,31,31,32,32,33,33,34,34,35,35,36,36,37,37,38,38,39,39,40,40,41,41,42,42,43,43,44,44,45,45,46,46,47,47,48,48,49,49,50,50,51,51,52,52,53,53,54,54,55,55,56,56,57,57,58,58,59,59,60,60,61,61,62,62],"right_children":[2,4,6,8,10,12,14,16,18,20,22,24,26,28,30,32,34,36,38,40,42,44,46,48,50,52,54,56,58,60,62,64,66,68,70,72,74,76,78,80,82,84,86,88,90,92,94,96,98,100,102,104,106,108,110,112,114,116,118,120,122,124,126,-1,-1,-1,-1,-1,-1,-1,-1,-1,-1,-1,-1,-1,-1,-1,-1,-1,-1,-1,-1,-1,-1,-1,-1,-1,-1,-1,-1,-1,-1,-1,-1,-1,-1,-1,-1,-1,-1,-1,-1,-1,-1,-1,-1,-1,-1,-1,-1,-1,-1,-1,-1,-1,-1,-1,-1,-1,-1,-1,-1,-1,-1,-1,-1],"split_conditions":[1.5994918E-1,-1.20656845E2,9.236706E1,-2.105557E2,-5.5727493E1,2.8963642E1,1.9900131E2,-2.581433E2,-1.6025392E2,-9.1384735E1,-2.9050333E1,1E0,3.0283226E1,1.4007468E2,3.0827127E2,-2.9815067E2,1E0,-1.9205208E2,1E0,-9.4497795E1,-8.9667915E1,1E0,-8.722957E0,2.5051981E1,5.174866E0,1E0,1E0,5.41E1,1E0,2.1183731E2,3.5379932E2,1E0,1E0,-2.3854895E2,-2.5212695E2,-1.9550842E2,-1.7489444E2,-1.46586E2,-1.2702552E2,-9.781479E1,1E0,1E0,-6.510133E1,-3.521925E1,1E0,1E0,-3.214325E0,2E1,1E0,1.507918E0,1.1713427E1,1E0,3.1E1,4.58E1,3.4220375E1,1.93E1,1.375737E2,1.4294609E2,1.8107094E2,2.0749757E2,2.1593057E2,3.2771738E2,1E0,-8.031637E-2,-4.6477173E-2,-7.116621E-2,-1.220297E-1,-5.652342E-2,-6.393292E-2,-6.1208524E-2,-6.547436E-3,-4.609884E-2,-6.671267E-2,-4.2102113E-2,-4.7868498E-2,-3.385968E-2,-4.114006E-2,-3.7563E-2,4.036388E-2,-2.9576201E-2,-1.6115112E-2,-3.9399836E-2,-1.8787537E-2,-3.8092756E-3,5.116226E-2,-2.4570264E-2,-1.7123712E-2,-9.00102E-3,-1.3190525E-2,-3.5793595E-2,-8.1801586E-2,-2.0989627E-3,7.943656E-3,-6.9226744E-3,-1.2502672E-2,2.7454665E-3,1.3502841E-2,-1.9056784E-3,-6.676559E-2,1.452466E-2,4.713473E-2,-8.960072E-3,1.799496E-2,3.6102396E-2,3.123483E-2,3.574006E-2,9.211221E-3,9.162813E-3,1.8398914E-2,-7.294625E-3,2.9454509E-2,1.8356223E-2,2.7564174E-2,3.6154054E-2,2.537096E-2,5.6713413E-2,4.2976134E-2,5.207998E-3,-4.782031E-2,5.630836E-2,4.6937563E-2,7.063552E-2,5.834889E-2,7.511735E-2,6.198901E-2,7.543965E-2,-2.3657542E-3],"split_indices":[4,4,4,4,4,4,4,4,4,4,4,3,4,4,4,4,2,4,3,4,4,2,4,4,4,2,3,0,2,4,4,3,3,4,4,4,4,4,4,4,2,3,4,4,3,3,4,4,2,4,4,3,0,0,4,0,4,4,4,4,4,4,2,0,0,0,0,0,0,0,0,0,0,0,0,0,0,0,0,0,0,0,0,0,0,0,0,0,0,0,0,0,0,0,0,0,0,0,0,0,0,0,0,0,0,0,0,0,0,0,0,0,0,0,0,0,0,0,0,0,0,0,0,0,0,0,0],"split_type":[0,0,0,0,0,0,0,0,0,0,0,0,0,0,0,0,0,0,0,0,0,0,0,0,0,0,0,0,0,0,0,0,0,0,0,0,0,0,0,0,0,0,0,0,0,0,0,0,0,0,0,0,0,0,0,0,0,0,0,0,0,0,0,0,0,0,0,0,0,0,0,0,0,0,0,0,0,0,0,0,0,0,0,0,0,0,0,0,0,0,0,0,0,0,0,0,0,0,0,0,0,0,0,0,0,0,0,0,0,0,0,0,0,0,0,0,0,0,0,0,0,0,0,0,0,0,0],"sum_hessian":[2.6088725E6,1.3138306E6,1.2950419E6,4.9964325E5,8.1418744E5,6.523819E5,6.4266006E5,1.7349738E5,3.2614588E5,3.8721244E5,4.26975E5,2.2433139E5,4.280505E5,4.4878894E5,1.938711E5,8.161623E4,9.188115E4,1.5293392E5,1.7321194E5,1.6302725E5,2.2418517E5,1.938479E5,2.331271E5,2.0250198E5,2.1829404E4,1.0217314E4,4.178332E5,2.446766E5,2.0411234E5,1.6319064E5,3.0680463E4,4.081343E4,4.0802797E4,9.1007695E4,8.7345654E2,5.09186E4,1.0201533E5,1.6635045E5,6.8614917E3,1.4278188E5,2.0245389E4,1.0312539E4,2.1387262E5,1.9217688E5,1.6710234E3,1.6299148E5,7.013561E4,1.7518919E5,2.7312797E4,4.2493394E3,1.7580064E4,1.0077378E4,1.3993674E2,3.7720756E5,4.0625637E4,8.860001E3,2.358166E5,2.0261412E5,1.4982173E3,3.06314E4,1.3255923E5,2.0392818E4,1.02876455E4,4.053718E4,2.7624817E2,4.0354707E4,4.4808755E2,3.0249293E4,6.0758402E4,8.120681E1,7.9224976E2,4.0758082E4,1.0160519E4,5.0920777E4,5.109455E4,4.8801664E4,1.1754879E5,5.6595825E3,1.201909E3,1.2226506E5,2.0516803E4,1.9994518E4,2.5087103E2,9.7424E3,5.7013947E2,1.5281188E5,6.106075E4,1.517516E5,4.042528E4,1.4788823E3,1.921411E2,1.4569347E5,1.7298018E4,4.0792887E4,2.9342727E4,1.3850134E5,3.6687832E4,2.7095521E4,2.1727655E2,1.3249277E3,2.9244119E3,4.3104863E3,1.3269579E4,8.964168E3,1.11321E3,3.9636654E1,1.0030007E2,1.2958528E4,3.6424903E5,3.2294207E3,3.739622E4,4.3017856E3,4.5582153E3,2.259971E5,9.819498E3,1.0242934E4,1.9237119E5,1.1484962E3,3.4972098E2,2.0478617E4,1.0152784E4,1.0179611E4,1.22379625E5,1.0187829E4,1.0204988E4,1.0257193E4,3.0452553E1],"tree_param":{"num_deleted":"0","num_feature":"5","num_nodes":"127","size_leaf_vector":"1"}},{"base_weights":[4.0035266E-3,-1.3426411E0,2.989844E-1,-1.8616608E0,-9.2058754E-1,-2.3412329E-1,7.8783154E-1,-2.1489308E0,-1.4062569E0,-1.8433471E0,-7.502848E-1,-4.9086076E-1,8.3816165E-1,5.838563E-1,1.3779665E0,-2.2860963E0,-1.9182942E0,-1.6419923E0,-6.8549246E-1,-2.2446513E0,-1.5498763E0,-1.0432825E0,-1.2967812E-1,-8.7962526E-1,-2.5128353E-1,1.3026898E0,4.8517063E-1,3.006968E-1,8.743275E-1,1.1765772E0,1.5558192E0,-2.361975E0,-2.1197581E0,-2.208957E0,-1.6523377E0,-1.9672843E0,-1.4491526E0,-8.8537025E-1,-7.722945E-2,-2.3584275E0,-2.0711439E0,-1.7778481E0,-1.1831563E0,-1.267486E0,-7.294615E-1,-4.879231E-1,1.1256384E-1,-1.1981033E0,-6.9242847E-1,-4.12071E-1,-7.4931175E-2,9.6191025E-1,1.5418772E0,2.1694319E-1,9.8175585E-1,-1.4837237E-1,3.367667E-1,7.562721E-1,1.147467E0,1.4832734E0,1.0827378E0,1.6187569E0,1.429909E0,-1.1958536E-1,-1.1461442E-1,-1.0821008E-1,-7.4034594E-2,-1.1842177E-1,-1.02204494E-1,-9.569509E-2,-7.008089E-2,-1.07615665E-1,-9.183016E-2,-8.100951E-2,-5.4974843E-2,-5.1566463E-2,-2.6368743E-2,-7.0245884E-2,-9.967434E-4,-1.1997848E-1,-1.1129024E-1,-1.14057176E-1,-9.078052E-2,-9.881507E-2,-8.02763E-2,-6.698474E-2,-4.1294865E-2,-7.083891E-2,-5.4453243E-2,-5.2903455E-2,-3.0590935E-2,-3.0630356E-2,1.2185489E-3,-4.6717315E-3,2.5932608E-2,-6.3212276E-2,-3.506689E-2,-3.6899522E-2,-1.5483427E-2,-2.3199225E-2,-2.3098355E-4,-5.8913245E-3,1.2532175E-2,7.311999E-2,3.482868E-2,8.1886046E-2,6.892582E-2,-6.7878007E-3,1.9142337E-2,4.0354777E-2,6.469361E-2,-5.7189234E-2,-2.732054E-3,8.48368E-3,2.1218738E-2,1.5540293E-2,3.9405514E-2,5.5222567E-2,6.899069E-2,8.003415E-2,6.810422E-2,4.6536647E-2,6.1356563E-2,7.7254444E-2,8.2149915E-2,6.6443205E-2,7.675918E-2],"categories":[],"categories_nodes":[],"categories_segments":[],"categories_sizes":[],"default_left":[0,0,0,0,0,0,0,0,0,0,0,0,0,0,0,0,0,0,0,0,0,0,0,0,0,0,0,0,0,0,0,0,0,0,0,0,0,0,0,0,0,0,0,0,0,0,0,0,0,0,0,0,0,0,0,0,0,0,0,0,0,0,0,0,0,0,0,0,0,0,0,0,0,0,0,0,0,0,0,0,0,0,0,0,0,0,0,0,0,0,0,0,0,0,0,0,0,0,0,0,0,0,0,0,0,0,0,0,0,0,0,0,0,0,0,0,0,0,0,0,0,0,0,0,0,0,0],"id":1,"left_children":[1,3,5,7,9,11,13,15,17,19,21,23,25,27,29,31,33,35,37,39,41,43,45,47,49,51,53,55,57,59,61,63,65,67,69,71,73,75,77,79,81,83,85,87,89,91,93,95,97,99,101,103,105,107,109,111,113,115,117,119,121,123,125,-1,-1,-1,-1,-1,-1,-1,-1,-1,-1,-1,-1,-1,-1,-1,-1,-1,-1,-1,-1,-1,-1,-1,-1,-1,-1,-1,-1,-1,-1,-1,-1,-1,-1,-1,-1,-1,-1,-1,-1,-1,-1,-1,-1,-1,-1,-1,-1,-1,-1,-1,-1,-1,-1,-1,-1,-1,-1,-1,-1,-1,-1,-1,-1],"loss_changes":[1.0359636E6,1.0265056E5,5.575253E5,2.74915E4,4.0614062E4,2.817204E5,1.3433412E5,4.0725E3,1.3811797E4,4.738828E3,3.96741E4,7.690019E4,3.2414781E4,6.821247E4,1.0265375E4,1.01484375E3,3.7120312E3,3.839875E3,2.4360596E3,3.3083594E2,1.9426133E3,1.04273125E4,6.0725996E3,1.8767406E4,1.4485074E4,6.9559688E3,1.4961906E4,6.802449E3,1.31999375E4,3.8674688E3,1.2039375E3,1.095E2,7.1603906E2,5.989297E2,1.6436094E3,5.472656E2,2.2984844E3,7.8750586E2,3.7704666E2,5.0664062E1,3.5772852E2,4.873086E2,4.977539E2,2.3011875E3,2.387082E3,1.8031162E3,3.492342E3,3.8282188E3,3.4574766E3,5.652172E3,3.4024897E3,4.674172E3,7.829922E2,4.2678384E3,2.1465508E3,2.9131992E3,5.690465E3,4.0537812E3,1.2332188E3,4.459375E2,2.258289E3,1.7865625E2,5.376953E2,0E0,0E0,0E0,0E0,0E0,0E0,0E0,0E0,0E0,0E0,0E0,0E0,0E0,0E0,0E0,0E0,0E0,0E0,0E0,0E0,0E0,0E0,0E0,0E0,0E0,0E0,0E0,0E0,0E0,0E0,0E0,0E0,0E0,0E0,0E0,0E0,0E0,0E0,0E0,0E0,0E0,0E0,0E0,0E0,0E0,0E0,0E0,0E0,0E0,0E0,0E0,0E0,0E0,0E0,0E0,0E0,0E0,0E0,0E0,0E0,0E0,0E0,0E0,0E0],"parents":[2147483647,0,0,1,1,2,2,3,3,4,4,5,5,6,6,7,7,8,8,9,9,10,10,11,11,12,12,13,13,14,14,15,15,16,16,17,17,18,18,19,19,20,20,21,21,22,22,23,23,24,24,25,25,26,26,27,27,28,28,29,29,30,30,31,31,32,32,33,33,34,34,35,35,36,36,37,37,38,38,39,39,40,40,41,41,42,42,43,43,44,44,45,45,46,46,47,47,48,48,49,49,50,50,51,51,52,52,53,53,54,54,55,55,56,56,57,57,58,58,59,59,60,60,61,61,62,62],"right_children":[2,4,6,8,10,12,14,16,18,20,22,24,26,28,30,32,34,36,38,40,42,44,46,48,50,52,54,56,58,60,62,64,66,68,70,72,74,76,78,80,82,84,86,88,90,92,94,96,98,100,102,104,106,108,110,112,114,116,118,120,122,124,126,-1,-1,-1,-1,-1,-1,-1,-1,-1,-1,-1,-1,-1,-1,-1,-1,-1,-1,-1,-1,-1,-1,-1,-1,-1,-1,-1,-1,-1,-1,-1,-1,-1,-1,-1,-1,-1,-1,-1,-1,-1,-1,-1,-1,-1,-1,-1,-1,-1,-1,-1,-1,-1,-1,-1,-1,-1,-1,-1,-1,-1,-1,-1,-1],"split_conditions":[-2E0,-8E0,1.5994918E-1,1.338E3,4.56E2,5E0,6E0,-1.2E1,3.4220375E1,1.22E2,3.4220375E1,-1.20656845E2,1.034E3,9.236706E1,1.2E1,8.6E2,6.52E2,-1.3E1,1.5551512E2,-4E0,-4E0,-6.040126E1,1.596E3,-2.0682953E2,-5.0304245E1,1E1,1.1E1,0E0,1.9900131E2,6.4E2,1.261E3,-1.5E1,1.1842208E2,3.09E2,-5.324565E1,-1.7E1,-4.9051006E1,2.119E3,-1.9E1,7.2E1,3.1E1,-6E0,3.4220375E1,-1.3101367E2,1.2E3,1.7193694E2,1.4007468E2,1E0,2E0,2E0,2E0,3.09E2,6.52E2,-1.1876848E2,1.6E1,2.31E2,2.8963642E1,0E0,3.0827127E2,2.87E2,9.428718E1,1.5E1,1.6E1,-1.1958536E-1,-1.1461442E-1,-1.0821008E-1,-7.4034594E-2,-1.1842177E-1,-1.02204494E-1,-9.569509E-2,-7.008089E-2,-1.07615665E-1,-9.183016E-2,-8.100951E-2,-5.4974843E-2,-5.1566463E-2,-2.6368743E-2,-7.0245884E-2,-9.967434E-4,-1.1997848E-1,-1.1129024E-1,-1.14057176E-1,-9.078052E-2,-9.881507E-2,-8.02763E-2,-6.698474E-2,-4.1294865E-2,-7.083891E-2,-5.4453243E-2,-5.2903455E-2,-3.0590935E-2,-3.0630356E-2,1.2185489E-3,-4.6717315E-3,2.5932608E-2,-6.3212276E-2,-3.506689E-2,-3.6899522E-2,-1.5483427E-2,-2.3199225E-2,-2.3098355E-4,-5.8913245E-3,1.2532175E-2,7.311999E-2,3.482868E-2,8.1886046E-2,6.892582E-2,-6.7878007E-3,1.9142337E-2,4.0354777E-2,6.469361E-2,-5.7189234E-2,-2.732054E-3,8.48368E-3,2.1218738E-2,1.5540293E-2,3.9405514E-2,5.5222567E-2,6.899069E-2,8.003415E-2,6.810422E-2,4.6536647E-2,6.1356563E-2,7.7254444E-2,8.2149915E-2,6.6443205E-2,7.675918E-2],"split_indices":[1,1,4,0,0,1,1,1,4,0,4,4,0,4,1,0,0,1,4,1,1,4,0,4,4,1,1,1,4,0,0,1,4,0,4,1,4,0,1,0,0,1,4,4,0,4,4,1,1,1,1,0,0,4,1,0,4,1,4,0,4,1,1,0,0,0,0,0,0,0,0,0,0,0,0,0,0,0,0,0,0,0,0,0,0,0,0,0,0,0,0,0,0,0,0,0,0,0,0,0,0,0,0,0,0,0,0,0,0,0,0,0,0,0,0,0,0,0,0,0,0,0,0,0,0,0,0],"split_type":[0,0,0,0,0,0,0,0,0,0,0,0,0,0,0,0,0,0,0,0,0,0,0,0,0,0,0,0,0,0,0,0,0,0,0,0,0,0,0,0,0,0,0,0,0,0,0,0,0,0,0,0,0,0,0,0,0,0,0,0,0,0,0,0,0,0,0,0,0,0,0,0,0,0,0,0,0,0,0,0,0,0,0,0,0,0,0,0,0,0,0,0,0,0,0,0,0,0,0,0,0,0,0,0,0,0,0,0,0,0,0,0,0,0,0,0,0,0,0,0,0,0,0,0,0,0,0],"sum_hessian":[2.607938E6,4.6861528E5,2.1393228E6,2.1016356E5,2.5845173E5,1.0233349E6,1.1159879E6,1.2886897E5,8.12946E4,4.02661E4,2.1818562E5,8.256499E5,1.9768502E5,8.2933656E5,2.8665128E5,8.080387E4,4.8065098E4,6.1258074E4,2.003653E4,1.700547E4,2.3260633E4,1.4821189E5,6.997374E4,3.148068E5,5.1084306E5,8.5355914E4,1.123291E5,4.1995478E5,4.0938175E5,1.3443412E5,1.5221717E5,5.548162E4,2.5322248E4,2.2962342E4,2.5102756E4,2.2795773E4,3.84623E4,1.5080544E4,4.9559863E3,1.0262995E4,6.742475E3,1.4341424E4,8.919209E3,8.6447836E4,6.1764047E4,2.8227643E4,4.1746098E4,1.1653697E5,1.9826983E5,2.67213E5,2.4363006E5,3.5204188E4,5.0151727E4,7.293509E4,3.9394004E4,3.1223244E4,3.8873153E5,2.8584053E5,1.23541234E5,3.14924E4,1.0294172E5,1.0147961E5,5.073756E4,3.8865906E4,1.6615713E4,2.3673502E4,1.648745E3,1.1665122E4,1.1297219E4,1.2282438E4,1.2820317E4,9.429403E3,1.336637E4,2.582575E4,1.2636551E4,1.071147E4,4.369074E3,2.0404839E2,4.751938E3,7.81999E3,2.4430051E3,3.696628E3,3.045847E3,6.660478E3,7.680946E3,6.199884E3,2.7193252E3,4.706213E4,3.938571E4,1.6280444E4,4.54836E4,2.270212E4,5.5255225E3,2.7696914E4,1.4049183E4,1.0284242E5,1.3694551E4,1.771784E5,2.109142E4,2.3701473E5,3.019827E4,2.1526852E5,2.8361549E4,1.219567E4,2.3008516E4,3.1601896E4,1.8549832E4,2.3332352E4,4.9602742E4,2.526134E4,1.4132664E4,2.6860964E3,2.8537148E4,1.3371075E5,2.550208E5,1.906746E4,2.6677306E5,1.0424715E5,1.9294086E4,1.5989419E4,1.550298E4,5.0152734E4,5.2788984E4,2.5141387E4,7.633823E4,2.5895834E4,2.4841727E4],"tree_param":{"num_deleted":"0","num_feature":"5","num_nodes":"127","size_leaf_vector":"1"}},{"base_weights":[4.5374963E-3,-1.2625116E0,2.858438E-1,-1.7438017E0,-8.683567E-1,4.79356E-2,1.1633905E0,-2.0221574E0,-1.3404238E0,-1.8006238E0,-7.224589E-1,1.3038837E-3,4.6551943E-1,8.656292E-1,1.4046005E0,-2.14455E0,-1.8134925E0,-1.7462864E0,-1.1775824E0,-2.1089246E0,-1.52813E0,-9.523002E-1,-5.5668634E-1,-3.370235E-1,3.1378407E-2,1.2948619E0,3.8300222E-1,1.3264165E0,7.149412E-1,1.528326E0,1.1876144E0,-2.210359E0,-2.0070758E0,-2.1395109E0,-1.6177868E0,-2.0051947E0,-1.6299008E0,-1.3307827E0,-1.0222377E0,-2.1734612E0,-1.8643403E0,-1.8325585E0,-1.2815937E0,-1.220846E0,-7.519676E-1,-8.047447E-1,-4.63703E-1,-1.4227163E0,-2.813162E-1,2.2221444E-2,2.1105511E-1,1.5488029E0,1.0380996E0,5.722521E-1,3.308033E-1,1.5484668E0,1.1658643E0,5.8003026E-1,8.3231574E-1,1.5949781E0,1.4378716E0,1.0556449E0,1.3951772E0,-1.1216388E-1,-1.0800637E-1,-1.065532E-1,-9.24715E-2,-1.1106818E-1,-9.971085E-2,-9.043219E-2,-7.631718E-2,-1.04538396E-1,-9.0972126E-2,-8.7531865E-2,-7.497818E-2,-7.121537E-2,-6.0103085E-2,-5.8820467E-2,-4.7298502E-2,-1.1116635E-1,-1.0120057E-1,-1.0308979E-1,-7.861319E-2,-9.953823E-2,-8.5036024E-2,-7.11714E-2,-5.128025E-2,-7.167275E-2,-5.590669E-2,-4.1952007E-2,-3.0179912E-2,-4.912783E-2,-3.612617E-2,-2.9285008E-2,-2.0648245E-2,-9.359127E-2,-5.3175207E-2,-2.9768089E-2,-1.1095514E-2,7.82416E-4,6.4342073E-3,5.5986118E-2,8.265056E-3,7.218417E-2,8.034632E-2,4.1802596E-2,5.7308614E-2,2.0572616E-2,3.269373E-2,1.1286094E-2,1.9449005E-2,8.025963E-2,7.2180375E-2,4.975833E-2,6.445324E-2,3.3746798E-2,2.460374E-2,4.949091E-2,3.706558E-2,7.741829E-2,8.0859214E-2,6.520418E-2,7.715063E-2,5.7936754E-2,4.9223557E-2,6.540134E-2,7.551313E-2],"categories":[],"categories_nodes":[],"categories_segments":[],"categories_sizes":[],"default_left":[0,0,0,0,0,0,0,0,0,0,0,0,0,0,0,0,0,0,0,0,0,0,0,0,0,0,0,0,0,0,0,0,0,0,0,0,0,0,0,0,0,0,0,0,0,0,0,0,0,0,0,0,0,0,0,0,0,0,0,0,0,0,0,0,0,0,0,0,0,0,0,0,0,0,0,0,0,0,0,0,0,0,0,0,0,0,0,0,0,0,0,0,0,0,0,0,0,0,0,0,0,0,0,0,0,0,0,0,0,0,0,0,0,0,0,0,0,0,0,0,0,0,0,0,0,0,0],"id":2,"left_children":[1,3,5,7,9,11,13,15,17,19,21,23,25,27,29,31,33,35,37,39,41,43,45,47,49,51,53,55,57,59,61,63,65,67,69,71,73,75,77,79,81,83,85,87,89,91,93,95,97,99,101,103,105,107,109,111,113,115,117,119,121,123,125,-1,-1,-1,-1,-1,-1,-1,-1,-1,-1,-1,-1,-1,-1,-1,-1,-1,-1,-1,-1,-1,-1,-1,-1,-1,-1,-1,-1,-1,-1,-1,-1,-1,-1,-1,-1,-1,-1,-1,-1,-1,-1,-1,-1,-1,-1,-1,-1,-1,-1,-1,-1,-1,-1,-1,-1,-1,-1,-1,-1,-1,-1,-1,-1],"loss_changes":[9.286723E5,8.979756E4,4.451352E5,2.3927562E4,3.5395875E4,3.266299E4,3.2660125E4,3.216625E3,5.7493906E3,2.9552266E3,8.573383E3,1.5352934E4,1.1530613E4,1.4130422E4,6.7428438E3,7.145625E2,2.9715E3,7.4752344E2,1.47675E3,2.5671094E2,1.4009102E3,5.071828E3,3.0151445E3,7.4495166E3,2.2798857E3,9.9256445E2,1.5137188E3,1.7861641E3,2.4281094E3,9.6234375E2,2.4976562E3,8.403125E1,4.991797E2,2.0353906E2,5.058203E2,1.18947266E2,2.6795703E2,3.746914E2,3.6154297E2,9.286328E1,1.9606836E2,1.7106445E2,3.737539E2,8.781328E2,6.97209E2,5.2039844E2,5.883887E2,9.678301E2,2.1857598E3,9.2268146E2,2.7934905E3,4.4503906E1,1.6465869E2,4.345586E2,7.342529E2,1.2285156E2,6.109297E2,5.953125E2,1.1747656E3,9.28125E1,9.529375E2,4.0811328E2,3.5366406E2,0E0,0E0,0E0,0E0,0E0,0E0,0E0,0E0,0E0,0E0,0E0,0E0,0E0,0E0,0E0,0E0,0E0,0E0,0E0,0E0,0E0,0E0,0E0,0E0,0E0,0E0,0E0,0E0,0E0,0E0,0E0,0E0,0E0,0E0,0E0,0E0,0E0,0E0,0E0,0E0,0E0,0E0,0E0,0E0,0E0,0E0,0E0,0E0,0E0,0E0,0E0,0E0,0E0,0E0,0E0,0E0,0E0,0E0,0E0,0E0,0E0,0E0,0E0,0E0],"parents":[2147483647,0,0,1,1,2,2,3,3,4,4,5,5,6,6,7,7,8,8,9,9,10,10,11,11,12,12,13,13,14,14,15,15,16,16,17,17,18,18,19,19,20,20,21,21,22,22,23,23,24,24,25,25,26,26,27,27,28,28,29,29,30,30,31,31,32,32,33,33,34,34,35,35,36,36,37,37,38,38,39,39,40,40,41,41,42,42,43,43,44,44,45,45,46,46,47,47,48,48,49,49,50,50,51,51,52,52,53,53,54,54,55,55,56,56,57,57,58,58,59,59,60,60,61,61,62,62],"right_children":[2,4,6,8,10,12,14,16,18,20,22,24,26,28,30,32,34,36,38,40,42,44,46,48,50,52,54,56,58,60,62,64,66,68,70,72,74,76,78,80,82,84,86,88,90,92,94,96,98,100,102,104,106,108,110,112,114,116,118,120,122,124,126,-1,-1,-1,-1,-1,-1,-1,-1,-1,-1,-1,-1,-1,-1,-1,-1,-1,-1,-1,-1,-1,-1,-1,-1,-1,-1,-1,-1,-1,-1,-1,-1,-1,-1,-1,-1,-1,-1,-1,-1,-1,-1,-1,-1,-1,-1,-1,-1,-1,-1,-1,-1,-1,-1,-1,-1,-1,-1,-1,-1,-1,-1,-1,-1],"split_conditions":[-2E0,-8E0,6E0,1.275E3,3.77E2,3E0,1.1E1,-1.2E1,-1.4E1,1.11E2,-5E0,0E0,2.09E2,7.06E2,1.248E3,8.15E2,4.79E2,-1.9E1,1.867E3,-3E0,-5E0,1.4939E3,1.236E3,1.01E2,2E0,5.41E1,9.45E2,2.42E2,8E0,6.93E2,1.6E1,4.79E2,-1.6E1,2.87E2,7.391E2,1.761E3,1.739E3,-1E1,-1.1E1,6.3E1,3.1E1,2.31E2,-3E0,7.599E2,2.269E3,-4E0,-4E0,1.93E1,7.245E2,1E0,9.1E1,4E0,4E0,4E0,4E0,1.22E2,8E0,1.772E3,1.4425E3,1.5E1,1.6E1,1.694E3,2E1,-1.1216388E-1,-1.0800637E-1,-1.065532E-1,-9.24715E-2,-1.1106818E-1,-9.971085E-2,-9.043219E-2,-7.631718E-2,-1.04538396E-1,-9.0972126E-2,-8.7531865E-2,-7.497818E-2,-7.121537E-2,-6.0103085E-2,-5.8820467E-2,-4.7298502E-2,-1.1116635E-1,-1.0120057E-1,-1.0308979E-1,-7.861319E-2,-9.953823E-2,-8.5036024E-2,-7.11714E-2,-5.128025E-2,-7.167275E-2,-5.590669E-2,-4.1952007E-2,-3.0179912E-2,-4.912783E-2,-3.612617E-2,-2.9285008E-2,-2.0648245E-2,-9.359127E-2,-5.3175207E-2,-2.9768089E-2,-1.1095514E-2,7.82416E-4,6.4342073E-3,5.5986118E-2,8.265056E-3,7.218417E-2,8.034632E-2,4.1802596E-2,5.7308614E-2,2.0572616E-2,3.269373E-2,1.1286094E-2,1.9449005E-2,8.025963E-2,7.2180375E-2,4.975833E-2,6.445324E-2,3.3746798E-2,2.460374E-2,4.949091E-2,3.706558E-2,7.741829E-2,8.0859214E-2,6.520418E-2,7.715063E-2,5.7936754E-2,4.9223557E-2,6.540134E-2,7.551313E-2],"split_indices":[1,1,1,0,0,1,1,1,1,0,1,1,0,0,0,0,0,1,0,1,1,0,0,0,1,0,0,0,1,0,1,0,1,0,0,0,0,1,1,0,0,0,1,0,0,1,1,0,0,3,0,1,1,1,1,0,1,0,0,1,1,0,1,0,0,0,0,0,0,0,0,0,0,0,0,0,0,0,0,0,0,0,0,0,0,0,0,0,0,0,0,0,0,0,0,0,0,0,0,0,0,0,0,0,0,0,0,0,0,0,0,0,0,0,0,0,0,0,0,0,0,0,0,0,0,0,0],"split_type":[0,0,0,0,0,0,0,0,0,0,0,0,0,0,0,0,0,0,0,0,0,0,0,0,0,0,0,0,0,0,0,0,0,0,0,0,0,0,0,0,0,0,0,0,0,0,0,0,0,0,0,0,0,0,0,0,0,0,0,0,0,0,0,0,0,0,0,0,0,0,0,0,0,0,0,0,0,0,0,0,0,0,0,0,0,0,0,0,0,0,0,0,0,0,0,0,0,0,0,0,0,0,0,0,0,0,0,0,0,0,0,0,0,0,0,0,0,0,0,0,0,0,0,0,0,0,0],"sum_hessian":[2.605489E6,4.7336644E5,2.1321225E6,2.1312402E5,2.6024242E5,1.6773766E6,4.5474584E5,1.2610188E5,8.7022125E4,3.521459E4,2.2502784E5,1.5088805E6,1.6849616E5,2.0351795E5,2.5122789E5,7.9475945E4,4.6625938E4,2.4914932E4,6.2107195E4,1.6518615E4,1.8695977E4,9.4290586E4,1.3073725E5,1.23176766E5,1.3857038E6,1.5246446E4,1.532497E5,5.015171E4,1.5336623E5,1.599935E5,9.123439E4,5.373695E4,2.5739E4,1.7486291E4,2.9139646E4,7.7215464E3,1.7193385E4,3.1265625E4,3.0841568E4,1.30637E4,3.454914E3,8.362878E3,1.03331E4,4.028434E4,5.4006246E4,3.564277E4,9.5094484E4,6.010582E3,1.1716619E5,1.318509E6,6.719477E4,7.662807E3,7.583639E3,3.312896E4,1.2012075E5,2.1041621E4,2.911009E4,7.135562E4,8.201062E4,9.210711E4,6.788638E4,5.577707E4,3.5457316E4,3.2436523E4,2.1300426E4,1.4400495E4,1.1338505E4,1.1175924E4,6.310367E3,9.432875E3,1.9706771E4,5.2792285E3,2.4423179E3,8.918966E3,8.274418E3,1.810269E4,1.3162936E4,1.0202732E4,2.0638836E4,9.784956E3,3.2787441E3,2.0577405E3,1.3971736E3,3.794895E3,4.5679824E3,6.6461436E3,3.6869553E3,1.3117937E4,2.7166402E4,3.403041E4,1.9975836E4,1.1266628E4,2.4376143E4,2.792932E4,6.7165164E4,2.6691877E3,3.341394E3,1.8636504E4,9.852968E4,1.2418378E6,7.667128E4,3.220125E3,6.3974652E4,2.7375828E3,4.9252246E3,2.6458354E3,4.9378037E3,1.1156405E4,2.1972555E4,4.2806555E4,7.7314195E4,1.3645519E4,7.396102E3,1.2206582E4,1.6903506E4,3.431855E4,3.703707E4,3.002902E4,5.19816E4,2.9743686E4,6.2363426E4,2.9879357E4,3.8007023E4,2.2774502E4,3.300257E4,2.0184562E4,1.5272754E4],"tree_param":{"num_deleted":"0","num_feature":"5","num_nodes":"127","size_leaf_vector":"1"}},{"base_weights":[4.5840037E-3,-1.1898525E0,2.7265668E-1,-1.6412498E0,-8.1919146E-1,-2.3234455E-1,7.414603E-1,-1.898368E0,-1.4085557E0,-1.0575024E0,-2.614509E-1,-4.4698933E-1,8.4404707E-1,5.564323E-1,1.2889285E0,-1.9427342E0,-1.3647022E0,-1.5889362E0,-9.957005E-1,-1.2455167E0,-8.0704033E-1,-3.991166E-1,2.3686363E-1,-8.074412E-1,-2.1814334E-1,5.594999E-1,1.2483708E0,2.856361E-1,8.359501E-1,1.0714027E0,1.4386008E0,-2.0406508E0,-1.825905E0,-1.8570108E0,-1.1672013E0,-1.6747259E0,-1.3629335E0,-1.1217227E0,-2.8126025E-1,-1.400961E0,-1.121304E0,-1.0286865E0,-6.494748E-1,-6.516406E-1,-2.2851409E-1,1.6184445E-1,7.7667606E-1,-1.139854E0,-6.499938E-1,-3.8433257E-1,-7.2571464E-2,2.912731E-1,6.772423E-1,1.0917336E0,1.4434531E0,2.4495605E-1,6.2498885E-1,7.22527E-1,1.0998755E0,9.544394E-1,1.2041996E0,1.326616E0,1.5067785E0,-1.0426678E-1,-9.967751E-2,-9.628713E-2,-8.3672404E-2,-1.09903865E-1,-8.519041E-2,-5.9214782E-2,5.853116E-2,-8.9552626E-2,-7.965966E-2,-7.417553E-2,-6.1316926E-2,-6.05597E-2,-4.901743E-2,-1.5935654E-2,6.313806E-2,-7.765061E-2,-6.487029E-2,-6.2855095E-2,-4.8330188E-2,-5.5322822E-2,-4.492733E-2,-3.185318E-2,-8.061403E-2,-3.914467E-2,-2.5059137E-2,-1.0551319E-2,-8.207529E-2,8.9151E-3,-8.0561996E-2,2.9920388E-2,6.489885E-2,-6.1180692E-2,-3.047813E-2,-3.523897E-2,-1.3832624E-2,-2.2442058E-2,1.1529102E-3,-6.368463E-3,1.253889E-2,5.9858426E-3,2.8044263E-2,2.735169E-2,4.31717E-2,4.239544E-2,5.902837E-2,6.671678E-2,7.588833E-2,4.07788E-3,1.6566543E-2,2.3982532E-2,3.451947E-2,1.6190648E-2,3.7572514E-2,5.2901026E-2,6.6359095E-2,4.2231057E-2,5.2242946E-2,5.635315E-2,6.775837E-2,6.1687864E-2,6.904475E-2,7.3175885E-2,7.742933E-2],"categories":[],"categories_nodes":[],"categories_segments":[],"categories_sizes":[],"default_left":[0,0,0,0,0,0,0,0,0,0,0,0,0,0,0,0,0,0,0,0,0,0,0,0,0,0,0,0,0,0,0,0,0,0,0,0,0,0,0,0,0,0,0,0,0,0,0,0,0,0,0,0,0,0,0,0,0,0,0,0,0,0,0,0,0,0,0,0,0,0,0,0,0,0,0,0,0,0,0,0,0,0,0,0,0,0,0,0,0,0,0,0,0,0,0,0,0,0,0,0,0,0,0,0,0,0,0,0,0,0,0,0,0,0,0,0,0,0,0,0,0,0,0,0,0,0,0],"id":3,"left_children":[1,3,5,7,9,11,13,15,17,19,21,23,25,27,29,31,33,35,37,39,41,43,45,47,49,51,53,55,57,59,61,63,65,67,69,71,73,75,77,79,81,83,85,87,89,91,93,95,97,99,101,103,105,107,109,111,113,115,117,119,121,123,125,-1,-1,-1,-1,-1,-1,-1,-1,-1,-1,-1,-1,-1,-1,-1,-1,-1,-1,-1,-1,-1,-1,-1,-1,-1,-1,-1,-1,-1,-1,-1,-1,-1,-1,-1,-1,-1,-1,-1,-1,-1,-1,-1,-1,-1,-1,-1,-1,-1,-1,-1,-1,-1,-1,-1,-1,-1,-1,-1,-1,-1,-1,-1,-1],"loss_changes":[8.3274225E5,7.9758625E4,5.0285525E5,1.285725E4,3.4792156E4,2.3624906E5,1.1157669E5,2.4149688E3,8.401266E3,8.635359E3,5.375956E3,7.03235E4,1.9558227E4,6.231389E4,9.057094E3,1.0746562E3,7.601875E2,1.5201875E3,3.0889023E3,2.0210938E3,2.745836E3,2.6451182E3,6.868354E2,1.732661E4,1.261548E4,3.1511465E3,2.144211E3,5.7723984E3,1.21260625E4,1.7604375E3,1.256375E3,1.0378125E2,6.511719E2,1.134668E2,2.251211E2,5.369375E2,3.541211E2,3.6773047E2,2.9799008E2,7.305625E2,1.2221562E3,3.2970703E2,5.4827734E2,4.884961E2,9.051864E2,4.3493307E2,1.9155042E2,4.7256094E3,4.5949766E3,6.398957E3,4.9254414E3,1.4079626E3,1.6806738E3,8.4271484E2,2.5153906E2,5.269867E3,4.2511914E2,3.2672656E3,1.1570469E3,5.979453E2,6.169219E2,3.1271094E2,1.83E2,0E0,0E0,0E0,0E0,0E0,0E0,0E0,0E0,0E0,0E0,0E0,0E0,0E0,0E0,0E0,0E0,0E0,0E0,0E0,0E0,0E0,0E0,0E0,0E0,0E0,0E0,0E0,0E0,0E0,0E0,0E0,0E0,0E0,0E0,0E0,0E0,0E0,0E0,0E0,0E0,0E0,0E0,0E0,0E0,0E0,0E0,0E0,0E0,0E0,0E0,0E0,0E0,0E0,0E0,0E0,0E0,0E0,0E0,0E0,0E0,0E0,0E0,0E0,0E0],"parents":[2147483647,0,0,1,1,2,2,3,3,4,4,5,5,6,6,7,7,8,8,9,9,10,10,11,11,12,12,13,13,14,14,15,15,16,16,17,17,18,18,19,19,20,20,21,21,22,22,23,23,24,24,25,25,26,26,27,27,28,28,29,29,30,30,31,31,32,32,33,33,34,34,35,35,36,36,37,37,38,38,39,39,40,40,41,41,42,42,43,43,44,44,45,45,46,46,47,47,48,48,49,49,50,50,51,51,52,52,53,53,54,54,55,55,56,56,57,57,58,58,59,59,60,60,61,61,62,62],"right_children":[2,4,6,8,10,12,14,16,18,20,22,24,26,28,30,32,34,36,38,40,42,44,46,48,50,52,54,56,58,60,62,64,66,68,70,72,74,76,78,80,82,84,86,88,90,92,94,96,98,100,102,104,106,108,110,112,114,116,118,120,122,124,126,-1,-1,-1,-1,-1,-1,-1,-1,-1,-1,-1,-1,-1,-1,-1,-1,-1,-1,-1,-1,-1,-1,-1,-1,-1,-1,-1,-1,-1,-1,-1,-1,-1,-1,-1,-1,-1,-1,-1,-1,-1,-1,-1,-1,-1,-1,-1,-1,-1,-1,-1,-1,-1,-1,-1,-1,-1,-1,-1,-1,-1,-1,-1,-1],"split_conditions":[-2E0,-8E0,1.5994918E-1,-1.3E1,3.92033E1,6E0,6E0,1.0287948E2,1.4515449E1,-6.040126E1,1.7193694E2,-1.1876848E2,1.2E1,9.236706E1,1.1E1,-1.7E1,-1.9E1,-4.9051006E1,1.7193694E2,-5E0,-5E0,-5E0,2.9297284E2,-2.1484119E2,-5.5727493E1,-1.20656845E2,1.7E1,3E0,1.9900131E2,1.0287948E2,1.5E1,-2.1E1,-5.1669594E1,-2.5E1,3.5379932E2,-1.5683838E2,-1E1,8.75507E1,3.5379932E2,-1.6025392E2,-1.3101367E2,-6E0,1E0,9.236706E1,1E0,1E0,3.5379932E2,1E0,2E0,2E0,2E0,9E0,9E0,-1.20656845E2,2E1,2.8963642E1,2.6239538E1,0E0,3.0827127E2,8E0,1.9900131E2,7.394917E1,2E1,-1.0426678E-1,-9.967751E-2,-9.628713E-2,-8.3672404E-2,-1.09903865E-1,-8.519041E-2,-5.9214782E-2,5.853116E-2,-8.9552626E-2,-7.965966E-2,-7.417553E-2,-6.1316926E-2,-6.05597E-2,-4.901743E-2,-1.5935654E-2,6.313806E-2,-7.765061E-2,-6.487029E-2,-6.2855095E-2,-4.8330188E-2,-5.5322822E-2,-4.492733E-2,-3.185318E-2,-8.061403E-2,-3.914467E-2,-2.5059137E-2,-1.0551319E-2,-8.207529E-2,8.9151E-3,-8.0561996E-2,2.9920388E-2,6.489885E-2,-6.1180692E-2,-3.047813E-2,-3.523897E-2,-1.3832624E-2,-2.2442058E-2,1.1529102E-3,-6.368463E-3,1.253889E-2,5.9858426E-3,2.8044263E-2,2.735169E-2,4.31717E-2,4.239544E-2,5.902837E-2,6.671678E-2,7.588833E-2,4.07788E-3,1.6566543E-2,2.3982532E-2,3.451947E-2,1.6190648E-2,3.7572514E-2,5.2901026E-2,6.6359095E-2,4.2231057E-2,5.2242946E-2,5.635315E-2,6.775837E-2,6.1687864E-2,6.904475E-2,7.3175885E-2,7.742933E-2],"split_indices":[1,1,4,1,4,1,1,4,4,4,4,4,1,4,1,1,1,4,4,1,1,1,4,4,4,4,1,1,4,4,1,1,4,1,4,4,1,4,4,4,4,1,2,4,2,2,4,1,1,1,1,1,1,4,1,4,4,1,4,1,4,4,1,0,0,0,0,0,0,0,0,0,0,0,0,0,0,0,0,0,0,0,0,0,0,0,0,0,0,0,0,0,0,0,0,0,0,0,0,0,0,0,0,0,0,0,0,0,0,0,0,0,0,0,0,0,0,0,0,0,0,0,0,0,0,0,0],"split_type":[0,0,0,0,0,0,0,0,0,0,0,0,0,0,0,0,0,0,0,0,0,0,0,0,0,0,0,0,0,0,0,0,0,0,0,0,0,0,0,0,0,0,0,0,0,0,0,0,0,0,0,0,0,0,0,0,0,0,0,0,0,0,0,0,0,0,0,0,0,0,0,0,0,0,0,0,0,0,0,0,0,0,0,0,0,0,0,0,0,0,0,0,0,0,0,0,0,0,0,0,0,0,0,0,0,0,0,0,0,0,0,0,0,0,0,0,0,0,0,0,0,0,0,0,0,0,0],"sum_hessian":[2.6007262E6,4.7670312E5,2.124023E6,2.1494094E5,2.6176219E5,1.0225354E6,1.1014876E6,1.0210813E5,1.1283281E5,1.833988E5,7.836339E4,8.5253144E5,1.7000392E5,8.232542E5,2.7823347E5,9.426849E4,7.8396396E3,7.852264E4,3.4310168E4,1.04756984E5,7.864182E4,6.140083E4,1.696256E4,3.3106828E5,5.214632E5,9.978296E4,7.022096E4,4.1815172E5,4.0510247E5,1.13413125E5,1.6482034E5,5.1276438E4,4.2992055E4,2.2421792E3,5.5974604E3,5.6912492E4,2.161015E4,2.9165084E4,5.145085E3,4.652436E4,5.8232625E4,3.2674016E4,4.5967805E4,2.4755375E4,3.6645457E4,1.4894001E4,2.0685593E3,1.0640764E5,2.2466066E5,2.4348814E5,2.7797503E5,3.044049E4,6.934247E4,3.895193E4,3.126903E4,3.733928E5,4.475889E4,2.8333972E5,1.2176274E5,6.0305816E4,5.3107305E4,6.2379625E4,1.0244071E5,2.6290854E4,2.4985582E4,2.5972268E4,1.701979E4,6.908449E2,1.5513342E3,5.5573184E3,4.0142147E1,2.3443533E4,3.346896E4,1.1472826E4,1.0137324E4,1.7856613E4,1.1308472E4,5.0240127E3,1.2107224E2,1.8842992E4,2.7681365E4,3.1007086E4,2.722554E4,2.04474E4,1.2226614E4,4.5384434E4,5.833705E2,1.3219269E4,1.1536105E4,3.6198598E4,4.4685764E2,1.4757919E4,1.3608185E2,1.5430374E3,5.2552185E2,9.1891945E4,1.4515695E4,1.9591098E5,2.8749678E4,2.1020325E5,3.328489E4,2.3769381E5,4.028122E4,1.8604041E4,1.1836449E4,4.0808207E4,2.8534262E4,1.0404621E4,2.8547309E4,1.2675717E4,1.8593312E4,1.2912469E5,2.4426814E5,1.3893032E4,3.086586E4,1.916452E4,2.6417522E5,1.0283323E5,1.8929516E4,2.7236404E4,3.3069414E4,3.5153965E4,1.7953342E4,2.3020512E4,3.9359113E4,5.0363273E4,5.207744E4],"tree_param":{"num_deleted":"0","num_feature":"5","num_nodes":"127","size_leaf_vector":"1"}},{"base_weights":[3.8379282E-3,-1.1256441E0,2.5962004E-1,-1.6098348E0,-8.15862E-1,-2.2161523E-1,7.1097517E-1,-1.8248333E0,-1.2117746E0,-1.5021515E0,-6.41011E-1,-4.2457727E-1,8.099961E-1,5.1983786E-1,1.2135867E0,-1.9462552E0,-1.6588641E0,-1.4173509E0,-5.487754E-1,-1.8871222E0,-1.2582737E0,-1.0905348E0,-3.1214467E-1,-6.932476E-1,-1.5008396E-1,1.2315688E0,4.767072E-1,2.5646845E-1,7.9380447E-1,1.0035417E0,1.3947952E0,-2.0105977E0,-1.8774326E0,-1.848028E0,-1.4629332E0,-1.6725057E0,-1.2745833E0,-7.3194265E-1,1.4159178E-2,-1.9934437E0,-1.6956587E0,-1.5178391E0,-9.830109E-1,-1.2923597E0,-9.6736443E-1,-5.110277E-1,1.3365869E-1,-1.0530031E0,-5.5368865E-1,-1.9399388E-1,2.373208E-1,9.6622676E-1,1.4280045E0,2.5716648E-1,9.159746E-1,-1.3533309E-1,2.8932357E-1,6.8279094E-1,1.0535395E0,1.3932326E0,9.3288815E-1,1.4585487E0,1.2496763E0,-9.928743E-2,-1.0148386E-1,-9.676695E-2,-8.2141705E-2,-9.4652705E-2,-8.078279E-2,-7.546742E-2,-1.842833E-2,-8.6407065E-2,-6.947437E-2,-7.106631E-2,-4.8593417E-2,-4.635286E-2,-2.78019E-2,-5.008641E-2,3.4980313E-3,-1.0250119E-1,-9.378957E-2,-9.445751E-2,-6.901806E-2,-8.0246024E-2,-6.449523E-2,-5.6055654E-2,-3.3589385E-2,-7.1036674E-2,-5.7825E-2,-5.3538647E-2,-3.902412E-2,-3.9222367E-2,-1.9084523E-2,-7.6530376E-3,1.7962296E-2,-5.6222674E-2,-2.9761642E-2,-3.0584691E-2,-8.192167E-3,-1.6838301E-2,-4.8296596E-3,5.2644283E-2,5.904173E-3,7.043755E-2,3.660247E-2,7.565284E-2,6.413569E-2,-3.449304E-3,2.009464E-2,3.8351264E-2,5.9713807E-2,-4.538772E-2,-1.7639222E-3,6.768223E-3,1.8523673E-2,1.5250333E-2,3.5563145E-2,5.0556123E-2,6.4144574E-2,7.4812256E-2,6.35807E-2,3.8798425E-2,5.4354567E-2,6.890726E-2,7.480209E-2,5.809161E-2,6.9254115E-2],"categories":[],"categories_nodes":[],"categories_segments":[],"categories_sizes":[],"default_left":[0,0,0,0,0,0,0,0,0,0,0,0,0,0,0,0,0,0,0,0,0,0,0,0,0,0,0,0,0,0,0,0,0,0,0,0,0,0,0,0,0,0,0,0,0,0,0,0,0,0,0,0,0,0,0,0,0,0,0,0,0,0,0,0,0,0,0,0,0,0,0,0,0,0,0,0,0,0,0,0,0,0,0,0,0,0,0,0,0,0,0,0,0,0,0,0,0,0,0,0,0,0,0,0,0,0,0,0,0,0,0,0,0,0,0,0,0,0,0,0,0,0,0,0,0,0,0],"id":4,"left_children":[1,3,5,7,9,11,13,15,17,19,21,23,25,27,29,31,33,35,37,39,41,43,45,47,49,51,53,55,57,59,61,63,65,67,69,71,73,75,77,79,81,83,85,87,89,91,93,95,97,99,101,103,105,107,109,111,113,115,117,119,121,123,125,-1,-1,-1,-1,-1,-1,-1,-1,-1,-1,-1,-1,-1,-1,-1,-1,-1,-1,-1,-1,-1,-1,-1,-1,-1,-1,-1,-1,-1,-1,-1,-1,-1,-1,-1,-1,-1,-1,-1,-1,-1,-1,-1,-1,-1,-1,-1,-1,-1,-1,-1,-1,-1,-1,-1,-1,-1,-1,-1,-1,-1,-1,-1,-1],"loss_changes":[7.494149E5,7.18415E4,4.594048E5,1.5991281E4,3.504997E4,2.1432802E5,1.04848375E5,2.442E3,8.932234E3,5.565797E3,3.4413492E4,6.308086E4,2.364443E4,5.7053062E4,1.1443656E4,3.0653125E2,1.8975938E3,1.8202734E3,1.5996733E3,4.6478906E2,2.592832E3,2.443664E3,1.1919674E4,2.1702078E4,7.1972646E3,3.8713984E3,9.063408E3,5.189707E3,1.1174141E4,3.83325E3,1.4916875E3,1.3140625E1,4.569297E2,2.6982812E2,1.2789883E3,2.8017188E2,1.4237852E3,4.0122998E2,2.1603116E2,9.455078E1,4.9875977E2,3.6883203E2,7.5678516E2,6.4839844E2,1.1795703E3,3.2872305E3,2.6826182E3,3.951E3,7.042664E3,5.284593E3,4.188591E3,3.2746973E3,5.256172E2,2.958087E3,1.2973516E3,2.410632E3,4.647162E3,2.9202656E3,1.1276406E3,2.6586328E2,2.852E3,3.3603125E2,5.845469E2,0E0,0E0,0E0,0E0,0E0,0E0,0E0,0E0,0E0,0E0,0E0,0E0,0E0,0E0,0E0,0E0,0E0,0E0,0E0,0E0,0E0,0E0,0E0,0E0,0E0,0E0,0E0,0E0,0E0,0E0,0E0,0E0,0E0,0E0,0E0,0E0,0E0,0E0,0E0,0E0,0E0,0E0,0E0,0E0,0E0,0E0,0E0,0E0,0E0,0E0,0E0,0E0,0E0,0E0,0E0,0E0,0E0,0E0,0E0,0E0,0E0,0E0,0E0,0E0],"parents":[2147483647,0,0,1,1,2,2,3,3,4,4,5,5,6,6,7,7,8,8,9,9,10,10,11,11,12,12,13,13,14,14,15,15,16,16,17,17,18,18,19,19,20,20,21,21,22,22,23,23,24,24,25,25,26,26,27,27,28,28,29,29,30,30,31,31,32,32,33,33,34,34,35,35,36,36,37,37,38,38,39,39,40,40,41,41,42,42,43,43,44,44,45,45,46,46,47,47,48,48,49,49,50,50,51,51,52,52,53,53,54,54,55,55,56,56,57,57,58,58,59,59,60,60,61,61,62,62],"right_children":[2,4,6,8,10,12,14,16,18,20,22,24,26,28,30,32,34,36,38,40,42,44,46,48,50,52,54,56,58,60,62,64,66,68,70,72,74,76,78,80,82,84,86,88,90,92,94,96,98,100,102,104,106,108,110,112,114,116,118,120,122,124,126,-1,-1,-1,-1,-1,-1,-1,-1,-1,-1,-1,-1,-1,-1,-1,-1,-1,-1,-1,-1,-1,-1,-1,-1,-1,-1,-1,-1,-1,-1,-1,-1,-1,-1,-1,-1,-1,-1,-1,-1,-1,-1,-1,-1,-1,-1,-1,-1,-1,-1,-1,-1,-1,-1,-1,-1,-1,-1,-1,-1,-1,-1,-1,-1],"split_conditions":[-2E0,-9E0,1.5994918E-1,1.379E3,6.16E2,6E0,5E0,7.508E2,3.4220375E1,1.66E2,-5.324565E1,-9.1384735E1,1.034E3,9.236706E1,1.1E1,3.77E2,-1.4E1,-1.4E1,1.5551512E2,-4E0,-5E0,-1.6025392E2,9.236706E1,-2.0682953E2,3E0,1.1E1,1.2E1,0E0,1.9900131E2,4.11E2,1.393E3,-9.613108E1,-1.1E1,3.92033E1,1.7193694E2,-1.9868696E1,-4.9051006E1,1.825E3,-1.9E1,8.1E1,6.3E1,-6E0,3.4220375E1,-5E0,-4E0,-6E0,1.739E3,1E0,2E0,-5.0304245E1,3.54E2,3.21E2,6.52E2,-1.20656845E2,1.7E1,3.54E2,2.8963642E1,0E0,3.0827127E2,1.76E2,9.428718E1,1.5E1,1.6E1,-9.928743E-2,-1.0148386E-1,-9.676695E-2,-8.2141705E-2,-9.4652705E-2,-8.078279E-2,-7.546742E-2,-1.842833E-2,-8.6407065E-2,-6.947437E-2,-7.106631E-2,-4.8593417E-2,-4.635286E-2,-2.78019E-2,-5.008641E-2,3.4980313E-3,-1.0250119E-1,-9.378957E-2,-9.445751E-2,-6.901806E-2,-8.0246024E-2,-6.449523E-2,-5.6055654E-2,-3.3589385E-2,-7.1036674E-2,-5.7825E-2,-5.3538647E-2,-3.902412E-2,-3.9222367E-2,-1.9084523E-2,-7.6530376E-3,1.7962296E-2,-5.6222674E-2,-2.9761642E-2,-3.0584691E-2,-8.192167E-3,-1.6838301E-2,-4.8296596E-3,5.2644283E-2,5.904173E-3,7.043755E-2,3.660247E-2,7.565284E-2,6.413569E-2,-3.449304E-3,2.009464E-2,3.8351264E-2,5.9713807E-2,-4.538772E-2,-1.7639222E-3,6.768223E-3,1.8523673E-2,1.5250333E-2,3.5563145E-2,5.0556123E-2,6.4144574E-2,7.4812256E-2,6.35807E-2,3.8798425E-2,5.4354567E-2,6.890726E-2,7.480209E-2,5.809161E-2,6.9254115E-2],"split_indices":[1,1,4,0,0,1,1,0,4,0,4,4,0,4,1,0,1,1,4,1,1,4,4,4,1,1,1,1,4,0,0,4,1,4,4,4,4,0,1,0,0,1,4,1,1,1,0,1,1,4,0,0,0,4,1,0,4,1,4,0,4,1,1,0,0,0,0,0,0,0,0,0,0,0,0,0,0,0,0,0,0,0,0,0,0,0,0,0,0,0,0,0,0,0,0,0,0,0,0,0,0,0,0,0,0,0,0,0,0,0,0,0,0,0,0,0,0,0,0,0,0,0,0,0,0,0,0],"split_type":[0,0,0,0,0,0,0,0,0,0,0,0,0,0,0,0,0,0,0,0,0,0,0,0,0,0,0,0,0,0,0,0,0,0,0,0,0,0,0,0,0,0,0,0,0,0,0,0,0,0,0,0,0,0,0,0,0,0,0,0,0,0,0,0,0,0,0,0,0,0,0,0,0,0,0,0,0,0,0,0,0,0,0,0,0,0,0,0,0,0,0,0,0,0,0,0,0,0,0,0,0,0,0,0,0,0,0,0,0,0,0,0,0,0,0,0,0,0,0,0,0,0,0,0,0,0,0],"sum_hessian":[2.5940152E6,4.7897134E5,2.1150438E6,1.868772E5,2.9209412E5,1.02363925E6,1.0914046E6,1.213374E5,6.5539805E4,5.9306957E4,2.3278717E5,8.5535494E5,1.682843E5,7.907092E5,3.006954E5,7.006649E4,5.127091E4,5.002684E4,1.5512964E4,2.2997604E4,3.6309355E4,9.835057E4,1.3443661E5,4.3226162E5,4.2309334E5,7.4300234E4,9.398406E4,4.0315266E5,3.875565E5,1.3926966E5,1.6142575E5,3.6197344E4,3.3869145E4,2.6081646E4,2.5189262E4,1.7944898E4,3.2081941E4,1.1704319E4,3.8086448E3,1.4780456E4,8.217147E3,1.8685197E4,1.7624158E4,3.7270402E4,6.1080164E4,9.2963375E4,4.147323E4,1.2081581E5,3.114458E5,3.8002084E5,4.3072492E4,3.1609094E4,4.2691137E4,6.2665945E4,3.1318115E4,3.1191137E4,3.7196153E5,2.715127E5,1.1604383E5,2.1372193E4,1.1789747E5,1.12147914E5,4.927784E4,1.5767237E4,2.0430107E4,2.7158352E4,6.7107935E3,2.1842203E4,4.239445E3,2.4164016E4,1.0252461E3,1.4992562E4,2.952337E3,2.1605064E4,1.0476877E4,5.5471343E3,6.157185E3,1.9742854E2,3.6112163E3,9.96957E3,4.810886E3,5.089091E3,3.1280566E3,1.3515586E4,5.1696113E3,1.2205491E4,5.4186665E3,1.9158295E4,1.8112107E4,3.93189E4,2.1761266E4,2.9851691E4,6.3111688E4,1.826231E4,2.321092E4,1.0450313E5,1.6312681E4,2.7110712E5,4.033867E4,1.5411423E5,2.259066E5,5.4930513E3,3.757944E4,1.0936813E4,2.0672281E4,2.6921834E4,1.5769303E4,1.9260768E4,4.340518E4,2.0402352E4,1.0915763E4,3.5760422E3,2.7615096E4,1.28386625E5,2.435749E5,1.9029451E4,2.5248322E5,9.7936555E4,1.810728E4,1.1565099E4,9.807095E3,5.8437023E4,5.946044E4,3.5676945E4,7.647097E4,2.989386E4,1.938398E4],"tree_param":{"num_deleted":"0","num_feature":"5","num_nodes":"127","size_leaf_vector":"1"}},{"base_weights":[4.478298E-3,-1.0666792E0,2.487955E-1,-1.5273252E0,-7.7236176E-1,-2.0957941E-1,6.825441E-1,-1.7384634E0,-1.161424E0,-1.3543957E0,-5.86537E-1,-4.011343E-1,7.7726847E-1,5.1972324E-1,1.2447826E0,-1.8499864E0,-1.5788242E0,-1.3547544E0,-5.354723E-1,-1.7570517E0,-1.1257887E0,-8.304783E-1,-1.9622507E-2,-7.24002E-1,-1.9489786E-1,1.1560808E0,4.2246655E-1,2.7247494E-1,7.782376E-1,1.083336E0,1.3964064E0,-1.9115049E0,-1.784077E0,-1.7594379E0,-1.3894323E0,-1.6370506E0,-1.2389779E0,-7.0603067E-1,-7.5781927E-3,-1.8769913E0,-1.5676689E0,-1.4480265E0,-9.3165845E-1,-1.0200655E0,-5.4054093E-1,-1.5452436E-1,4.5336917E-1,-9.9442196E-1,-5.7013214E-1,-3.4405273E-1,-6.355421E-2,8.83725E-1,1.3625691E0,2.2681499E-1,8.389772E-1,2.2190928E-1,6.016412E-1,6.713305E-1,1.0296819E0,1.2976344E0,9.6974736E-1,1.4473305E0,1.2868623E0,-9.643094E-2,-9.407032E-2,-9.427539E-2,-8.2814835E-2,-9.014068E-2,-7.668173E-2,-7.998779E-2,-5.8573015E-2,-9.0113625E-2,-7.815792E-2,-6.855904E-2,-4.7380235E-2,-4.679094E-2,-2.6940951E-2,-5.2426685E-2,2.5278684E-3,-9.609892E-2,-8.4424384E-2,-9.054364E-2,-6.598973E-2,-7.5958215E-2,-5.6684237E-2,-5.3410776E-2,-3.1192755E-2,-6.0916632E-2,-4.493708E-2,-3.601653E-2,-1.9314632E-2,-1.8192595E-2,4.5726644E-3,6.9057206E-3,3.0290296E-2,-5.310912E-2,-2.8077194E-2,-3.059564E-2,-7.4466616E-3,-2.0091098E-2,1.1778766E-3,-5.2467263E-3,1.48252E-2,6.378788E-2,3.0861987E-2,7.329298E-2,6.0549658E-2,-4.1822838E-3,1.8314024E-2,2.3487851E-2,4.783556E-2,3.7154139E-3,1.5012592E-2,6.846461E-2,2.6976397E-2,1.4210609E-2,3.493141E-2,4.9509246E-2,6.2311538E-2,7.168132E-2,5.9919965E-2,4.4594094E-2,6.005087E-2,7.377731E-2,7.004931E-2,6.0864817E-2,6.973582E-2],"categories":[],"categories_nodes":[],"categories_segments":[],"categories_sizes":[],"default_left":[0,0,0,0,0,0,0,0,0,0,0,0,0,0,0,0,0,0,0,0,0,0,0,0,0,0,0,0,0,0,0,0,0,0,0,0,0,0,0,0,0,0,0,0,0,0,0,0,0,0,0,0,0,0,0,0,0,0,0,0,0,0,0,0,0,0,0,0,0,0,0,0,0,0,0,0,0,0,0,0,0,0,0,0,0,0,0,0,0,0,0,0,0,0,0,0,0,0,0,0,0,0,0,0,0,0,0,0,0,0,0,0,0,0,0,0,0,0,0,0,0,0,0,0,0,0,0],"id":5,"left_children":[1,3,5,7,9,11,13,15,17,19,21,23,25,27,29,31,33,35,37,39,41,43,45,47,49,51,53,55,57,59,61,63,65,67,69,71,73,75,77,79,81,83,85,87,89,91,93,95,97,99,101,103,105,107,109,111,113,115,117,119,121,123,125,-1,-1,-1,-1,-1,-1,-1,-1,-1,-1,-1,-1,-1,-1,-1,-1,-1,-1,-1,-1,-1,-1,-1,-1,-1,-1,-1,-1,-1,-1,-1,-1,-1,-1,-1,-1,-1,-1,-1,-1,-1,-1,-1,-1,-1,-1,-1,-1,-1,-1,-1,-1,-1,-1,-1,-1,-1,-1,-1,-1,-1,-1,-1,-1],"loss_changes":[6.764573E5,6.5084812E4,4.184686E5,1.4456469E4,3.1680344E4,1.9344675E5,9.899828E4,2.1098125E3,8.286602E3,6.523164E3,3.0705906E4,5.7064125E4,2.2357242E4,5.3599875E4,5.9431875E3,2.7982812E2,1.6672969E3,1.7079844E3,1.4551318E3,5.801172E2,2.8273516E3,8.532547E3,4.262321E3,1.3898641E4,1.0244814E4,4.523242E3,6.999705E3,7.1342754E3,1.10193125E4,2.8617969E3,6.967344E2,1.4984375E1,4.341875E2,2.4191406E2,1.0907188E3,1.8292188E2,1.4281133E3,4.6883594E2,2.3894722E2,1.2998438E2,5.98E2,3.783828E2,1.1855527E3,2.256664E3,1.7018477E3,2.6762534E3,7.1230444E2,3.552664E3,3.7465469E3,5.2002207E3,4.143212E3,3.6238496E3,7.146172E2,2.5306414E3,1.1929355E3,4.2964727E3,2.7207695E3,3.039586E3,1.0447812E3,5.48125E2,1.3833203E3,1.0971875E2,2.965547E2,0E0,0E0,0E0,0E0,0E0,0E0,0E0,0E0,0E0,0E0,0E0,0E0,0E0,0E0,0E0,0E0,0E0,0E0,0E0,0E0,0E0,0E0,0E0,0E0,0E0,0E0,0E0,0E0,0E0,0E0,0E0,0E0,0E0,0E0,0E0,0E0,0E0,0E0,0E0,0E0,0E0,0E0,0E0,0E0,0E0,0E0,0E0,0E0,0E0,0E0,0E0,0E0,0E0,0E0,0E0,0E0,0E0,0E0,0E0,0E0,0E0,0E0,0E0,0E0],"parents":[2147483647,0,0,1,1,2,2,3,3,4,4,5,5,6,6,7,7,8,8,9,9,10,10,11,11,12,12,13,13,14,14,15,15,16,16,17,17,18,18,19,19,20,20,21,21,22,22,23,23,24,24,25,25,26,26,27,27,28,28,29,29,30,30,31,31,32,32,33,33,34,34,35,35,36,36,37,37,38,38,39,39,40,40,41,41,42,42,43,43,44,44,45,45,46,46,47,47,48,48,49,49,50,50,51,51,52,52,53,53,54,54,55,55,56,56,57,57,58,58,59,59,60,60,61,61,62,62],"right_children":[2,4,6,8,10,12,14,16,18,20,22,24,26,28,30,32,34,36,38,40,42,44,46,48,50,52,54,56,58,60,62,64,66,68,70,72,74,76,78,80,82,84,86,88,90,92,94,96,98,100,102,104,106,108,110,112,114,116,118,120,122,124,126,-1,-1,-1,-1,-1,-1,-1,-1,-1,-1,-1,-1,-1,-1,-1,-1,-1,-1,-1,-1,-1,-1,-1,-1,-1,-1,-1,-1,-1,-1,-1,-1,-1,-1,-1,-1,-1,-1,-1,-1,-1,-1,-1,-1,-1,-1,-1,-1,-1,-1,-1,-1,-1,-1,-1,-1,-1,-1,-1,-1,-1,-1,-1,-1],"split_conditions":[-2E0,-9E0,1.5994918E-1,1.338E3,7.391E2,6E0,7E0,7.508E2,3.4220375E1,1.98E2,3.92033E1,-1.1876848E2,1.15E3,9.236706E1,1.3E1,3.77E2,-1.4E1,-1.5E1,1.5551512E2,8.1E1,-6E0,-5.324565E1,1.7193694E2,-2.0682953E2,-5.5727493E1,1.1E1,1.2E1,3E0,1.9900131E2,9.13E2,1.261E3,2.31E2,-1.4E1,3.92033E1,-4.9051006E1,-2E1,-4.6248627E1,1.75E3,-1.9E1,-3E0,-5E0,7.041838E1,3.4220375E1,-1.6025392E2,-5E0,1.955E3,1.596E3,1E0,3E0,2E0,3E0,4.45E2,6.79E2,-1.20656845E2,-1.2702552E2,2.8963642E1,1.44E2,0E0,3.0827127E2,3.65E2,1.6632442E2,7.245E2,1.8E1,-9.643094E-2,-9.407032E-2,-9.427539E-2,-8.2814835E-2,-9.014068E-2,-7.668173E-2,-7.998779E-2,-5.8573015E-2,-9.0113625E-2,-7.815792E-2,-6.855904E-2,-4.7380235E-2,-4.679094E-2,-2.6940951E-2,-5.2426685E-2,2.5278684E-3,-9.609892E-2,-8.4424384E-2,-9.054364E-2,-6.598973E-2,-7.5958215E-2,-5.6684237E-2,-5.3410776E-2,-3.1192755E-2,-6.0916632E-2,-4.493708E-2,-3.601653E-2,-1.9314632E-2,-1.8192595E-2,4.5726644E-3,6.9057206E-3,3.0290296E-2,-5.310912E-2,-2.8077194E-2,-3.059564E-2,-7.4466616E-3,-2.0091098E-2,1.1778766E-3,-5.2467263E-3,1.48252E-2,6.378788E-2,3.0861987E-2,7.329298E-2,6.0549658E-2,-4.1822838E-3,1.8314024E-2,2.3487851E-2,4.783556E-2,3.7154139E-3,1.5012592E-2,6.846461E-2,2.6976397E-2,1.4210609E-2,3.493141E-2,4.9509246E-2,6.2311538E-2,7.168132E-2,5.9919965E-2,4.4594094E-2,6.005087E-2,7.377731E-2,7.004931E-2,6.0864817E-2,6.973582E-2],"split_indices":[1,1,4,0,0,1,1,0,4,0,4,4,0,4,1,0,1,1,4,0,1,4,4,4,4,1,1,1,4,0,0,0,1,4,4,1,4,0,1,1,1,4,4,4,1,0,0,1,1,1,1,0,0,4,4,4,0,1,4,0,4,0,1,0,0,0,0,0,0,0,0,0,0,0,0,0,0,0,0,0,0,0,0,0,0,0,0,0,0,0,0,0,0,0,0,0,0,0,0,0,0,0,0,0,0,0,0,0,0,0,0,0,0,0,0,0,0,0,0,0,0,0,0,0,0,0,0],"split_type":[0,0,0,0,0,0,0,0,0,0,0,0,0,0,0,0,0,0,0,0,0,0,0,0,0,0,0,0,0,0,0,0,0,0,0,0,0,0,0,0,0,0,0,0,0,0,0,0,0,0,0,0,0,0,0,0,0,0,0,0,0,0,0,0,0,0,0,0,0,0,0,0,0,0,0,0,0,0,0,0,0,0,0,0,0,0,0,0,0,0,0,0,0,0,0,0,0,0,0,0,0,0,0,0,0,0,0,0,0,0,0,0,0,0,0,0,0,0,0,0,0,0,0,0,0,0,0],"sum_hessian":[2.584834E6,4.8006894E5,2.104765E6,1.871501E5,2.9291884E5,1.0233327E6,1.0814324E6,1.1866961E5,6.8480484E4,7.0885945E4,2.2203289E5,8.569857E5,1.6634705E5,8.3858506E5,2.4284731E5,6.985723E4,4.8812387E4,5.231989E4,1.6160592E4,2.5668379E4,4.521757E4,1.5523525E5,6.679763E4,3.3403853E5,5.2294712E5,8.045024E4,8.589681E4,4.2863353E5,4.0995156E5,1.176179E5,1.2522941E5,3.611769E4,3.3739535E4,2.498096E4,2.3831428E4,1.5213032E4,3.710686E4,1.2214006E4,3.9465857E3,1.5710026E4,9.958354E3,1.6997266E4,2.8220303E4,9.385914E4,6.1376117E4,5.1974633E4,1.4823E4,1.21138E5,2.1290053E5,2.4486964E5,2.780775E5,3.4694203E4,4.5756035E4,5.844461E4,2.7452203E4,3.715575E5,5.7076035E4,2.876532E5,1.2229837E5,4.0742332E4,7.687557E4,8.547993E4,3.9749473E4,2.2985275E4,1.3132414E4,1.8801414E4,1.4938122E4,2.0949664E4,4.0312961E3,1.2125281E4,1.1706146E4,4.6939863E3,1.0519046E4,2.5522834E4,1.1584024E4,5.14246E3,7.071546E3,2.0785045E2,3.738735E3,1.2675719E4,3.0343079E3,5.0233467E3,4.935007E3,1.3857405E4,3.1398604E3,1.9546166E4,8.674138E3,3.562761E4,5.8231527E4,2.8339879E4,3.303624E4,2.8078924E4,2.3895709E4,4.8319463E3,9.991054E3,1.04740945E5,1.6397057E4,1.9368734E5,1.9213191E4,2.1161472E5,3.325492E4,2.4941388E5,2.866361E4,1.4038322E4,2.0655883E4,2.720718E4,1.8548854E4,1.8116447E4,4.032816E4,6.6384995E3,2.0813703E4,1.28832695E5,2.427248E5,4.270937E3,5.2805098E4,1.8948541E4,2.6870462E5,1.0343764E5,1.8860734E4,1.7182254E4,2.3560076E4,5.751567E4,1.9359898E4,5.31126E4,3.2367328E4,2.4171283E4,1.55781875E4],"tree_param":{"num_deleted":"0","num_feature":"5","num_nodes":"127","size_leaf_vector":"1"}},{"base_weights":[3.8486498E-3,-1.0140865E0,2.3710793E-1,-1.4043515E0,-6.95123E-1,3.9046343E-2,1.0092801E0,-1.6353363E0,-1.0521133E0,-1.4894084E0,-5.707657E-1,-3.180776E-4,3.965228E-1,7.686938E-1,1.2723329E0,-1.7615008E0,-1.4809918E0,-1.3405191E0,-8.9520496E-1,-1.7473822E0,-1.2615544E0,-7.980185E-1,-4.486445E-1,-3.0240464E-1,2.675737E-2,1.1990366E0,3.1860298E-1,1.2025435E0,6.2667495E-1,1.3790528E0,1.0692419E0,-1.8037385E0,-1.6508176E0,-1.668255E0,-1.2732699E0,-1.4997373E0,-1.1798906E0,-1.056471E0,-7.81157E-1,-1.8346933E0,-1.6140337E0,-1.4454004E0,-9.695591E-1,-9.5049155E-1,-5.389207E-1,-6.0375506E-1,-3.4565848E-1,-1.3001825E0,-2.5103605E-1,1.9050755E-2,1.7869465E-1,1.4326878E0,9.284438E-1,5.2292645E-1,2.721405E-1,1.3969214E0,1.0528659E0,5.113423E-1,7.8887105E-1,1.4340549E0,1.2914062E0,9.553627E-1,1.2603042E0,-9.150857E-2,-8.801159E-2,-9.086548E-2,-7.5405054E-2,-8.8489495E-2,-7.883483E-2,-6.840273E-2,-5.7946827E-2,-7.962675E-2,-6.817357E-2,-6.451862E-2,-5.432008E-2,-5.6706317E-2,-4.85824E-2,-4.284902E-2,-3.5771605E-2,-9.343002E-2,-8.782855E-2,-8.84332E-2,-7.025792E-2,-7.940362E-2,-6.603288E-2,-5.628999E-2,-4.0884834E-2,-5.473302E-2,-4.11611E-2,-3.2405034E-2,-2.3822388E-2,-3.3968907E-2,-2.2632552E-2,-1.9952208E-2,-1.2810121E-2,-8.347472E-2,-4.6419587E-2,-2.441272E-2,-9.2018675E-3,6.4209354E-4,5.991826E-3,5.289321E-2,6.7810314E-3,7.3632516E-2,6.306471E-2,4.175706E-2,5.7157155E-2,1.8113574E-2,3.0278599E-2,8.735011E-3,1.6301109E-2,7.280459E-2,6.479081E-2,4.551665E-2,6.085224E-2,2.9070178E-2,1.9471807E-2,4.5817394E-2,3.3296596E-2,7.289927E-2,6.990812E-2,5.9634496E-2,7.005141E-2,5.3219497E-2,4.511301E-2,5.9269655E-2,6.8268895E-2],"categories":[],"categories_nodes":[],"categories_segments":[],"categories_sizes":[],"default_left":[0,0,0,0,0,0,0,0,0,0,0,0,0,0,0,0,0,0,0,0,0,0,0,0,0,0,0,0,0,0,0,0,0,0,0,0,0,0,0,0,0,0,0,0,0,0,0,0,0,0,0,0,0,0,0,0,0,0,0,0,0,0,0,0,0,0,0,0,0,0,0,0,0,0,0,0,0,0,0,0,0,0,0,0,0,0,0,0,0,0,0,0,0,0,0,0,0,0,0,0,0,0,0,0,0,0,0,0,0,0,0,0,0,0,0,0,0,0,0,0,0,0,0,0,0,0,0],"id":6,"left_children":[1,3,5,7,9,11,13,15,17,19,21,23,25,27,29,31,33,35,37,39,41,43,45,47,49,51,53,55,57,59,61,63,65,67,69,71,73,75,77,79,81,83,85,87,89,91,93,95,97,99,101,103,105,107,109,111,113,115,117,119,121,123,125,-1,-1,-1,-1,-1,-1,-1,-1,-1,-1,-1,-1,-1,-1,-1,-1,-1,-1,-1,-1,-1,-1,-1,-1,-1,-1,-1,-1,-1,-1,-1,-1,-1,-1,-1,-1,-1,-1,-1,-1,-1,-1,-1,-1,-1,-1,-1,-1,-1,-1,-1,-1,-1,-1,-1,-1,-1,-1,-1,-1,-1,-1,-1,-1],"loss_changes":[6.110136E5,5.9717188E4,3.2018544E5,1.7552344E4,2.6074508E4,2.3446418E4,2.7046344E4,2.5347812E3,3.8657812E3,2.0983516E3,6.3341953E3,1.2276199E4,1.033468E4,1.3753109E4,4.4233438E3,3.321875E2,2.277836E3,7.6822656E2,1.01708984E3,1.9213672E2,1.01743945E3,3.1513398E3,2.3714941E3,6.327495E3,1.6128938E3,9.2344727E2,1.4300449E3,1.6001406E3,3.1455547E3,6.433281E2,1.5290234E3,5.6421875E1,4.6804688E2,2.8373438E2,2.9960547E2,1.8898047E2,1.5344922E2,1.4990039E2,1.6096484E2,2.3523438E1,2.119414E2,2.0514258E2,1.7313623E2,9.206367E2,2.0130664E2,6.7664453E2,4.2603125E2,8.2841406E2,1.8660322E3,8.203568E2,2.5179814E3,5.189258E1,1.3487305E2,3.703496E2,6.443711E2,1.4136719E2,7.2677344E2,8.3925195E2,1.0946445E3,6.8578125E1,5.568203E2,2.541836E2,2.0508594E2,0E0,0E0,0E0,0E0,0E0,0E0,0E0,0E0,0E0,0E0,0E0,0E0,0E0,0E0,0E0,0E0,0E0,0E0,0E0,0E0,0E0,0E0,0E0,0E0,0E0,0E0,0E0,0E0,0E0,0E0,0E0,0E0,0E0,0E0,0E0,0E0,0E0,0E0,0E0,0E0,0E0,0E0,0E0,0E0,0E0,0E0,0E0,0E0,0E0,0E0,0E0,0E0,0E0,0E0,0E0,0E0,0E0,0E0,0E0,0E0,0E0,0E0,0E0,0E0],"parents":[2147483647,0,0,1,1,2,2,3,3,4,4,5,5,6,6,7,7,8,8,9,9,10,10,11,11,12,12,13,13,14,14,15,15,16,16,17,17,18,18,19,19,20,20,21,21,22,22,23,23,24,24,25,25,26,26,27,27,28,28,29,29,30,30,31,31,32,32,33,33,34,34,35,35,36,36,37,37,38,38,39,39,40,40,41,41,42,42,43,43,44,44,45,45,46,46,47,47,48,48,49,49,50,50,51,51,52,52,53,53,54,54,55,55,56,56,57,57,58,58,59,59,60,60,61,61,62,62],"right_children":[2,4,6,8,10,12,14,16,18,20,22,24,26,28,30,32,34,36,38,40,42,44,46,48,50,52,54,56,58,60,62,64,66,68,70,72,74,76,78,80,82,84,86,88,90,92,94,96,98,100,102,104,106,108,110,112,114,116,118,120,122,124,126,-1,-1,-1,-1,-1,-1,-1,-1,-1,-1,-1,-1,-1,-1,-1,-1,-1,-1,-1,-1,-1,-1,-1,-1,-1,-1,-1,-1,-1,-1,-1,-1,-1,-1,-1,-1,-1,-1,-1,-1,-1,-1,-1,-1,-1,-1,-1,-1,-1,-1,-1,-1,-1,-1,-1,-1,-1,-1,-1,-1,-1,-1,-1,-1],"split_conditions":[-2E0,-8E0,6E0,1.313E3,3.77E2,3E0,1.2E1,7.2E2,-1.3E1,1.11E2,1.408E3,0E0,2.09E2,7.2E2,1.261E3,-1.1E1,-1.3E1,-1.6E1,1.793E3,-4E0,-4E0,-4E0,-5E0,1.01E2,2E0,6.3E1,8.49E2,2.64E2,9E0,7.245E2,1.7E1,4.22E2,2.98E2,-1.8E1,-1E1,1.75E3,1.739E3,-1E1,-1E1,5.41E1,3.1E1,-6E0,-3E0,-6E0,7.599E2,2.28E3,-3E0,2.49E1,9.56E2,1E0,9.1E1,3.79E1,5E0,4E0,4E0,1.33E2,9E0,2.045E3,1.617E3,4.22E2,1.8E1,1.596E3,2.1E1,-9.150857E-2,-8.801159E-2,-9.086548E-2,-7.5405054E-2,-8.8489495E-2,-7.883483E-2,-6.840273E-2,-5.7946827E-2,-7.962675E-2,-6.817357E-2,-6.451862E-2,-5.432008E-2,-5.6706317E-2,-4.85824E-2,-4.284902E-2,-3.5771605E-2,-9.343002E-2,-8.782855E-2,-8.84332E-2,-7.025792E-2,-7.940362E-2,-6.603288E-2,-5.628999E-2,-4.0884834E-2,-5.473302E-2,-4.11611E-2,-3.2405034E-2,-2.3822388E-2,-3.3968907E-2,-2.2632552E-2,-1.9952208E-2,-1.2810121E-2,-8.347472E-2,-4.6419587E-2,-2.441272E-2,-9.2018675E-3,6.4209354E-4,5.991826E-3,5.289321E-2,6.7810314E-3,7.3632516E-2,6.306471E-2,4.175706E-2,5.7157155E-2,1.8113574E-2,3.0278599E-2,8.735011E-3,1.6301109E-2,7.280459E-2,6.479081E-2,4.551665E-2,6.085224E-2,2.9070178E-2,1.9471807E-2,4.5817394E-2,3.3296596E-2,7.289927E-2,6.990812E-2,5.9634496E-2,7.005141E-2,5.3219497E-2,4.511301E-2,5.9269655E-2,6.8268895E-2],"split_indices":[1,1,1,0,0,1,1,0,1,0,0,1,0,0,0,1,1,1,0,1,1,1,1,0,1,0,0,0,1,0,1,0,0,1,1,0,0,1,1,0,0,1,1,1,0,0,1,0,0,3,0,0,1,1,1,0,1,0,0,0,1,0,1,0,0,0,0,0,0,0,0,0,0,0,0,0,0,0,0,0,0,0,0,0,0,0,0,0,0,0,0,0,0,0,0,0,0,0,0,0,0,0,0,0,0,0,0,0,0,0,0,0,0,0,0,0,0,0,0,0,0,0,0,0,0,0,0],"split_type":[0,0,0,0,0,0,0,0,0,0,0,0,0,0,0,0,0,0,0,0,0,0,0,0,0,0,0,0,0,0,0,0,0,0,0,0,0,0,0,0,0,0,0,0,0,0,0,0,0,0,0,0,0,0,0,0,0,0,0,0,0,0,0,0,0,0,0,0,0,0,0,0,0,0,0,0,0,0,0,0,0,0,0,0,0,0,0,0,0,0,0,0,0,0,0,0,0,0,0,0,0,0,0,0,0,0,0,0,0,0,0,0,0,0,0,0,0,0,0,0,0,0,0,0,0,0,0],"sum_hessian":[2.5733065E6,4.7973906E5,2.0935675E6,2.1575298E5,2.6398606E5,1.6661916E6,4.2737584E5,1.30302086E5,8.545091E4,3.57345E4,2.2825156E5,1.5009155E6,1.652761E5,2.232222E5,2.0415364E5,7.169034E4,5.8611742E4,3.0106348E4,5.5344555E4,1.6756406E4,1.8978092E4,7.9781766E4,1.484698E5,1.2345801E5,1.3774575E6,1.4625929E4,1.5065017E5,5.50485E4,1.681737E5,1.338255E5,7.032815E4,5.187798E4,1.9812363E4,3.0820113E4,2.7791627E4,1.5115358E4,1.499099E4,2.2922879E4,3.2421678E4,1.0118475E4,6.6379326E3,1.1643291E4,7.3348003E3,5.0223656E4,2.955811E4,5.9240668E4,8.922913E4,6.0435933E3,1.17414414E5,1.3109635E6,6.649403E4,7.846419E3,6.7795103E3,2.790867E4,1.227415E5,2.3944629E4,3.1103873E4,9.828816E4,6.988555E4,8.221594E4,5.1609555E4,4.4068137E4,2.6260012E4,3.2245729E4,1.9632252E4,9.139073E3,1.0673291E4,1.460518E4,1.6214934E4,1.5188836E4,1.2602792E4,8.985504E3,6.1298545E3,6.865173E3,8.1258174E3,1.1960595E4,1.0962283E4,1.5048729E4,1.737295E4,7.040011E3,3.0784634E3,3.8099573E3,2.8279753E3,5.4258564E3,6.217434E3,3.6121245E3,3.722676E3,2.3544844E4,2.6678812E4,1.0754236E4,1.8803873E4,3.9479062E4,1.9761605E4,5.5878465E4,3.335067E4,3.030153E3,3.01344E3,2.5857174E4,9.155724E4,1.2348895E6,7.607395E4,3.104549E3,6.3389484E4,6.3566865E3,1.4897324E3,4.7292104E3,2.0502998E3,9.481983E3,1.8426686E4,4.3706426E4,7.903508E4,1.5096333E4,8.848296E3,1.6653021E4,1.4450851E4,6.2414074E4,3.5874086E4,3.4306414E4,3.5579133E4,4.9304094E4,3.2911844E4,2.7161805E4,2.4447752E4,1.4427448E4,2.9640688E4,1.5337548E4,1.0922465E4],"tree_param":{"num_deleted":"0","num_feature":"5","num_nodes":"127","size_leaf_vector":"1"}},{"base_weights":[3.4381407E-3,-9.647976E-1,2.2600499E-1,-1.3399898E0,-6.59986E-1,-1.834612E-1,6.7134315E-1,-1.5628226E0,-1.1405845E0,-8.615961E-1,-1.8609075E-1,-3.5868913E-1,7.2686344E-1,5.246446E-1,1.187253E0,-1.6033499E0,-1.0856298E0,-1.3657902E0,-8.813258E-1,-1.022229E0,-6.53695E-1,-3.063116E-1,2.5439587E-1,-6.2435466E-1,-1.16272405E-1,4.7232884E-1,1.097443E0,2.8476205E-1,7.455067E-1,1.033188E0,1.332998E0,-1.6903913E0,-1.5003994E0,-1.503339E0,-9.175743E-1,-1.4922973E0,-1.2865653E0,-9.594316E-1,-1.655764E-1,-1.1320797E0,-8.893813E-1,-8.3042145E-1,-5.273916E-1,-4.6388155E-1,-9.039401E-2,1.8324114E-1,7.738145E-1,-9.4396156E-1,-5.0055385E-1,-1.5405007E-1,2.1978256E-1,2.0506257E-1,5.797646E-1,9.1575444E-1,1.2630322E0,2.3989208E-1,5.78679E-1,6.4090085E-1,9.932557E-1,9.864501E-1,1.258008E0,1.2696059E0,1.3897221E0,-8.656422E-2,-8.237781E-2,-7.9750635E-2,-6.784013E-2,-8.6511515E-2,-6.53552E-2,-4.662454E-2,5.784554E-2,-7.757727E-2,-7.109971E-2,-7.008048E-2,-6.1521214E-2,-5.2686226E-2,-4.0977802E-2,-1.0128191E-2,6.435024E-2,-6.822684E-2,-5.400538E-2,-4.956766E-2,-3.6722388E-2,-4.4728056E-2,-3.614438E-2,-2.587314E-2,-6.601786E-2,-3.035914E-2,-1.7736562E-2,-1.1402162E-2,3.0432083E-3,9.849134E-3,-6.285177E-2,3.0201063E-2,6.3833065E-2,-5.0340034E-2,-2.7031427E-2,-2.7544273E-2,-8.018243E-3,-1.51591925E-2,-3.4936846E-3,5.649382E-3,1.8175058E-2,2.3462826E-3,2.2809593E-2,2.004409E-2,3.5258953E-2,3.304433E-2,5.0102632E-2,5.795879E-2,6.8229936E-2,-4.312867E-3,1.3492048E-2,2.2306314E-2,3.1426206E-2,1.4315947E-2,3.331187E-2,4.771822E-2,6.038144E-2,4.569852E-2,5.403606E-2,6.1223E-2,6.4899705E-2,6.182024E-2,6.693704E-2,6.8219595E-2,7.046365E-2],"categories":[],"categories_nodes":[],"categories_segments":[],"categories_sizes":[],"default_left":[0,0,0,0,0,0,0,0,0,0,0,0,0,0,0,0,0,0,0,0,0,0,0,0,0,0,0,0,0,0,0,0,0,0,0,0,0,0,0,0,0,0,0,0,0,0,0,0,0,0,0,0,0,0,0,0,0,0,0,0,0,0,0,0,0,0,0,0,0,0,0,0,0,0,0,0,0,0,0,0,0,0,0,0,0,0,0,0,0,0,0,0,0,0,0,0,0,0,0,0,0,0,0,0,0,0,0,0,0,0,0,0,0,0,0,0,0,0,0,0,0,0,0,0,0,0,0],"id":7,"left_children":[1,3,5,7,9,11,13,15,17,19,21,23,25,27,29,31,33,35,37,39,41,43,45,47,49,51,53,55,57,59,61,63,65,67,69,71,73,75,77,79,81,83,85,87,89,91,93,95,97,99,101,103,105,107,109,111,113,115,117,119,121,123,125,-1,-1,-1,-1,-1,-1,-1,-1,-1,-1,-1,-1,-1,-1,-1,-1,-1,-1,-1,-1,-1,-1,-1,-1,-1,-1,-1,-1,-1,-1,-1,-1,-1,-1,-1,-1,-1,-1,-1,-1,-1,-1,-1,-1,-1,-1,-1,-1,-1,-1,-1,-1,-1,-1,-1,-1,-1,-1,-1,-1,-1,-1,-1,-1],"loss_changes":[5.5274425E5,5.4825344E4,3.8030506E5,9.546781E3,2.527207E4,1.7331961E5,7.560869E4,1.9608594E3,6.6205156E3,6.1965E3,4.1808076E3,5.8680062E4,1.6543031E4,4.1210797E4,4.965E3,8.356406E2,5.564961E2,6.0634375E2,2.9472656E3,1.5266719E3,1.8050312E3,2.110046E3,6.2548914E2,1.7200812E4,6.0484395E3,2.9854258E3,2.1473828E3,4.9172734E3,1.049475E4,1.1285859E3,4.0692188E2,8.5921875E1,5.8014844E2,9.918506E1,1.7652197E2,9.511719E1,2.3935547E2,6.2608984E2,2.7902402E2,6.907578E2,7.479219E2,2.3186914E2,3.7073926E2,5.60604E2,5.4482947E2,2.9493384E2,1.7333618E2,3.0757812E3,5.3652734E3,5.376427E3,7.3891846E2,1.1839636E3,1.6635176E3,7.48375E2,3.925039E2,3.1597754E3,3.26E2,2.5579922E3,1.0012031E3,6.0728906E2,2.3230469E1,1.2157031E2,2.7773438E1,0E0,0E0,0E0,0E0,0E0,0E0,0E0,0E0,0E0,0E0,0E0,0E0,0E0,0E0,0E0,0E0,0E0,0E0,0E0,0E0,0E0,0E0,0E0,0E0,0E0,0E0,0E0,0E0,0E0,0E0,0E0,0E0,0E0,0E0,0E0,0E0,0E0,0E0,0E0,0E0,0E0,0E0,0E0,0E0,0E0,0E0,0E0,0E0,0E0,0E0,0E0,0E0,0E0,0E0,0E0,0E0,0E0,0E0,0E0,0E0,0E0,0E0,0E0,0E0],"parents":[2147483647,0,0,1,1,2,2,3,3,4,4,5,5,6,6,7,7,8,8,9,9,10,10,11,11,12,12,13,13,14,14,15,15,16,16,17,17,18,18,19,19,20,20,21,21,22,22,23,23,24,24,25,25,26,26,27,27,28,28,29,29,30,30,31,31,32,32,33,33,34,34,35,35,36,36,37,37,38,38,39,39,40,40,41,41,42,42,43,43,44,44,45,45,46,46,47,47,48,48,49,49,50,50,51,51,52,52,53,53,54,54,55,55,56,56,57,57,58,58,59,59,60,60,61,61,62,62],"right_children":[2,4,6,8,10,12,14,16,18,20,22,24,26,28,30,32,34,36,38,40,42,44,46,48,50,52,54,56,58,60,62,64,66,68,70,72,74,76,78,80,82,84,86,88,90,92,94,96,98,100,102,104,106,108,110,112,114,116,118,120,122,124,126,-1,-1,-1,-1,-1,-1,-1,-1,-1,-1,-1,-1,-1,-1,-1,-1,-1,-1,-1,-1,-1,-1,-1,-1,-1,-1,-1,-1,-1,-1,-1,-1,-1,-1,-1,-1,-1,-1,-1,-1,-1,-1,-1,-1,-1,-1,-1,-1,-1,-1,-1,-1,-1,-1,-1,-1,-1,-1,-1,-1,-1,-1,-1,-1],"split_conditions":[-2E0,-8E0,1.0373358E1,-1.3E1,3.92033E1,6E0,7E0,1.0287948E2,-3.9184532E1,-6.204081E1,1.7193694E2,-9.1384735E1,1.2E1,9.236706E1,1.3E1,-1.7E1,-1.9E1,-1.5683838E2,1.7193694E2,-1.3101367E2,-5E0,-4E0,2.9297284E2,-2.0682953E2,3E0,-1.20656845E2,1.6E1,3E0,1.9900131E2,1.9900131E2,1.8E1,-2.1E1,-5.1669594E1,-2.3E1,3.5379932E2,-1E1,-1.1E1,5.2423218E1,3.5379932E2,-2.581433E2,-4E0,-6E0,1E0,-6E0,9.236706E1,1E0,3.5379932E2,1E0,2E0,-5.0304245E1,-2.9050333E1,9E0,8E0,-1.20656845E2,2E1,0E0,4E0,0E0,3.0827127E2,1E1,1E1,1.577557E2,2.2E1,-8.656422E-2,-8.237781E-2,-7.9750635E-2,-6.784013E-2,-8.6511515E-2,-6.53552E-2,-4.662454E-2,5.784554E-2,-7.757727E-2,-7.109971E-2,-7.008048E-2,-6.1521214E-2,-5.2686226E-2,-4.0977802E-2,-1.0128191E-2,6.435024E-2,-6.822684E-2,-5.400538E-2,-4.956766E-2,-3.6722388E-2,-4.4728056E-2,-3.614438E-2,-2.587314E-2,-6.601786E-2,-3.035914E-2,-1.7736562E-2,-1.1402162E-2,3.0432083E-3,9.849134E-3,-6.285177E-2,3.0201063E-2,6.3833065E-2,-5.0340034E-2,-2.7031427E-2,-2.7544273E-2,-8.018243E-3,-1.51591925E-2,-3.4936846E-3,5.649382E-3,1.8175058E-2,2.3462826E-3,2.2809593E-2,2.004409E-2,3.5258953E-2,3.304433E-2,5.0102632E-2,5.795879E-2,6.8229936E-2,-4.312867E-3,1.3492048E-2,2.2306314E-2,3.1426206E-2,1.4315947E-2,3.331187E-2,4.771822E-2,6.038144E-2,4.569852E-2,5.403606E-2,6.1223E-2,6.4899705E-2,6.182024E-2,6.693704E-2,6.8219595E-2,7.046365E-2],"split_indices":[1,1,4,1,4,1,1,4,4,4,4,4,1,4,1,1,1,4,4,4,1,1,4,4,1,4,1,1,4,4,1,1,4,1,4,1,1,4,4,4,1,1,2,1,4,2,4,1,1,4,4,1,1,4,1,1,1,1,4,1,1,4,1,0,0,0,0,0,0,0,0,0,0,0,0,0,0,0,0,0,0,0,0,0,0,0,0,0,0,0,0,0,0,0,0,0,0,0,0,0,0,0,0,0,0,0,0,0,0,0,0,0,0,0,0,0,0,0,0,0,0,0,0,0,0,0,0],"split_type":[0,0,0,0,0,0,0,0,0,0,0,0,0,0,0,0,0,0,0,0,0,0,0,0,0,0,0,0,0,0,0,0,0,0,0,0,0,0,0,0,0,0,0,0,0,0,0,0,0,0,0,0,0,0,0,0,0,0,0,0,0,0,0,0,0,0,0,0,0,0,0,0,0,0,0,0,0,0,0,0,0,0,0,0,0,0,0,0,0,0,0,0,0,0,0,0,0,0,0,0,0,0,0,0,0,0,0,0,0,0,0,0,0,0,0,0,0,0,0,0,0,0,0,0,0,0,0],"sum_hessian":[2.56497E6,4.7940488E5,2.0855652E6,2.1489166E5,2.6451322E5,1.0865434E6,9.990218E5,1.0148107E5,1.13410586E5,1.8556652E5,7.89467E4,9.1115606E5,1.7538736E5,7.7784444E5,2.211774E5,9.353492E4,7.946145E3,6.0688805E4,5.2721777E4,1.0468145E5,8.0885055E4,6.2020043E4,1.6926664E4,4.3473097E5,4.7642506E5,1.0397431E5,7.141305E4,3.7286784E5,4.0497656E5,1.0752371E5,1.13653695E5,5.0675246E4,4.285968E4,2.2774648E3,5.66868E3,2.3363674E4,3.7325133E4,4.753428E4,5.187494E3,5.729615E4,4.7385305E4,3.3710715E4,4.7174344E4,3.5853863E4,2.616618E4,1.4888459E4,2.0382051E3,1.2137637E5,3.133546E5,4.282804E5,4.8144656E4,2.981268E4,7.416163E4,3.4054336E4,3.735871E4,3.2348566E5,4.9382168E4,2.847511E5,1.2022549E5,8.902222E4,1.8501494E4,5.3683215E4,5.997048E4,2.5905139E4,2.4770107E4,2.5830385E4,1.7029297E4,1.0526045E3,1.2248602E3,5.6287573E3,3.992299E1,1.2667242E4,1.0696431E4,1.2233098E4,2.5092035E4,2.8389682E4,1.9144602E4,5.059523E3,1.2797123E2,1.04648E4,4.6831348E4,2.857369E4,1.8811615E4,2.1111336E4,1.2599379E4,4.65926E4,5.817411E2,1.5499853E4,2.035401E4,1.3699102E4,1.2467078E4,1.4748607E4,1.3985172E2,1.5253503E3,5.128547E2,1.05013766E5,1.6362601E4,2.7296788E5,4.0386723E4,1.5451908E5,2.7376134E5,2.762142E4,2.0523236E4,1.8294047E4,1.1518632E4,3.0567041E4,4.359459E4,8.616266E3,2.5438068E4,1.8477254E4,1.8881455E4,2.72059E4,2.9627978E5,1.3497721E4,3.5884445E4,1.899067E4,2.657604E5,1.0176827E5,1.8457219E4,5.0333977E4,3.868824E4,1.0077862E4,8.423632E3,3.6279387E4,1.7403826E4,2.6154783E4,3.38157E4],"tree_param":{"num_deleted":"0","num_feature":"5","num_nodes":"127","size_leaf_vector":"1"}},{"base_weights":[3.7324922E-3,-8.5009104E-1,2.338643E-1,-1.2322379E0,-5.310953E-1,6.314236E-2,9.9894005E-1,-1.4928195E0,-9.0304357E-1,-1.3357853E0,-4.2551976E-1,1.4615543E-2,3.9476615E-1,1.2012314E0,7.415821E-1,-1.6341592E0,-1.3479272E0,-1.2259785E0,-7.665766E-1,-1.6286819E0,-1.1006123E0,-6.6611934E-1,-3.3091667E-1,-2.1068797E-1,2.4464127E-2,1.1438166E0,3.147224E-1,1.0130178E0,1.3166057E0,5.835951E-1,1.0409318E0,-1.6979514E0,-1.5518876E0,-1.5394865E0,-1.1190434E0,-1.4115647E0,-1.1008912E0,-9.0693206E-1,-6.3475144E-1,-1.712459E0,-1.4803205E0,-1.2984375E0,-7.9505867E-1,-8.586243E-1,-5.000287E-1,-4.7207475E-1,-2.3543243E-1,-6.1677545E-1,-1.3375732E-1,1.745771E-2,1.6290098E-1,1.3627508E0,8.8208455E-1,4.7303373E-1,2.560565E-1,1.2708555E0,8.495091E-1,1.3781203E0,1.2342583E0,4.5851237E-1,6.793106E-1,9.424191E-1,1.2159607E0,-8.605748E-2,-8.3117604E-2,-8.247673E-2,-6.822422E-2,-8.1092924E-2,-7.147131E-2,-6.1848123E-2,-5.2748956E-2,-7.497956E-2,-6.2365513E-2,-6.032906E-2,-4.996968E-2,-5.0641067E-2,-4.1639917E-2,-3.8921334E-2,-2.9950127E-2,-9.167544E-2,-8.3450265E-2,-8.243357E-2,-5.8132797E-2,-7.127078E-2,-5.945856E-2,-4.4594344E-2,-3.267233E-2,-4.8228536E-2,-3.7416857E-2,-3.055912E-2,-2.2398334E-2,-2.7420769E-2,-1.7666776E-2,-1.5084858E-2,-8.372253E-3,-6.806676E-2,-2.483752E-2,-8.638969E-3,-2.2782728E-3,9.966946E-4,-1.1050197E-2,5.054908E-2,6.079865E-3,7.1192816E-2,6.052458E-2,3.698828E-2,5.258388E-2,1.7987773E-2,2.977987E-2,6.9562844E-3,1.5094079E-2,6.958531E-2,5.730623E-2,3.621218E-2,4.7217276E-2,6.9944985E-2,6.71607E-2,5.683437E-2,6.7118615E-2,2.5683297E-2,1.8195089E-2,4.0206973E-2,3.1111673E-2,5.0105687E-2,4.2654246E-2,5.640005E-2,6.4976625E-2],"categories":[],"categories_nodes":[],"categories_segments":[],"categories_sizes":[],"default_left":[0,0,0,0,0,0,0,0,0,0,0,0,0,0,0,0,0,0,0,0,0,0,0,0,0,0,0,0,0,0,0,0,0,0,0,0,0,0,0,0,0,0,0,0,0,0,0,0,0,0,0,0,0,0,0,0,0,0,0,0,0,0,0,0,0,0,0,0,0,0,0,0,0,0,0,0,0,0,0,0,0,0,0,0,0,0,0,0,0,0,0,0,0,0,0,0,0,0,0,0,0,0,0,0,0,0,0,0,0,0,0,0,0,0,0,0,0,0,0,0,0,0,0,0,0,0,0],"id":8,"left_children":[1,3,5,7,9,11,13,15,17,19,21,23,25,27,29,31,33,35,37,39,41,43,45,47,49,51,53,55,57,59,61,63,65,67,69,71,73,75,77,79,81,83,85,87,89,91,93,95,97,99,101,103,105,107,109,111,113,115,117,119,121,123,125,-1,-1,-1,-1,-1,-1,-1,-1,-1,-1,-1,-1,-1,-1,-1,-1,-1,-1,-1,-1,-1,-1,-1,-1,-1,-1,-1,-1,-1,-1,-1,-1,-1,-1,-1,-1,-1,-1,-1,-1,-1,-1,-1,-1,-1,-1,-1,-1,-1,-1,-1,-1,-1,-1,-1,-1,-1,-1,-1,-1,-1,-1,-1,-1],"loss_changes":[5.015827E5,6.6065375E4,2.626323E5,2.1149938E4,2.509411E4,2.6454805E4,1.9096625E4,2.8162188E3,4.800258E3,2.358039E3,5.943418E3,3.1820713E3,1.2581412E4,4.4585938E3,7.634578E3,3.63E2,2.9781875E3,7.496875E2,1.4164297E3,1.8707422E2,1.1477578E3,2.355877E3,2.5261738E3,1.8762603E3,1.3327039E3,1.1596836E3,1.7606836E3,3.2897578E3,6.4328125E2,1.2648633E3,9.6046094E2,2.9539062E1,5.547031E2,3.3308594E2,2.3264453E2,1.8646875E2,2.0621289E2,2.903125E2,2.0239551E2,4.8191406E1,2.929043E2,1.5833984E2,1.0186719E2,3.9810156E2,2.286836E2,6.853379E2,5.0365527E2,8.5417017E2,1.7377167E2,7.7223303E2,2.3184165E3,1.0089258E2,2.2201074E2,7.1146484E2,7.411846E2,4.5498438E2,5.668086E2,5.0984375E1,5.7289844E2,2.3886914E2,4.2601562E2,1.8946484E2,1.4614844E2,0E0,0E0,0E0,0E0,0E0,0E0,0E0,0E0,0E0,0E0,0E0,0E0,0E0,0E0,0E0,0E0,0E0,0E0,0E0,0E0,0E0,0E0,0E0,0E0,0E0,0E0,0E0,0E0,0E0,0E0,0E0,0E0,0E0,0E0,0E0,0E0,0E0,0E0,0E0,0E0,0E0,0E0,0E0,0E0,0E0,0E0,0E0,0E0,0E0,0E0,0E0,0E0,0E0,0E0,0E0,0E0,0E0,0E0,0E0,0E0,0E0,0E0,0E0,0E0],"parents":[2147483647,0,0,1,1,2,2,3,3,4,4,5,5,6,6,7,7,8,8,9,9,10,10,11,11,12,12,13,13,14,14,15,15,16,16,17,17,18,18,19,19,20,20,21,21,22,22,23,23,24,24,25,25,26,26,27,27,28,28,29,29,30,30,31,31,32,32,33,33,34,34,35,35,36,36,37,37,38,38,39,39,40,40,41,41,42,42,43,43,44,44,45,45,46,46,47,47,48,48,49,49,50,50,51,51,52,52,53,53,54,54,55,55,56,56,57,57,58,58,59,59,60,60,61,61,62,62],"right_children":[2,4,6,8,10,12,14,16,18,20,22,24,26,28,30,32,34,36,38,40,42,44,46,48,50,52,54,56,58,60,62,64,66,68,70,72,74,76,78,80,82,84,86,88,90,92,94,96,98,100,102,104,106,108,110,112,114,116,118,120,122,124,126,-1,-1,-1,-1,-1,-1,-1,-1,-1,-1,-1,-1,-1,-1,-1,-1,-1,-1,-1,-1,-1,-1,-1,-1,-1,-1,-1,-1,-1,-1,-1,-1,-1,-1,-1,-1,-1,-1,-1,-1,-1,-1,-1,-1,-1,-1,-1,-1,-1,-1,-1,-1,-1,-1,-1,-1,-1,-1,-1,-1,-1,-1,-1,-1],"split_conditions":[-1E0,-7E0,7E0,1.248E3,3.21E2,3E0,1.261E3,6.16E2,-1.3E1,8.1E1,1.223E3,0E0,2.42E2,1.2E1,1.3E1,3.32E2,-1.2E1,-1.7E1,1.867E3,3.1E1,-3E0,-4E0,-4E0,5.57E2,2E0,8.1E1,1.127E3,4.79E2,6.93E2,9E0,1.8E1,1.87E2,-1.1E1,-1.6E1,-1E1,1.75E3,1.729E3,-1E1,-1.1E1,4.4E0,-3E0,-5E0,2.2E2,7.92E2,-3E0,2.2017E3,2.2123E3,2.49E1,2.376E3,1E0,9.1E1,3.79E1,5E0,5E0,4E0,2.09E2,9E0,4.11E2,1.8E1,2.1649E3,1.65E3,1.867E3,2.1E1,-8.605748E-2,-8.3117604E-2,-8.247673E-2,-6.822422E-2,-8.1092924E-2,-7.147131E-2,-6.1848123E-2,-5.2748956E-2,-7.497956E-2,-6.2365513E-2,-6.032906E-2,-4.996968E-2,-5.0641067E-2,-4.1639917E-2,-3.8921334E-2,-2.9950127E-2,-9.167544E-2,-8.3450265E-2,-8.243357E-2,-5.8132797E-2,-7.127078E-2,-5.945856E-2,-4.4594344E-2,-3.267233E-2,-4.8228536E-2,-3.7416857E-2,-3.055912E-2,-2.2398334E-2,-2.7420769E-2,-1.7666776E-2,-1.5084858E-2,-8.372253E-3,-6.806676E-2,-2.483752E-2,-8.638969E-3,-2.2782728E-3,9.966946E-4,-1.1050197E-2,5.054908E-2,6.079865E-3,7.1192816E-2,6.052458E-2,3.698828E-2,5.258388E-2,1.7987773E-2,2.977987E-2,6.9562844E-3,1.5094079E-2,6.958531E-2,5.730623E-2,3.621218E-2,4.7217276E-2,6.9944985E-2,6.71607E-2,5.683437E-2,6.7118615E-2,2.5683297E-2,1.8195089E-2,4.0206973E-2,3.1111673E-2,5.0105687E-2,4.2654246E-2,5.640005E-2,6.4976625E-2],"split_indices":[1,1,1,0,0,1,0,0,1,0,0,1,0,1,1,0,1,1,0,0,1,1,1,0,1,0,0,0,0,1,1,0,1,1,1,0,0,1,1,0,1,1,0,0,1,0,0,0,0,2,0,0,1,1,1,0,1,0,1,0,0,0,1,0,0,0,0,0,0,0,0,0,0,0,0,0,0,0,0,0,0,0,0,0,0,0,0,0,0,0,0,0,0,0,0,0,0,0,0,0,0,0,0,0,0,0,0,0,0,0,0,0,0,0,0,0,0,0,0,0,0,0,0,0,0,0,0],"split_type":[0,0,0,0,0,0,0,0,0,0,0,0,0,0,0,0,0,0,0,0,0,0,0,0,0,0,0,0,0,0,0,0,0,0,0,0,0,0,0,0,0,0,0,0,0,0,0,0,0,0,0,0,0,0,0,0,0,0,0,0,0,0,0,0,0,0,0,0,0,0,0,0,0,0,0,0,0,0,0,0,0,0,0,0,0,0,0,0,0,0,0,0,0,0,0,0,0,0,0,0,0,0,0,0,0,0,0,0,0,0,0,0,0,0,0,0,0,0,0,0,0,0,0,0,0,0,0],"sum_hessian":[2.552686E6,5.4195375E5,2.0107324E6,2.4656895E5,2.953848E5,1.6439059E6,3.668264E5,1.3762506E5,1.0894389E5,3.425834E4,2.6112645E5,1.4340598E6,2.0984623E5,2.0538436E5,1.6144205E5,6.96614E4,6.7963664E4,3.2359793E4,7.658409E4,1.5254132E4,1.9004207E4,7.36951E4,1.8743136E5,6.006009E4,1.3739996E6,2.0258033E4,1.8958819E5,7.8057195E4,1.27327164E5,1.0567381E5,5.576823E4,3.9226277E4,3.0435121E4,3.699544E4,3.0968219E4,1.3024969E4,1.9334824E4,3.70891E4,3.9494996E4,9.742293E3,5.5118394E3,1.1533683E4,7.4705244E3,3.4131406E4,3.9563695E4,7.5626234E4,1.11805125E5,9.564696E3,5.0495395E4,1.3078112E6,6.618839E4,1.1028599E4,9.229434E3,5.125861E4,1.383296E5,3.028844E4,4.7768754E4,7.287376E4,5.4453406E4,4.5811863E4,5.986195E4,3.5688062E4,2.0080168E4,2.3721172E4,1.5505104E4,2.000412E4,1.0431002E4,2.1151428E4,1.5844015E4,1.0895406E4,2.0072812E4,8.474977E3,4.5499917E3,9.466462E3,9.868362E3,1.526813E4,2.1820973E4,7.864937E3,3.1630057E4,2.562548E3,7.1797446E3,3.5998547E3,1.9119847E3,5.328917E3,6.204766E3,4.4336743E3,3.0368503E3,1.7404336E4,1.6727068E4,1.2616488E4,2.6947207E4,4.602921E4,2.9597025E4,5.6618133E4,5.5186992E4,1.3263729E3,8.238323E3,3.5005594E4,1.5489801E4,1.2943714E6,1.3439796E4,3.0727498E3,6.3115637E4,7.864159E3,3.16444E3,5.021151E3,4.2082827E3,2.6640406E4,2.4618201E4,3.8948844E4,9.938074E4,1.5378343E4,1.4910096E4,2.058608E4,2.7182674E4,4.565601E4,2.7217748E4,2.8628373E4,2.5825033E4,2.8937953E4,1.687391E4,1.8778945E4,4.1083004E4,2.1386826E4,1.4301235E4,9.79031E3,1.0289859E4],"tree_param":{"num_deleted":"0","num_feature":"5","num_nodes":"127","size_leaf_vector":"1"}},{"base_weights":[3.419699E-3,-3.849088E-1,4.7768304E-1,-7.2085434E-1,-1.9347617E-1,2.3753801E-1,7.0011806E-1,-9.555939E-1,-5.953375E-1,-3.4996918E-1,-7.247282E-2,9.6972406E-2,2.8495649E-1,5.9351826E-1,9.5569074E-1,-1.0863305E0,-8.397799E-1,-6.6254175E-1,-5.359735E-1,-4.143555E-1,-3.0293745E-1,-1.5169196E-1,-2.342534E-2,2.938541E-1,6.4139284E-2,6.235641E-1,2.7670196E-1,5.274912E-1,6.733398E-1,9.1909945E-1,1.1552615E0,-1.1498634E0,-1.0224113E0,-8.476891E-1,7.402377E-4,-4.77119E-1,-6.7134297E-1,-5.455225E-1,-3.0187395E-1,-3.8699457E-1,-6.061457E-1,8.488681E-2,-3.2161975E-1,-1.4718273E-1,-6.570643E-1,2.2451796E-1,-3.172445E-2,2.3457685E-1,3.1195834E-1,4.0795524E-2,2.658904E-1,6.2853295E-1,2.5132808E-1,2.6243073E-1,4.1065022E-1,3.151104E-1,5.3702545E-1,6.8021387E-1,-2.2538425E-1,8.2899857E-1,9.399993E-1,1.25171E0,1.10716E0,-4.37645E-2,-5.800364E-2,-5.0603636E-2,-9.708452E-2,-3.746255E-2,-4.483914E-2,-4.6016276E-2,4.8880605E-3,-2.8869797E-2,-2.1319624E-2,-3.3110294E-2,-3.9964803E-2,-2.2905825E-2,-2.9092787E-2,-2.7261263E-2,4.330082E-2,-2.1000165E-2,-9.471568E-3,-3.0527353E-2,-1.2790513E-2,1.4111993E-3,5.2381087E-2,-1.776555E-2,-1.186013E-2,-6.3728034E-3,-1.1060047E-2,-2.798656E-2,-6.995285E-2,8.734924E-3,3.1069255E-2,-2.221517E-3,3.9840685E-3,1.2622232E-2,-3.871329E-3,1.4275673E-2,1.6940305E-2,-4.8486525E-3,4.3126484E-3,7.991783E-3,2.8871631E-2,3.0698199E-2,3.4751937E-2,3.410426E-2,4.0431363E-3,1.2309245E-2,1.5953917E-2,1.3098936E-2,3.357772E-2,9.415829E-3,1.872681E-2,2.7308458E-2,1.638809E-2,4.716449E-2,3.331479E-2,-6.010656E-4,-4.5401473E-2,4.451983E-2,3.5353154E-2,5.9495848E-2,4.5960624E-2,5.606345E-2,6.293074E-2,4.8823334E-2,6.1888713E-2],"categories":[],"categories_nodes":[],"categories_segments":[],"categories_sizes":[],"default_left":[0,0,0,0,0,0,0,0,0,0,0,0,0,0,0,0,0,0,0,0,0,0,0,0,0,0,0,0,0,0,0,0,0,0,0,0,0,0,0,0,0,0,0,0,0,0,0,0,0,0,0,0,0,0,0,0,0,0,0,0,0,0,0,0,0,0,0,0,0,0,0,0,0,0,0,0,0,0,0,0,0,0,0,0,0,0,0,0,0,0,0,0,0,0,0,0,0,0,0,0,0,0,0,0,0,0,0,0,0,0,0,0,0,0,0,0,0,0,0,0,0,0,0,0,0,0,0],"id":9,"left_children":[1,3,5,7,9,11,13,15,17,19,21,23,25,27,29,31,33,35,37,39,41,43,45,47,49,51,53,55,57,59,61,63,65,67,69,71,73,75,77,79,81,83,85,87,89,91,93,95,97,99,101,103,105,107,109,111,113,115,117,119,121,123,125,-1,-1,-1,-1,-1,-1,-1,-1,-1,-1,-1,-1,-1,-1,-1,-1,-1,-1,-1,-1,-1,-1,-1,-1,-1,-1,-1,-1,-1,-1,-1,-1,-1,-1,-1,-1,-1,-1,-1,-1,-1,-1,-1,-1,-1,-1,-1,-1,-1,-1,-1,-1,-1,-1,-1,-1,-1,-1,-1,-1,-1,-1,-1,-1],"loss_changes":[4.681506E5,8.988042E4,6.1127453E4,1.4946719E4,1.6858543E4,3.6677656E3,1.6184656E4,2.6752969E3,1.3184375E3,1.175457E3,1.9508018E3,8.972589E2,1.1498945E3,2.209125E3,1.2758438E3,3.3598438E2,6.2309375E2,2.526875E2,3.9221094E2,8.596758E2,1.6254961E3,4.374082E2,6.380781E2,2.1217896E1,5.6028467E2,1.7951904E1,7.677422E2,4.6442578E2,1.172625E3,2.7747656E2,1.2428516E2,1.1568359E2,3.9145703E2,4.480625E2,7.826014E1,3.550818E1,1.7251562E2,5.353008E2,1.956197E3,9.351582E2,3.1388184E1,5.624601E2,6.0865234E2,2.7781982E2,1.2181647E2,1.9846225E2,4.2472165E2,2.5918243E1,1.0691162E1,6.677995E2,4.07547E2,8.93457E0,9.537834E0,3.3398828E2,1.4999302E3,7.422333E1,4.1998438E2,6.889922E2,2.09922E2,2.0773438E2,6.219844E2,6.701172E0,3.0748047E2,0E0,0E0,0E0,0E0,0E0,0E0,0E0,0E0,0E0,0E0,0E0,0E0,0E0,0E0,0E0,0E0,0E0,0E0,0E0,0E0,0E0,0E0,0E0,0E0,0E0,0E0,0E0,0E0,0E0,0E0,0E0,0E0,0E0,0E0,0E0,0E0,0E0,0E0,0E0,0E0,0E0,0E0,0E0,0E0,0E0,0E0,0E0,0E0,0E0,0E0,0E0,0E0,0E0,0E0,0E0,0E0,0E0,0E0,0E0,0E0,0E0,0E0,0E0,0E0],"parents":[2147483647,0,0,1,1,2,2,3,3,4,4,5,5,6,6,7,7,8,8,9,9,10,10,11,11,12,12,13,13,14,14,15,15,16,16,17,17,18,18,19,19,20,20,21,21,22,22,23,23,24,24,25,25,26,26,27,27,28,28,29,29,30,30,31,31,32,32,33,33,34,34,35,35,36,36,37,37,38,38,39,39,40,40,41,41,42,42,43,43,44,44,45,45,46,46,47,47,48,48,49,49,50,50,51,51,52,52,53,53,54,54,55,55,56,56,57,57,58,58,59,59,60,60,61,61,62,62],"right_children":[2,4,6,8,10,12,14,16,18,20,22,24,26,28,30,32,34,36,38,40,42,44,46,48,50,52,54,56,58,60,62,64,66,68,70,72,74,76,78,80,82,84,86,88,90,92,94,96,98,100,102,104,106,108,110,112,114,116,118,120,122,124,126,-1,-1,-1,-1,-1,-1,-1,-1,-1,-1,-1,-1,-1,-1,-1,-1,-1,-1,-1,-1,-1,-1,-1,-1,-1,-1,-1,-1,-1,-1,-1,-1,-1,-1,-1,-1,-1,-1,-1,-1,-1,-1,-1,-1,-1,-1,-1,-1,-1,-1,-1,-1,-1,-1,-1,-1,-1,-1,-1,-1,-1,-1,-1,-1],"split_conditions":[1.0373358E1,-1.20656845E2,9.236706E1,-2.105557E2,-5.5727493E1,2.8963642E1,1.9900131E2,-2.581433E2,-1.6025392E2,-9.1384735E1,-2.9050333E1,1.3165521E1,3.0283226E1,1.4007468E2,3.0827127E2,-2.9815067E2,1E0,7.2E1,1E0,-9.4497795E1,-8.9667915E1,1E0,-2.7604221E1,6.16E2,1E0,1E0,1E0,7.2E1,1E0,2.1183731E2,3.2771738E2,6.3E1,1E0,-2.3854895E2,-2.5212695E2,-1.9205208E2,-1.6275124E2,-1.46586E2,-1.2702552E2,-9.781479E1,1E0,1E0,-6.510133E1,-3.521925E1,1E0,1E0,1E0,1E0,1.1713427E1,1.7561903E1,2.5051981E1,2.323E3,3.1E1,7.7251434E1,6.247274E1,1.41E1,1.375737E2,1.4294609E2,1.8107094E2,2.0749757E2,2.1593057E2,1.11E2,3.5379932E2,-4.37645E-2,-5.800364E-2,-5.0603636E-2,-9.708452E-2,-3.746255E-2,-4.483914E-2,-4.6016276E-2,4.8880605E-3,-2.8869797E-2,-2.1319624E-2,-3.3110294E-2,-3.9964803E-2,-2.2905825E-2,-2.9092787E-2,-2.7261263E-2,4.330082E-2,-2.1000165E-2,-9.471568E-3,-3.0527353E-2,-1.2790513E-2,1.4111993E-3,5.2381087E-2,-1.776555E-2,-1.186013E-2,-6.3728034E-3,-1.1060047E-2,-2.798656E-2,-6.995285E-2,8.734924E-3,3.1069255E-2,-2.221517E-3,3.9840685E-3,1.2622232E-2,-3.871329E-3,1.4275673E-2,1.6940305E-2,-4.8486525E-3,4.3126484E-3,7.991783E-3,2.8871631E-2,3.0698199E-2,3.4751937E-2,3.410426E-2,4.0431363E-3,1.2309245E-2,1.5953917E-2,1.3098936E-2,3.357772E-2,9.415829E-3,1.872681E-2,2.7308458E-2,1.638809E-2,4.716449E-2,3.331479E-2,-6.010656E-4,-4.5401473E-2,4.451983E-2,3.5353154E-2,5.9495848E-2,4.5960624E-2,5.606345E-2,6.293074E-2,4.8823334E-2,6.1888713E-2],"split_indices":[4,4,4,4,4,4,4,4,4,4,4,4,4,4,4,4,2,0,3,4,4,2,4,0,3,2,3,0,2,4,4,0,3,4,4,4,4,4,4,4,2,3,4,4,3,3,3,3,4,4,4,0,0,4,4,0,4,4,4,4,4,0,4,0,0,0,0,0,0,0,0,0,0,0,0,0,0,0,0,0,0,0,0,0,0,0,0,0,0,0,0,0,0,0,0,0,0,0,0,0,0,0,0,0,0,0,0,0,0,0,0,0,0,0,0,0,0,0,0,0,0,0,0,0,0,0,0],"split_type":[0,0,0,0,0,0,0,0,0,0,0,0,0,0,0,0,0,0,0,0,0,0,0,0,0,0,0,0,0,0,0,0,0,0,0,0,0,0,0,0,0,0,0,0,0,0,0,0,0,0,0,0,0,0,0,0,0,0,0,0,0,0,0,0,0,0,0,0,0,0,0,0,0,0,0,0,0,0,0,0,0,0,0,0,0,0,0,0,0,0,0,0,0,0,0,0,0,0,0,0,0,0,0,0,0,0,0,0,0,0,0,0,0,0,0,0,0,0,0,0,0,0,0,0,0,0,0],"sum_hessian":[2.5419465E6,1.3975929E6,1.1443538E6,5.073102E5,8.902827E5,5.502719E5,5.940819E5,1.7674955E5,3.3056066E5,3.8821034E5,5.020723E5,1.3880536E5,4.1146653E5,4.192255E5,1.7485636E5,8.302188E4,9.372766E4,1.5503731E5,1.7552333E5,1.6386788E5,2.2434248E5,1.919851E5,3.1008722E5,1.9838303E4,1.18967055E5,9.790181E3,4.0167634E5,2.2944233E5,1.8978316E5,1.4776861E5,2.708775E4,4.162825E4,4.139363E4,9.285391E4,8.737518E2,7.0279985E3,1.4800931E5,1.68643E5,6.880323E3,1.4341169E5,2.0456184E4,1.0310209E4,2.1403227E5,1.9028852E5,1.6965721E3,1.0042174E4,3.0004503E5,4.644658E3,1.5193645E4,1.0663049E5,1.2336559E4,9.660538E3,1.2964276E2,3.6300388E5,3.867249E4,9.859063E3,2.1958327E5,1.8834281E5,1.4403401E3,2.7830371E4,1.1993824E5,9.005578E3,1.8082172E4,1.4954861E3,4.013276E4,4.093535E4,4.5827765E2,3.0904143E4,6.1949766E4,8.245755E1,7.912942E2,2.3574253E3,4.670573E3,1.381502E5,9.85912E3,4.9522152E4,1.1912086E5,5.6943374E3,1.1859862E3,1.2287988E5,2.0531807E4,2.020164E4,2.5454184E2,9.738092E3,5.721168E2,1.5297578E5,6.1056492E4,1.5024838E5,4.004014E4,1.5013785E3,1.9519354E2,8.9234375E3,1.1187361E3,2.693286E5,3.0716459E4,4.3932563E3,2.5140173E2,7.660107E3,7.533538E3,2.6454201E4,8.017629E4,9.204642E3,3.131917E3,7.9329507E3,1.7275873E3,3.5906807E1,9.3735954E1,2.82105E5,8.0898875E4,2.4636074E4,1.4036415E4,3.147524E3,6.7115396E3,2.1038875E5,9.194521E3,9.46025E3,1.7888256E5,1.0981328E3,3.422073E2,1.8505842E4,9.324528E3,9.205496E3,1.1073275E5,4.6094412E2,8.544634E3,9.042588E3,9.039583E3],"tree_param":{"num_deleted":"0","num_feature":"5","num_nodes":"127","size_leaf_vector":"1"}},{"base_weights":[3.5296658E-3,-8.0530965E-1,2.2194003E-1,-1.1721642E0,-5.022362E-1,-1.6688511E-1,6.1246E-1,-1.3994702E0,-9.668566E-1,-7.011239E-1,-8.472936E-2,-3.1485498E-1,7.4061084E-1,4.7424403E-1,1.106153E0,-1.4432563E0,-9.265166E-1,-1.0866997E0,-5.5495244E-1,-8.3991563E-1,-4.8991248E-1,-1.869912E-1,3.0759645E-1,-6.035113E-1,-1.4152688E-1,5.219831E-1,1.0791689E0,2.5499058E-1,7.006915E-1,9.482297E-1,1.2603834E0,-1.5419706E0,-1.3261845E0,-1.2956126E0,-7.358453E-1,-1.1931533E0,-9.0625507E-1,-6.8854874E-1,-7.278217E-2,-9.5302457E-1,-7.221466E-1,-5.961465E-1,-3.354124E-1,-3.914411E-1,-4.748523E-2,2.395122E-1,7.948064E-1,-8.600013E-1,-4.7912496E-1,-1.8973403E-1,1.8872772E-1,3.5952324E-1,6.4547235E-1,9.5931256E-1,1.2894946E0,2.1250524E-1,5.256794E-1,6.021917E-1,9.3554586E-1,9.034833E-1,1.1791121E0,1.1928303E0,1.3220876E0,-7.9136096E-2,-7.385391E-2,-7.095017E-2,-5.8950868E-2,-8.131418E-2,-5.7471246E-2,-3.763904E-2,6.0908925E-2,-6.5241955E-2,-5.5909604E-2,-5.0773747E-2,-4.270182E-2,-1.67314E-2,-3.536577E-2,-5.314139E-3,6.417219E-2,-5.919015E-2,-4.509854E-2,-4.2919643E-2,-3.1004861E-2,-2.9399205E-2,-7.3302865E-2,-1.6154883E-2,-4.8501514E-2,-2.6567405E-2,-1.5274088E-2,-1.5810033E-3,-5.5251192E-2,1.2735717E-2,-5.2767005E-2,3.348297E-2,5.8809794E-2,-4.68878E-2,-2.2325851E-2,-2.6211588E-2,-6.1804373E-3,-1.567608E-2,-2.94248E-3,6.100054E-3,1.6984861E-2,9.247107E-3,2.3844857E-2,2.1606665E-2,3.664198E-2,3.8346913E-2,5.1356483E-2,2.353984E-2,6.469373E-2,3.884428E-3,1.3892007E-2,2.0358682E-2,2.8524661E-2,2.7095E-2,3.37311E-2,4.4896256E-2,5.7257038E-2,4.1495826E-2,5.0008148E-2,5.7124317E-2,6.1157893E-2,5.7975847E-2,6.336244E-2,6.493344E-2,6.736069E-2],"categories":[],"categories_nodes":[],"categories_segments":[],"categories_sizes":[],"default_left":[0,0,0,0,0,0,0,0,0,0,0,0,0,0,0,0,0,0,0,0,0,0,0,0,0,0,0,0,0,0,0,0,0,0,0,0,0,0,0,0,0,0,0,0,0,0,0,0,0,0,0,0,0,0,0,0,0,0,0,0,0,0,0,0,0,0,0,0,0,0,0,0,0,0,0,0,0,0,0,0,0,0,0,0,0,0,0,0,0,0,0,0,0,0,0,0,0,0,0,0,0,0,0,0,0,0,0,0,0,0,0,0,0,0,0,0,0,0,0,0,0,0,0,0,0,0,0],"id":10,"left_children":[1,3,5,7,9,11,13,15,17,19,21,23,25,27,29,31,33,35,37,39,41,43,45,47,49,51,53,55,57,59,61,63,65,67,69,71,73,75,77,79,81,83,85,87,89,91,93,95,97,99,101,103,105,107,109,111,113,115,117,119,121,123,125,-1,-1,-1,-1,-1,-1,-1,-1,-1,-1,-1,-1,-1,-1,-1,-1,-1,-1,-1,-1,-1,-1,-1,-1,-1,-1,-1,-1,-1,-1,-1,-1,-1,-1,-1,-1,-1,-1,-1,-1,-1,-1,-1,-1,-1,-1,-1,-1,-1,-1,-1,-1,-1,-1,-1,-1,-1,-1,-1,-1,-1,-1,-1,-1],"loss_changes":[4.479106E5,5.9936438E4,3.0313762E5,1.13798125E4,2.451275E4,1.3433052E5,6.796394E4,2.3953906E3,6.325008E3,5.8610625E3,3.8215786E3,4.3033414E4,1.0380086E4,3.863511E4,5.305E3,1.2221406E3,6.894131E2,1.9056328E3,1.8604365E3,1.6066016E3,1.3012363E3,2.1550579E3,6.531166E2,1.0294945E4,8.556055E3,1.7094062E3,1.3859609E3,4.5466777E3,8.854797E3,1.1110234E3,4.5782812E2,1.49625E2,6.6035156E2,1.595918E2,2.1504248E2,5.211875E2,2.092168E2,1.4997656E2,2.8489206E2,7.240625E2,8.214199E2,3.3275195E2,2.5218799E2,3.6839404E2,7.5352686E2,3.4044836E2,1.1444873E2,3.3877656E3,3.4848398E3,7.5980645E3,6.895513E2,7.540737E2,9.0207227E2,4.565703E2,7.100781E1,3.0100107E3,2.846045E2,1.177375E3,8.9084375E2,6.405078E2,2.6789062E1,1.2899219E2,3.2140625E1,0E0,0E0,0E0,0E0,0E0,0E0,0E0,0E0,0E0,0E0,0E0,0E0,0E0,0E0,0E0,0E0,0E0,0E0,0E0,0E0,0E0,0E0,0E0,0E0,0E0,0E0,0E0,0E0,0E0,0E0,0E0,0E0,0E0,0E0,0E0,0E0,0E0,0E0,0E0,0E0,0E0,0E0,0E0,0E0,0E0,0E0,0E0,0E0,0E0,0E0,0E0,0E0,0E0,0E0,0E0,0E0,0E0,0E0,0E0,0E0,0E0,0E0,0E0,0E0],"parents":[2147483647,0,0,1,1,2,2,3,3,4,4,5,5,6,6,7,7,8,8,9,9,10,10,11,11,12,12,13,13,14,14,15,15,16,16,17,17,18,18,19,19,20,20,21,21,22,22,23,23,24,24,25,25,26,26,27,27,28,28,29,29,30,30,31,31,32,32,33,33,34,34,35,35,36,36,37,37,38,38,39,39,40,40,41,41,42,42,43,43,44,44,45,45,46,46,47,47,48,48,49,49,50,50,51,51,52,52,53,53,54,54,55,55,56,56,57,57,58,58,59,59,60,60,61,61,62,62],"right_children":[2,4,6,8,10,12,14,16,18,20,22,24,26,28,30,32,34,36,38,40,42,44,46,48,50,52,54,56,58,60,62,64,66,68,70,72,74,76,78,80,82,84,86,88,90,92,94,96,98,100,102,104,106,108,110,112,114,116,118,120,122,124,126,-1,-1,-1,-1,-1,-1,-1,-1,-1,-1,-1,-1,-1,-1,-1,-1,-1,-1,-1,-1,-1,-1,-1,-1,-1,-1,-1,-1,-1,-1,-1,-1,-1,-1,-1,-1,-1,-1,-1,-1,-1,-1,-1,-1,-1,-1,-1,-1,-1,-1,-1,-1,-1,-1,-1,-1,-1,-1,-1,-1,-1,-1,-1,-1],"split_conditions":[-1E0,-7E0,2.6278586E0,-1.2E1,3.4220375E1,7E0,7E0,1.0287948E2,5.2423218E1,-5.324565E1,1.7193694E2,-1.20656845E2,1.3E1,9.236706E1,1.3E1,-1.6E1,-1.7E1,-4.9051006E1,1.7193694E2,-1.3101367E2,-3E0,-4E0,2.9297284E2,-2.1484119E2,3E0,9E0,1.9E1,3E0,1.9900131E2,1.9900131E2,1.8E1,-1.9E1,-4.6248627E1,-2.3E1,3.5379932E2,-1.5683838E2,-1E1,5.655295E1,3.5379932E2,-2.581433E2,-4E0,1E0,1E0,7.041838E1,1E0,1E0,3.5379932E2,1E0,3E0,-5.0304245E1,-2.9050333E1,-9.781479E1,-1.20656845E2,-1.20656845E2,-3.125852E2,2.8963642E1,4E0,1.4007468E2,3.0827127E2,1E1,1E1,1.577557E2,2.3E1,-7.9136096E-2,-7.385391E-2,-7.095017E-2,-5.8950868E-2,-8.131418E-2,-5.7471246E-2,-3.763904E-2,6.0908925E-2,-6.5241955E-2,-5.5909604E-2,-5.0773747E-2,-4.270182E-2,-1.67314E-2,-3.536577E-2,-5.314139E-3,6.417219E-2,-5.919015E-2,-4.509854E-2,-4.2919643E-2,-3.1004861E-2,-2.9399205E-2,-7.3302865E-2,-1.6154883E-2,-4.8501514E-2,-2.6567405E-2,-1.5274088E-2,-1.5810033E-3,-5.5251192E-2,1.2735717E-2,-5.2767005E-2,3.348297E-2,5.8809794E-2,-4.68878E-2,-2.2325851E-2,-2.6211588E-2,-6.1804373E-3,-1.567608E-2,-2.94248E-3,6.100054E-3,1.6984861E-2,9.247107E-3,2.3844857E-2,2.1606665E-2,3.664198E-2,3.8346913E-2,5.1356483E-2,2.353984E-2,6.469373E-2,3.884428E-3,1.3892007E-2,2.0358682E-2,2.8524661E-2,2.7095E-2,3.37311E-2,4.4896256E-2,5.7257038E-2,4.1495826E-2,5.0008148E-2,5.7124317E-2,6.1157893E-2,5.7975847E-2,6.336244E-2,6.493344E-2,6.736069E-2],"split_indices":[1,1,4,1,4,1,1,4,4,4,4,4,1,4,1,1,1,4,4,4,1,1,4,4,1,1,1,1,4,4,1,1,4,1,4,4,1,4,4,4,1,2,2,4,2,2,4,1,1,4,4,4,4,4,4,4,1,4,4,1,1,4,1,0,0,0,0,0,0,0,0,0,0,0,0,0,0,0,0,0,0,0,0,0,0,0,0,0,0,0,0,0,0,0,0,0,0,0,0,0,0,0,0,0,0,0,0,0,0,0,0,0,0,0,0,0,0,0,0,0,0,0,0,0,0,0,0],"split_type":[0,0,0,0,0,0,0,0,0,0,0,0,0,0,0,0,0,0,0,0,0,0,0,0,0,0,0,0,0,0,0,0,0,0,0,0,0,0,0,0,0,0,0,0,0,0,0,0,0,0,0,0,0,0,0,0,0,0,0,0,0,0,0,0,0,0,0,0,0,0,0,0,0,0,0,0,0,0,0,0,0,0,0,0,0,0,0,0,0,0,0,0,0,0,0,0,0,0,0,0,0,0,0,0,0,0,0,0,0,0,0,0,0,0,0,0,0,0,0,0,0,0,0,0,0,0,0],"sum_hessian":[2.5354528E6,5.390788E5,1.9963739E6,2.4387638E5,2.9520244E5,1.00035806E6,9.960158E5,1.15734875E5,1.281415E5,1.9995106E5,9.525137E4,8.601145E5,1.4024355E5,7.781611E5,2.1785472E5,1.0592619E5,9.808686E3,9.9260195E4,2.8881303E4,1.2065982E5,7.9291234E4,7.555744E4,1.9693932E4,3.2269834E5,5.374161E5,8.521655E4,5.5027008E4,3.9536175E5,3.8279934E5,1.0764221E5,1.10212516E5,5.746215E4,4.846404E4,3.339119E3,6.4695664E3,6.2426203E4,3.6833992E4,2.26149E4,6.266402E3,6.1544027E4,5.9115797E4,4.6982965E4,3.230827E4,3.0644807E4,4.491263E4,1.728058E4,2.41335E3,1.0538461E5,2.1731372E5,4.689623E5,6.8453836E4,3.6803086E4,4.8413457E4,3.50557E4,1.9971307E4,3.4172838E5,5.3633383E4,2.6969188E5,1.1310748E5,9.017136E4,1.747085E4,5.2622453E4,5.759006E4,3.5282203E4,2.2179945E4,2.971442E4,1.874962E4,1.0205502E3,2.3185688E3,6.4145864E3,5.498023E1,2.506501E4,3.7361195E4,1.1908295E4,2.4925697E4,1.1397229E3,2.1475178E4,6.116244E3,1.5015787E2,1.1144671E4,5.0399355E4,2.5312977E4,3.380282E4,4.654788E4,4.3508597E2,3.1694744E4,6.1352545E2,1.166071E4,1.8984098E4,4.4249824E4,6.628046E2,1.7080848E4,1.9973337E2,1.8191725E3,5.9417755E2,8.8702984E4,1.6681627E4,1.9284561E5,2.4468115E4,2.4101466E5,2.2794766E5,4.7473113E4,2.0980723E4,1.4796883E4,2.2006203E4,1.4067779E4,3.434568E4,9.140232E3,2.5915469E4,1.0685251E2,1.9864453E4,1.11550125E5,2.3017825E5,1.4719415E4,3.8913965E4,1.4718352E5,1.2250835E5,9.589951E4,1.7207973E4,5.1212035E4,3.8959324E4,9.553608E3,7.917241E3,3.6361742E4,1.626071E4,2.983508E4,2.7754979E4],"tree_param":{"num_deleted":"0","num_feature":"5","num_nodes":"127","size_leaf_vector":"1"}},{"base_weights":[3.4737613E-3,-8.3153415E-1,1.963465E-1,-1.2185454E0,-5.930436E-1,-1.5662101E-1,5.928706E-1,-1.445551E0,-1.0707603E0,-7.603384E-1,-1.9403061E-1,-3.0666244E-1,6.541961E-1,4.6035498E-1,1.0860894E0,-1.4714935E0,-1.1053421E0,-1.2561824E0,-8.5032135E-1,-8.873936E-1,-5.685374E-1,-2.9571974E-1,1.8767995E-1,-5.332798E-1,-9.9294335E-2,4.192253E-1,1.0098494E0,2.5412834E-1,6.6841763E-1,9.315327E-1,1.2369621E0,-1.5343204E0,-1.4017116E0,-1.5571841E0,-9.880661E-1,-1.3478903E0,-1.1924058E0,-9.153505E-1,-2.4088082E-1,-1.0085343E0,-7.6572526E-1,-7.226476E-1,-4.3233448E-1,-5.599657E-1,-1.7253605E-1,1.6011217E-1,1.1510818E0,-8.102398E-1,-4.264408E-1,-1.3817002E-1,1.369893E-1,2.4186961E-1,5.493352E-1,8.572235E-1,1.20516E0,2.0855805E-1,4.7342068E-1,5.699901E-1,8.960191E-1,8.8662755E-1,1.1536497E0,1.1689899E0,1.2988266E0,-7.816749E-2,-7.529115E-2,-7.187045E-2,-6.554435E-2,-3.8817625E-2,-7.957947E-2,-4.982307E-2,4.761267E-2,-7.1002565E-2,-6.49909E-2,-6.4783856E-2,-5.63893E-2,-4.861577E-2,-3.6635216E-2,-1.4085813E-2,6.1887026E-2,-6.0208153E-2,-4.786051E-2,-4.3994572E-2,-3.2479953E-2,-3.8726434E-2,-3.013189E-2,-2.1142215E-2,-6.0571432E-2,-3.1818222E-2,-2.3612242E-2,-8.007066E-3,-6.406481E-2,2.128286E-3,1.6569372E-2,5.844597E-2,-7.822007E-2,-4.3266192E-2,-2.2941345E-2,-2.3509985E-2,-6.4641493E-3,-1.31321E-2,-3.377481E-3,1.8466463E-3,1.3597612E-2,3.9301375E-3,2.0617856E-2,2.1084087E-2,3.4420084E-2,3.1350292E-2,4.675666E-2,5.568988E-2,6.493316E-2,-3.8132125E-3,1.18131805E-2,1.8603582E-2,2.781536E-2,1.2897498E-2,2.963455E-2,4.2922396E-2,5.5342037E-2,3.9387252E-2,4.75732E-2,5.5812098E-2,5.9937008E-2,5.686588E-2,6.2118392E-2,6.37689E-2,6.618982E-2],"categories":[],"categories_nodes":[],"categories_segments":[],"categories_sizes":[],"default_left":[0,0,0,0,0,0,0,0,0,0,0,0,0,0,0,0,0,0,0,0,0,0,0,0,0,0,0,0,0,0,0,0,0,0,0,0,0,0,0,0,0,0,0,0,0,0,0,0,0,0,0,0,0,0,0,0,0,0,0,0,0,0,0,0,0,0,0,0,0,0,0,0,0,0,0,0,0,0,0,0,0,0,0,0,0,0,0,0,0,0,0,0,0,0,0,0,0,0,0,0,0,0,0,0,0,0,0,0,0,0,0,0,0,0,0,0,0,0,0,0,0,0,0,0,0,0,0],"id":11,"left_children":[1,3,5,7,9,11,13,15,17,19,21,23,25,27,29,31,33,35,37,39,41,43,45,47,49,51,53,55,57,59,61,63,65,67,69,71,73,75,77,79,81,83,85,87,89,91,93,95,97,99,101,103,105,107,109,111,113,115,117,119,121,123,125,-1,-1,-1,-1,-1,-1,-1,-1,-1,-1,-1,-1,-1,-1,-1,-1,-1,-1,-1,-1,-1,-1,-1,-1,-1,-1,-1,-1,-1,-1,-1,-1,-1,-1,-1,-1,-1,-1,-1,-1,-1,-1,-1,-1,-1,-1,-1,-1,-1,-1,-1,-1,-1,-1,-1,-1,-1,-1,-1,-1,-1,-1,-1,-1],"loss_changes":[4.0593128E5,4.365225E4,2.8657838E5,6.0480625E3,1.9533656E4,1.317883E5,6.3024625E4,6.2590625E2,4.4634297E3,5.0240156E3,3.3555977E3,4.2957633E4,1.4135875E4,3.2613266E4,4.7607344E3,2.8748438E2,2.65625E2,3.4535156E2,1.9775352E3,1.8271953E3,1.7242559E3,2.2219126E3,4.8281433E2,1.292432E4,4.3846865E3,2.3504355E3,2.0050391E3,3.8145547E3,8.475453E3,1.00516406E3,4.3301562E2,2.6390625E1,9.962891E1,2.6628662E1,6.6197754E1,8.253516E1,2.3209375E2,4.684414E2,2.9094888E2,6.2278906E2,8.198203E2,2.3952344E2,3.21979E2,1.4515234E2,6.3965894E2,3.5595856E2,2.6326355E1,2.3532344E3,4.0986094E3,3.603085E3,9.107024E2,1.1998542E3,1.0427852E3,6.770371E2,2.5071484E2,2.4940146E3,5.5150195E2,1.8708516E3,9.0378906E2,5.372656E2,2.7273438E1,1.1303906E2,2.9984375E1,0E0,0E0,0E0,0E0,0E0,0E0,0E0,0E0,0E0,0E0,0E0,0E0,0E0,0E0,0E0,0E0,0E0,0E0,0E0,0E0,0E0,0E0,0E0,0E0,0E0,0E0,0E0,0E0,0E0,0E0,0E0,0E0,0E0,0E0,0E0,0E0,0E0,0E0,0E0,0E0,0E0,0E0,0E0,0E0,0E0,0E0,0E0,0E0,0E0,0E0,0E0,0E0,0E0,0E0,0E0,0E0,0E0,0E0,0E0,0E0,0E0,0E0,0E0,0E0],"parents":[2147483647,0,0,1,1,2,2,3,3,4,4,5,5,6,6,7,7,8,8,9,9,10,10,11,11,12,12,13,13,14,14,15,15,16,16,17,17,18,18,19,19,20,20,21,21,22,22,23,23,24,24,25,25,26,26,27,27,28,28,29,29,30,30,31,31,32,32,33,33,34,34,35,35,36,36,37,37,38,38,39,39,40,40,41,41,42,42,43,43,44,44,45,45,46,46,47,47,48,48,49,49,50,50,51,51,52,52,53,53,54,54,55,55,56,56,57,57,58,58,59,59,60,60,61,61,62,62],"right_children":[2,4,6,8,10,12,14,16,18,20,22,24,26,28,30,32,34,36,38,40,42,44,46,48,50,52,54,56,58,60,62,64,66,68,70,72,74,76,78,80,82,84,86,88,90,92,94,96,98,100,102,104,106,108,110,112,114,116,118,120,122,124,126,-1,-1,-1,-1,-1,-1,-1,-1,-1,-1,-1,-1,-1,-1,-1,-1,-1,-1,-1,-1,-1,-1,-1,-1,-1,-1,-1,-1,-1,-1,-1,-1,-1,-1,-1,-1,-1,-1,-1,-1,-1,-1,-1,-1,-1,-1,-1,-1,-1,-1,-1,-1,-1,-1,-1,-1,-1,-1,-1,-1,-1,-1,-1,-1],"split_conditions":[-2E0,-9E0,1.0373358E1,-1.5E1,3.92033E1,6E0,7E0,1.0287948E2,-3.9184532E1,-5.324565E1,1.7193694E2,-9.1384735E1,1.2E1,9.610093E1,1.3E1,-1.9E1,-2.3E1,-1.2E1,1.7193694E2,-5E0,-5E0,-6E0,3.5379932E2,-2.0682953E2,2E0,8E0,1.7E1,2E0,1.9900131E2,1.9900131E2,1.8E1,-2.3E1,-1.9868696E1,1.0651196E2,3.5379932E2,-1.5683838E2,-1.5683838E2,8.75507E1,3.5379932E2,-2.105557E2,-1.3101367E2,-6E0,1E0,9.236706E1,1E0,-4E0,1E0,1E0,2E0,-5.0304245E1,-2.9050333E1,-7.1459816E1,-6.510133E1,-1.20656845E2,2.1E1,0E0,4E0,0E0,3.0827127E2,9E0,1E1,1.636217E2,2.3E1,-7.816749E-2,-7.529115E-2,-7.187045E-2,-6.554435E-2,-3.8817625E-2,-7.957947E-2,-4.982307E-2,4.761267E-2,-7.1002565E-2,-6.49909E-2,-6.4783856E-2,-5.63893E-2,-4.861577E-2,-3.6635216E-2,-1.4085813E-2,6.1887026E-2,-6.0208153E-2,-4.786051E-2,-4.3994572E-2,-3.2479953E-2,-3.8726434E-2,-3.013189E-2,-2.1142215E-2,-6.0571432E-2,-3.1818222E-2,-2.3612242E-2,-8.007066E-3,-6.406481E-2,2.128286E-3,1.6569372E-2,5.844597E-2,-7.822007E-2,-4.3266192E-2,-2.2941345E-2,-2.3509985E-2,-6.4641493E-3,-1.31321E-2,-3.377481E-3,1.8466463E-3,1.3597612E-2,3.9301375E-3,2.0617856E-2,2.1084087E-2,3.4420084E-2,3.1350292E-2,4.675666E-2,5.568988E-2,6.493316E-2,-3.8132125E-3,1.18131805E-2,1.8603582E-2,2.781536E-2,1.2897498E-2,2.963455E-2,4.2922396E-2,5.5342037E-2,3.9387252E-2,4.75732E-2,5.5812098E-2,5.9937008E-2,5.686588E-2,6.2118392E-2,6.37689E-2,6.618982E-2],"split_indices":[1,1,4,1,4,1,1,4,4,4,4,4,1,4,1,1,1,1,4,1,1,1,4,4,1,1,1,1,4,4,1,1,4,4,4,4,4,4,4,4,4,1,2,4,2,1,2,1,1,4,4,4,4,4,1,1,1,1,4,1,1,4,1,0,0,0,0,0,0,0,0,0,0,0,0,0,0,0,0,0,0,0,0,0,0,0,0,0,0,0,0,0,0,0,0,0,0,0,0,0,0,0,0,0,0,0,0,0,0,0,0,0,0,0,0,0,0,0,0,0,0,0,0,0,0,0,0],"split_type":[0,0,0,0,0,0,0,0,0,0,0,0,0,0,0,0,0,0,0,0,0,0,0,0,0,0,0,0,0,0,0,0,0,0,0,0,0,0,0,0,0,0,0,0,0,0,0,0,0,0,0,0,0,0,0,0,0,0,0,0,0,0,0,0,0,0,0,0,0,0,0,0,0,0,0,0,0,0,0,0,0,0,0,0,0,0,0,0,0,0,0,0,0,0,0,0,0,0,0,0,0,0,0,0,0,0,0,0,0,0,0,0,0,0,0,0,0,0,0,0,0,0,0,0,0,0,0],"sum_hessian":[2.5205232E6,4.7295338E5,2.04757E6,1.8032547E5,2.926279E5,1.0832824E6,9.642876E5,7.110137E4,1.092241E5,2.0618112E5,8.644679E4,9.1412456E5,1.6915783E5,7.6007606E5,2.0421155E5,6.6060625E4,5.0407417E3,5.932129E4,4.990281E4,1.240216E5,8.2159516E4,6.826181E4,1.818498E4,4.3678878E5,4.7733578E5,1.0186228E5,6.729554E4,3.8172338E5,3.783527E5,1.00877734E5,1.0333381E5,3.4751633E4,3.1308988E4,1.036197E3,4.0045444E3,2.4324186E4,3.4997105E4,4.509097E4,4.811843E3,6.2141906E4,6.1879695E4,3.8543832E4,4.3615684E4,2.1702791E4,4.655902E4,1.7680227E4,5.0475412E2,1.2158801E5,3.1520078E5,4.098961E5,6.7439695E4,4.310617E4,5.8756113E4,3.777868E4,2.9516863E4,3.160485E5,6.5674875E4,2.641312E5,1.14221516E5,8.391727E4,1.6960459E4,4.924589E4,5.408792E4,1.7188488E4,1.7563146E4,2.2464713E4,8.844276E3,4.4725094E1,9.9147186E2,3.9877766E3,1.6767859E1,9.714011E3,1.4610175E4,1.3462756E4,2.153435E4,3.4367793E4,1.0723173E4,4.683312E3,1.285307E2,1.2910255E4,4.9231652E4,3.1199854E4,3.067984E4,2.6906518E4,1.1637314E4,4.3092316E4,5.2336755E2,1.1596669E4,1.0106122E4,4.6045426E4,5.135932E2,1.0485358E4,7.1948677E3,5.020259E2,2.728205E0,1.0511046E5,1.6477545E4,2.7474216E5,4.0458605E4,1.4837502E5,2.6152106E5,3.8728867E4,2.8710832E4,2.2020123E4,2.1086049E4,3.0637244E4,2.8118867E4,9.554585E3,2.8224094E4,1.4935858E4,1.4581004E4,2.8017498E4,2.88031E5,2.9549227E4,3.612565E4,1.791324E4,2.4621794E5,9.6948984E4,1.727253E4,3.3238387E4,5.067889E4,9.28401E3,7.6764487E3,3.4409934E4,1.4835959E4,2.7920521E4,2.6167398E4],"tree_param":{"num_deleted":"0","num_feature":"5","num_nodes":"127","size_leaf_vector":"1"}},{"base_weights":[3.6579398E-3,-7.35269E-1,2.0373093E-1,-1.1003957E0,-4.571866E-1,-1.4767069E-1,5.699839E-1,-1.326283E0,-7.459992E-1,-7.1275496E-1,-2.7629592E-2,-2.8157023E-1,6.9272405E-1,4.4000316E-1,1.0518224E0,-1.5074395E0,-1.197321E0,-1.3084564E0,-5.6271315E-1,-1.1006145E0,-5.935243E-1,-3.1373796E-1,1.5956685E-1,-5.446574E-1,-1.2572213E-1,1.1100106E0,4.02233E-1,2.3776665E-1,6.4884543E-1,8.917421E-1,1.2112517E0,-1.5713291E0,-1.4313515E0,-1.3849714E0,-9.592947E-1,-1.5624908E0,-1.0928111E0,-6.796344E-1,-3.08788E-1,-1.3210814E0,-1.0071175E0,-8.348235E-1,-4.3986025E-1,-4.4915247E-1,1.1062955E-1,-4.3908156E-2,3.8571358E-1,-7.805165E-1,-4.3078417E-1,-1.6959722E-1,1.7561762E-1,1.258156E0,9.2690957E-1,2.5671807E-1,8.223612E-1,1.9942096E-1,4.853346E-1,5.5435264E-1,8.7733066E-1,1.1829803E0,8.043954E-1,1.25976E0,1.0608798E0,-7.6936625E-2,-8.042162E-2,-7.5845025E-2,-6.286987E-2,-7.347726E-2,-6.334805E-2,-5.1250458E-2,-2.875094E-2,-8.6288445E-2,-7.571247E-2,-6.430204E-2,-4.2859424E-2,-3.9186154E-2,-2.6974132E-2,-2.67853E-2,-1.0613011E-2,-6.803759E-2,-4.7205713E-2,-5.74779E-2,-4.2481568E-2,-5.5276603E-2,-3.8971473E-2,-3.0716283E-2,-1.8193336E-2,-3.2746717E-2,-1.3937558E-2,-9.900896E-3,1.3453037E-2,-8.684359E-3,3.2325052E-3,1.5181362E-2,3.284119E-2,-4.263322E-2,-1.9910894E-2,-2.3537911E-2,-5.8256127E-3,-1.5571102E-2,-4.009171E-3,4.953703E-2,3.620884E-3,5.3871866E-2,6.532643E-2,3.0094672E-2,5.616153E-2,-5.2239926E-4,1.8478258E-2,3.4592267E-2,5.4001343E-2,3.902262E-3,1.2769519E-2,6.00775E-2,2.151498E-2,2.6595032E-2,3.7776902E-2,4.1998863E-2,5.4445155E-2,6.445887E-2,5.3855754E-2,3.648619E-2,5.1485505E-2,6.508094E-2,6.04615E-2,4.7924083E-2,5.793478E-2],"categories":[],"categories_nodes":[],"categories_segments":[],"categories_sizes":[],"default_left":[0,0,0,0,0,0,0,0,0,0,0,0,0,0,0,0,0,0,0,0,0,0,0,0,0,0,0,0,0,0,0,0,0,0,0,0,0,0,0,0,0,0,0,0,0,0,0,0,0,0,0,0,0,0,0,0,0,0,0,0,0,0,0,0,0,0,0,0,0,0,0,0,0,0,0,0,0,0,0,0,0,0,0,0,0,0,0,0,0,0,0,0,0,0,0,0,0,0,0,0,0,0,0,0,0,0,0,0,0,0,0,0,0,0,0,0,0,0,0,0,0,0,0,0,0,0,0],"id":12,"left_children":[1,3,5,7,9,11,13,15,17,19,21,23,25,27,29,31,33,35,37,39,41,43,45,47,49,51,53,55,57,59,61,63,65,67,69,71,73,75,77,79,81,83,85,87,89,91,93,95,97,99,101,103,105,107,109,111,113,115,117,119,121,123,125,-1,-1,-1,-1,-1,-1,-1,-1,-1,-1,-1,-1,-1,-1,-1,-1,-1,-1,-1,-1,-1,-1,-1,-1,-1,-1,-1,-1,-1,-1,-1,-1,-1,-1,-1,-1,-1,-1,-1,-1,-1,-1,-1,-1,-1,-1,-1,-1,-1,-1,-1,-1,-1,-1,-1,-1,-1,-1,-1,-1,-1,-1,-1,-1],"loss_changes":[3.7044944E5,5.4209438E4,2.537815E5,1.8477344E4,3.3272324E4,1.1324112E5,6.0470094E4,3.2915781E3,9.262512E3,8.786914E3,6.0551973E3,3.5590555E4,1.6764336E4,3.2115766E4,5.234E3,2.8271875E2,3.6770234E3,1.2080625E3,2.011916E3,9.19625E2,5.3889062E3,2.5696401E3,3.1448086E3,8.672531E3,7.207163E3,1.5385547E3,4.984798E3,3.6672227E3,8.076203E3,2.6028906E3,7.4828125E2,3.6054688E1,3.9641406E2,4.5771094E2,9.162422E2,7.723242E1,5.428633E2,6.7653516E2,4.6795972E2,1.9763672E2,7.028965E2,8.4709766E2,1.1771055E3,1.1884907E3,5.290322E2,5.0685342E2,7.201333E2,2.8996445E3,2.7358086E3,6.034075E3,5.8279663E3,2.7285547E2,1.6194004E3,1.8259932E3,7.0468066E2,2.2723662E3,2.0416758E3,1.1950156E3,8.6402344E2,2.6408594E2,1.3240898E3,1.6276562E2,2.5001367E2,0E0,0E0,0E0,0E0,0E0,0E0,0E0,0E0,0E0,0E0,0E0,0E0,0E0,0E0,0E0,0E0,0E0,0E0,0E0,0E0,0E0,0E0,0E0,0E0,0E0,0E0,0E0,0E0,0E0,0E0,0E0,0E0,0E0,0E0,0E0,0E0,0E0,0E0,0E0,0E0,0E0,0E0,0E0,0E0,0E0,0E0,0E0,0E0,0E0,0E0,0E0,0E0,0E0,0E0,0E0,0E0,0E0,0E0,0E0,0E0,0E0,0E0,0E0,0E0],"parents":[2147483647,0,0,1,1,2,2,3,3,4,4,5,5,6,6,7,7,8,8,9,9,10,10,11,11,12,12,13,13,14,14,15,15,16,16,17,17,18,18,19,19,20,20,21,21,22,22,23,23,24,24,25,25,26,26,27,27,28,28,29,29,30,30,31,31,32,32,33,33,34,34,35,35,36,36,37,37,38,38,39,39,40,40,41,41,42,42,43,43,44,44,45,45,46,46,47,47,48,48,49,49,50,50,51,51,52,52,53,53,54,54,55,55,56,56,57,57,58,58,59,59,60,60,61,61,62,62],"right_children":[2,4,6,8,10,12,14,16,18,20,22,24,26,28,30,32,34,36,38,40,42,44,46,48,50,52,54,56,58,60,62,64,66,68,70,72,74,76,78,80,82,84,86,88,90,92,94,96,98,100,102,104,106,108,110,112,114,116,118,120,122,124,126,-1,-1,-1,-1,-1,-1,-1,-1,-1,-1,-1,-1,-1,-1,-1,-1,-1,-1,-1,-1,-1,-1,-1,-1,-1,-1,-1,-1,-1,-1,-1,-1,-1,-1,-1,-1,-1,-1,-1,-1,-1,-1,-1,-1,-1,-1,-1,-1,-1,-1,-1,-1,-1,-1,-1,-1,-1,-1,-1,-1,-1,-1,-1,-1],"split_conditions":[-1E0,1.186E3,4.0300956E0,-6E0,1.0373358E1,7E0,7E0,4.79E2,2.09E2,-1E1,-6E0,-1.20656845E2,9.56E2,9.236706E1,1.3E1,2.42E2,-1.1E1,4.58E1,3.4220375E1,-1.6E1,-1.20656845E2,1.4007468E2,9.236706E1,-2.1484119E2,3E0,5.25E2,1.4E1,3E0,1.9900131E2,6.28E2,1.4657E3,-5.5727493E1,-1E1,-1.5E1,9.428718E1,4.4E0,-3E0,-3E0,5.25E2,-1.9868696E1,-9.974699E1,-2.581433E2,-6E0,1.772E3,1.661E3,2.068E3,2.0402689E2,1E0,3E0,-6.510133E1,3.09E2,9E0,1.1E1,-1.20656845E2,1.9E1,2.8963642E1,1.44E2,4E0,3.0827127E2,2.87E2,1.6632442E2,7.202E2,1.08218414E2,-7.6936625E-2,-8.042162E-2,-7.5845025E-2,-6.286987E-2,-7.347726E-2,-6.334805E-2,-5.1250458E-2,-2.875094E-2,-8.6288445E-2,-7.571247E-2,-6.430204E-2,-4.2859424E-2,-3.9186154E-2,-2.6974132E-2,-2.67853E-2,-1.0613011E-2,-6.803759E-2,-4.7205713E-2,-5.74779E-2,-4.2481568E-2,-5.5276603E-2,-3.8971473E-2,-3.0716283E-2,-1.8193336E-2,-3.2746717E-2,-1.3937558E-2,-9.900896E-3,1.3453037E-2,-8.684359E-3,3.2325052E-3,1.5181362E-2,3.284119E-2,-4.263322E-2,-1.9910894E-2,-2.3537911E-2,-5.8256127E-3,-1.5571102E-2,-4.009171E-3,4.953703E-2,3.620884E-3,5.3871866E-2,6.532643E-2,3.0094672E-2,5.616153E-2,-5.2239926E-4,1.8478258E-2,3.4592267E-2,5.4001343E-2,3.902262E-3,1.2769519E-2,6.00775E-2,2.151498E-2,2.6595032E-2,3.7776902E-2,4.1998863E-2,5.4445155E-2,6.445887E-2,5.3855754E-2,3.648619E-2,5.1485505E-2,6.508094E-2,6.04615E-2,4.7924083E-2,5.793478E-2],"split_indices":[1,0,4,1,4,1,1,0,0,1,1,4,0,4,1,0,1,0,4,1,4,4,4,4,1,0,1,1,4,0,0,4,1,1,4,0,1,1,0,4,4,4,1,0,0,0,4,1,1,4,0,1,1,4,1,4,0,1,4,0,4,0,4,0,0,0,0,0,0,0,0,0,0,