{"learner":{"attributes":{"best_iteration":"141","best_score":"0.46694256074945073","scikit_learn":"{\"_estimator_type\": \"classifier\"}"},"feature_names":["seconds_remaining","score_diff","is_overtime","rating_diff"],"feature_types":["float","float","int","float"],"gradient_booster":{"model":{"gbtree_model_param":{"num_parallel_tree":"1","num_trees":"192"},"iteration_indptr":[0,1,2,3,4,5,6,7,8,9,10,11,12,13,14,15,16,17,18,19,20,21,22,23,24,25,26,27,28,29,30,31,32,33,34,35,36,37,38,39,40,41,42,43,44,45,46,47,48,49,50,51,52,53,54,55,56,57,58,59,60,61,62,63,64,65,66,67,68,69,70,71,72,73,74,75,76,77,78,79,80,81,82,83,84,85,86,87,88,89,90,91,92,93,94,95,96,97,98,99,100,101,102,103,104,105,106,107,108,109,110,111,112,113,114,115,116,117,118,119,120,121,122,123,124,125,126,127,128,129,130,131,132,133,134,135,136,137,138,139,140,141,142,143,144,145,146,147,148,149,150,151,152,153,154,155,156,157,158,159,160,161,162,163,164,165,166,167,168,169,170,171,172,173,174,175,176,177,178,179,180,181,182,183,184,185,186,187,188,189,190,191,192],"tree_info":[0,0,0,0,0,0,0,0,0,0,0,0,0,0,0,0,0,0,0,0,0,0,0,0,0,0,0,0,0,0,0,0,0,0,0,0,0,0,0,0,0,0,0,0,0,0,0,0,0,0,0,0,0,0,0,0,0,0,0,0,0,0,0,0,0,0,0,0,0,0,0,0,0,0,0,0,0,0,0,0,0,0,0,0,0,0,0,0,0,0,0,0,0,0,0,0,0,0,0,0,0,0,0,0,0,0,0,0,0,0,0,0,0,0,0,0,0,0,0,0,0,0,0,0,0,0,0,0,0,0,0,0,0,0,0,0,0,0,0,0,0,0,0,0,0,0,0,0,0,0,0,0,0,0,0,0,0,0,0,0,0,0,0,0,0,0,0,0,0,0,0,0,0,0,0,0,0,0,0,0,0,0,0,0,0,0,0,0,0,0,0,0],"trees":[{"base_weights":[3.8222177E-3,-5.8043903E-1,6.073381E-1,-9.956295E-1,-2.7592856E-1,2.8304356E-1,9.1093826E-1,-1.2934871E0,-7.814671E-1,-5.088559E-1,-1.4474066E-1,1.01487875E-1,3.7779385E-1,7.8663117E-1,1.2119853E0,-1.4646596E0,-1.1835834E0,-8.542048E-1,-7.529913E-1,-2.94255E-1,-5.2609235E-1,-2.5088298E-1,-7.509916E-2,1.1652454E-1,-1.9817017E-1,3.635705E-1,5.058898E-1,7.0297533E-1,8.633223E-1,1.1756299E0,1.4051803E0,-1.5795338E0,-1.3722883E0,-1.2401869E0,-1.1080904E0,-7.7755266E-1,-9.49994E-1,-6.4341563E-1,-7.915587E-1,-2.2899212E-1,-3.59089E-1,-6.1207896E-1,-4.687008E-1,-2.8143823E-1,-1.9843608E-1,-4.5254122E-2,-1.5185578E-1,8.784331E-2,2.0172061E-1,-1.9306841E-1,-5.9100205E-1,2.5414833E-1,3.7351897E-1,6.5020126E-1,3.6033896E-1,4.5784697E-1,7.102676E-1,8.7101626E-1,-2.2487457E-1,1.232697E0,1.1312454E0,1.3041104E0,1.4554967E0,-5.6623537E-2,-7.934403E-2,-6.678694E-2,-7.1365684E-2,-6.244665E-2,-1.5120335E-2,-5.2926E-2,-6.034993E-2,-4.2525824E-2,-2.4391582E-2,-4.7799125E-2,-8.995617E-3,-3.774078E-2,-3.8480533E-3,-4.458646E-2,-3.8495384E-2,3.7343185E-3,-1.15676215E-2,-1.8669546E-2,1.2714398E-2,-3.3053406E-2,-2.8157452E-2,8.550798E-4,-2.5175536E-2,-1.0540719E-2,-1.658857E-2,-2.3296012E-3,-1.564139E-2,-3.2174967E-3,1.6840346E-2,-1.4100896E-2,-5.29018E-3,7.665521E-3,3.9189267E-3,1.6702695E-2,8.436192E-3,-9.206989E-3,-1.0965133E-2,-4.667042E-2,-2.485588E-2,1.7857637E-2,1.0130425E-2,2.010381E-2,1.6734768E-2,1.1684633E-2,3.2979783E-2,1.2138917E-2,2.3919404E-2,2.4221415E-2,1.0220192E-2,4.112077E-2,3.495115E-2,4.118552E-2,4.634846E-2,1.1991436E-3,-5.125205E-2,5.7517666E-2,6.7090236E-2,5.0195243E-2,6.1659068E-2,4.7089543E-2,6.565884E-2,7.28973E-2,2.203471E-2],"categories":[],"categories_nodes":[],"categories_segments":[],"categories_sizes":[],"default_left":[0,0,0,0,0,0,0,0,0,0,0,0,0,0,0,0,0,0,0,0,0,0,0,0,0,0,0,0,0,0,0,0,0,0,0,0,0,0,0,0,0,0,0,0,0,0,0,0,0,0,0,0,0,0,0,0,0,0,0,0,0,0,0,0,0,0,0,0,0,0,0,0,0,0,0,0,0,0,0,0,0,0,0,0,0,0,0,0,0,0,0,0,0,0,0,0,0,0,0,0,0,0,0,0,0,0,0,0,0,0,0,0,0,0,0,0,0,0,0,0,0,0,0,0,0,0,0],"id":0,"left_children":[1,3,5,7,9,11,13,15,17,19,21,23,25,27,29,31,33,35,37,39,41,43,45,47,49,51,53,55,57,59,61,63,65,67,69,71,73,75,77,79,81,83,85,87,89,91,93,95,97,99,101,103,105,107,109,111,113,115,117,119,121,123,125,-1,-1,-1,-1,-1,-1,-1,-1,-1,-1,-1,-1,-1,-1,-1,-1,-1,-1,-1,-1,-1,-1,-1,-1,-1,-1,-1,-1,-1,-1,-1,-1,-1,-1,-1,-1,-1,-1,-1,-1,-1,-1,-1,-1,-1,-1,-1,-1,-1,-1,-1,-1,-1,-1,-1,-1,-1,-1,-1,-1,-1,-1,-1,-1],"loss_changes":[8.595834E5,1.5660112E5,1.1806066E5,3.3429812E4,2.1835086E4,9.974E3,2.31755E4,4.1220625E3,6.3084375E2,9.5214844E2,3.3789316E3,8.959066E2,6.939414E2,2.8115625E3,1.2695625E3,9.072969E2,5.690781E2,6.29E2,9.254531E2,8.091724E1,1.17575E3,2.9015723E2,6.3229553E2,4.6260742E2,1.8926514E1,3.731875E2,7.9945996E2,3.744453E2,1.9148594E3,3.8445312E2,1.4385547E2,1.2364844E2,9.364844E1,6.253125E2,2.792422E2,1.0068262E3,1.75625E2,3.5998262E3,3.5078125E2,6.8572693E0,8.432251E1,2.2827344E2,2.4169434E3,4.0669238E2,1.1580261E3,1.4500046E3,4.6317993E2,8.775549E1,2.0815588E2,2.1567993E0,3.4359894E0,1.5166064E2,3.4835938E2,7.464502E1,2.629668E2,4.072339E1,2.5615625E2,6.0028125E2,3.198838E2,5.971172E2,1.1111953E3,3.0083984E1,4.6890625E1,0E0,0E0,0E0,0E0,0E0,0E0,0E0,0E0,0E0,0E0,0E0,0E0,0E0,0E0,0E0,0E0,0E0,0E0,0E0,0E0,0E0,0E0,0E0,0E0,0E0,0E0,0E0,0E0,0E0,0E0,0E0,0E0,0E0,0E0,0E0,0E0,0E0,0E0,0E0,0E0,0E0,0E0,0E0,0E0,0E0,0E0,0E0,0E0,0E0,0E0,0E0,0E0,0E0,0E0,0E0,0E0,0E0,0E0,0E0,0E0,0E0,0E0,0E0,0E0],"parents":[2147483647,0,0,1,1,2,2,3,3,4,4,5,5,6,6,7,7,8,8,9,9,10,10,11,11,12,12,13,13,14,14,15,15,16,16,17,17,18,18,19,19,20,20,21,21,22,22,23,23,24,24,25,25,26,26,27,27,28,28,29,29,30,30,31,31,32,32,33,33,34,34,35,35,36,36,37,37,38,38,39,39,40,40,41,41,42,42,43,43,44,44,45,45,46,46,47,47,48,48,49,49,50,50,51,51,52,52,53,53,54,54,55,55,56,56,57,57,58,58,59,59,60,60,61,61,62,62],"right_children":[2,4,6,8,10,12,14,16,18,20,22,24,26,28,30,32,34,36,38,40,42,44,46,48,50,52,54,56,58,60,62,64,66,68,70,72,74,76,78,80,82,84,86,88,90,92,94,96,98,100,102,104,106,108,110,112,114,116,118,120,122,124,126,-1,-1,-1,-1,-1,-1,-1,-1,-1,-1,-1,-1,-1,-1,-1,-1,-1,-1,-1,-1,-1,-1,-1,-1,-1,-1,-1,-1,-1,-1,-1,-1,-1,-1,-1,-1,-1,-1,-1,-1,-1,-1,-1,-1,-1,-1,-1,-1,-1,-1,-1,-1,-1,-1,-1,-1,-1,-1,-1,-1,-1,-1,-1,-1],"split_conditions":[1.1763479E0,-1.1117014E2,9.1070015E1,-1.8974811E2,-6.519018E1,2.9104694E1,2.000921E2,-2.5134111E2,-1.611511E2,-1.07521515E2,-3.8032154E1,2.7796906E1,8.4149445E1,1.3207828E2,3.0597565E2,-2.9514557E2,-2.1187708E2,-1.7365935E2,-1.4616685E2,-1.09452835E2,-8.982733E1,-4.7646545E1,-9.306289E0,2.0951876E1,1E0,3.3297466E1,8.7552635E1,3.81E1,1E0,2.2978325E2,3.22599E2,1.93E1,-2.665046E2,1E0,-1.967748E2,-1.7659587E2,1E0,-1.4843063E2,-1.3924287E2,4.4E0,1E0,-9.847953E1,-8.820758E1,-5.7287178E1,-4.3395756E1,-1.0536246E1,-6.4387007E0,3.6088479E0,2.2426516E1,2.106E3,1.42E1,3.0527933E1,6.098984E1,2.49E1,8.940665E1,1E0,9.444129E1,1.6486388E2,1.7898376E2,2.1532594E2,2.5331786E2,3.81E1,1E0,-5.6623537E-2,-7.934403E-2,-6.678694E-2,-7.1365684E-2,-6.244665E-2,-1.5120335E-2,-5.2926E-2,-6.034993E-2,-4.2525824E-2,-2.4391582E-2,-4.7799125E-2,-8.995617E-3,-3.774078E-2,-3.8480533E-3,-4.458646E-2,-3.8495384E-2,3.7343185E-3,-1.15676215E-2,-1.8669546E-2,1.2714398E-2,-3.3053406E-2,-2.8157452E-2,8.550798E-4,-2.5175536E-2,-1.0540719E-2,-1.658857E-2,-2.3296012E-3,-1.564139E-2,-3.2174967E-3,1.6840346E-2,-1.4100896E-2,-5.29018E-3,7.665521E-3,3.9189267E-3,1.6702695E-2,8.436192E-3,-9.206989E-3,-1.0965133E-2,-4.667042E-2,-2.485588E-2,1.7857637E-2,1.0130425E-2,2.010381E-2,1.6734768E-2,1.1684633E-2,3.2979783E-2,1.2138917E-2,2.3919404E-2,2.4221415E-2,1.0220192E-2,4.112077E-2,3.495115E-2,4.118552E-2,4.634846E-2,1.1991436E-3,-5.125205E-2,5.7517666E-2,6.7090236E-2,5.0195243E-2,6.1659068E-2,4.7089543E-2,6.565884E-2,7.28973E-2,2.203471E-2],"split_indices":[3,3,3,3,3,3,3,3,3,3,3,3,3,3,3,3,3,3,3,3,3,3,3,3,2,3,3,0,2,3,3,0,3,2,3,3,2,3,3,0,2,3,3,3,3,3,3,3,3,0,0,3,3,0,3,2,3,3,3,3,3,0,2,0,0,0,0,0,0,0,0,0,0,0,0,0,0,0,0,0,0,0,0,0,0,0,0,0,0,0,0,0,0,0,0,0,0,0,0,0,0,0,0,0,0,0,0,0,0,0,0,0,0,0,0,0,0,0,0,0,0,0,0,0,0,0,0],"split_type":[0,0,0,0,0,0,0,0,0,0,0,0,0,0,0,0,0,0,0,0,0,0,0,0,0,0,0,0,0,0,0,0,0,0,0,0,0,0,0,0,0,0,0,0,0,0,0,0,0,0,0,0,0,0,0,0,0,0,0,0,0,0,0,0,0,0,0,0,0,0,0,0,0,0,0,0,0,0,0,0,0,0,0,0,0,0,0,0,0,0,0,0,0,0,0,0,0,0,0,0,0,0,0,0,0,0,0,0,0,0,0,0,0,0,0,0,0,0,0,0,0,0,0,0,0,0,0],"sum_hessian":[2.4377652E6,1.2386415E6,1.1991238E6,5.2407684E5,7.145646E5,5.798023E5,6.1932144E5,2.1920336E5,3.048735E5,2.5745105E5,4.5711356E5,1.9882536E5,3.8097694E5,4.383312E5,1.8099028E5,8.570598E4,1.3349738E5,8.5766016E4,2.1910748E5,1.9142125E4,2.3830892E5,1.810968E5,2.7601675E5,1.893257E5,9.4996455E3,3.4290572E5,3.807121E4,2.0965094E5,2.2868025E5,1.5233156E5,2.8658717E4,3.819274E4,4.751324E4,7.6284766E4,5.721261E4,4.7647113E4,3.8118902E4,5.7046777E4,1.620607E5,9.54177E3,9.600355E3,9.53867E4,1.4292222E5,1.1442764E5,6.6669164E4,1.9874208E5,7.727468E4,1.416435E5,4.768222E4,9.379326E3,1.2031916E2,2.858028E4,3.1432547E5,1.9115252E4,1.8955957E4,6.058566E3,2.0359236E5,2.2707494E5,1.6053046E3,6.663237E4,8.5699195E4,9.534265E3,1.9124451E4,6.199947E2,3.7572746E4,2.8564785E4,1.8948451E4,7.5579555E4,7.052107E2,3.811963E4,1.909298E4,3.8060074E4,9.58704E3,3.782452E4,2.943825E2,4.7671324E4,9.375453E3,2.8795498E4,1.3326522E5,7.335353E1,9.468416E3,9.381989E3,2.1836597E2,4.765825E4,4.7728457E4,9.556295E3,1.3336592E5,4.7618305E4,6.6809336E4,2.8645887E4,3.8023277E4,1.8928238E5,9.4597E3,2.0193768E4,5.708091E4,1.7889305E4,1.2375419E5,9.514655E3,3.8167562E4,7.003689E3,2.3756377E3,2.3966995E1,9.6352165E1,9.529423E3,1.9050857E4,1.8110333E5,1.3322212E5,4.2220648E2,1.8693047E4,9.499161E3,9.456796E3,5.482632E3,5.7593414E2,1.8546582E4,1.8504578E5,1.2305382E5,1.0402112E5,1.2252219E3,3.8008267E2,3.7980184E4,2.865218E4,3.8106555E4,4.7592645E4,2.3531232E2,9.298952E3,1.907797E4,4.6481445E1],"tree_param":{"num_deleted":"0","num_feature":"4","num_nodes":"127","size_leaf_vector":"1"}},{"base_weights":[3.7680385E-3,-1.3348423E0,2.9738033E-1,-1.8483297E0,-9.147286E-1,-2.386151E-1,7.9661465E-1,-2.1336253E0,-1.3959466E0,-1.1783301E0,-3.322261E-1,-4.8639894E-1,8.2992184E-1,5.954592E-1,1.3820176E0,-2.2911096E0,-1.9319211E0,-1.6402506E0,-6.538654E-1,-1.9646987E0,-1.0500877E0,-1.3848988E0,-6.3562915E-2,-8.6459744E-1,-2.2675312E-1,1.2693163E0,4.5202643E-1,3.0091935E-1,8.8362485E-1,1.1793845E0,1.5624561E0,-2.363764E0,-2.1584246E0,-2.1812556E0,-1.656451E0,-1.957533E0,-1.4507523E0,-9.052199E-1,-1.3170612E-1,-2.2462113E0,-1.7145035E0,-1.2803571E0,-7.488034E-1,-2.1569169E0,-1.0336268E0,-2.2118501E-1,4.340701E-1,-1.1868991E0,-6.826171E-1,-4.4877505E-1,-9.51838E-2,9.1323894E-1,1.527205E0,1.9728942E-1,9.431318E-1,2.5715706E-1,6.6993374E-1,7.7407E-1,1.1424036E0,1.4963448E0,1.0836213E0,1.6236837E0,1.441099E0,-1.1936082E-1,-1.15366116E-1,-1.1807628E-1,-9.989802E-2,-1.1056588E-1,-7.732989E-2,-8.822536E-2,-4.8805624E-2,-1.07151546E-1,-9.137927E-2,-7.974565E-2,-5.41339E-2,-5.8146328E-2,-3.498632E-2,-1.5172385E-2,8.418869E-3,-1.1713604E-1,-1.0446601E-1,-9.669515E-2,-6.747217E-2,-7.37459E-2,-5.7395708E-2,-4.947941E-2,-2.8859232E-2,-1.1657534E-1,-9.1068104E-2,-6.482207E-2,-3.1673905E-2,-2.1148229E-2,2.7965202E-3,3.3919022E-3,3.0794045E-2,-6.274318E-2,-3.3923626E-2,-3.624734E-2,-1.6239539E-2,-2.5164474E-2,-4.5401734E-4,-6.8159E-3,1.1206198E-2,6.90609E-2,3.0442482E-2,8.1876494E-2,6.775034E-2,-6.89146E-3,1.8644443E-2,3.852216E-2,6.315334E-2,-7.4056895E-3,1.4655818E-2,7.1486525E-2,2.999883E-2,1.6876826E-2,4.0242147E-2,5.5096634E-2,6.8155184E-2,8.074844E-2,6.92351E-2,4.6552565E-2,6.172314E-2,7.850276E-2,8.29524E-2,6.767745E-2,7.847356E-2],"categories":[],"categories_nodes":[],"categories_segments":[],"categories_sizes":[],"default_left":[0,0,0,0,0,0,0,0,0,0,0,0,0,0,0,0,0,0,0,0,0,0,0,0,0,0,0,0,0,0,0,0,0,0,0,0,0,0,0,0,0,0,0,0,0,0,0,0,0,0,0,0,0,0,0,0,0,0,0,0,0,0,0,0,0,0,0,0,0,0,0,0,0,0,0,0,0,0,0,0,0,0,0,0,0,0,0,0,0,0,0,0,0,0,0,0,0,0,0,0,0,0,0,0,0,0,0,0,0,0,0,0,0,0,0,0,0,0,0,0,0,0,0,0,0,0,0],"id":1,"left_children":[1,3,5,7,9,11,13,15,17,19,21,23,25,27,29,31,33,35,37,39,41,43,45,47,49,51,53,55,57,59,61,63,65,67,69,71,73,75,77,79,81,83,85,87,89,91,93,95,97,99,101,103,105,107,109,111,113,115,117,119,121,123,125,-1,-1,-1,-1,-1,-1,-1,-1,-1,-1,-1,-1,-1,-1,-1,-1,-1,-1,-1,-1,-1,-1,-1,-1,-1,-1,-1,-1,-1,-1,-1,-1,-1,-1,-1,-1,-1,-1,-1,-1,-1,-1,-1,-1,-1,-1,-1,-1,-1,-1,-1,-1,-1,-1,-1,-1,-1,-1,-1,-1,-1,-1,-1,-1],"loss_changes":[9.5778206E5,9.4563125E4,5.347845E5,2.5455812E4,3.7020812E4,2.5517862E5,1.21848875E5,3.838125E3,1.3830234E4,1.6737188E4,2.1244035E4,7.682622E4,3.0123906E4,6.536522E4,9.6736875E3,6.496875E2,3.6396719E3,3.4480469E3,2.4801143E3,1.6353359E3,9.90025E3,4.1396914E3,4.694185E3,1.8678562E4,1.3550799E4,7.7016406E3,1.2202217E4,6.1501875E3,1.103525E4,3.7819688E3,1.03775E3,5.2578125E1,7.789297E2,5.277344E2,1.8512344E3,5.1335156E2,1.9052109E3,6.747334E2,3.1658618E2,1.608789E2,9.846328E2,2.0826719E3,2.554332E3,2.7551367E2,1.1033008E3,2.541394E3,9.5851514E2,3.9704219E3,3.0828594E3,4.137426E3,3.8258503E3,5.0186523E3,9.220078E2,3.7795698E3,1.8395684E3,4.9619023E3,2.1453164E3,3.6737188E3,1.0326562E3,3.8076562E2,2.2020547E3,1.7384375E2,5.2553125E2,0E0,0E0,0E0,0E0,0E0,0E0,0E0,0E0,0E0,0E0,0E0,0E0,0E0,0E0,0E0,0E0,0E0,0E0,0E0,0E0,0E0,0E0,0E0,0E0,0E0,0E0,0E0,0E0,0E0,0E0,0E0,0E0,0E0,0E0,0E0,0E0,0E0,0E0,0E0,0E0,0E0,0E0,0E0,0E0,0E0,0E0,0E0,0E0,0E0,0E0,0E0,0E0,0E0,0E0,0E0,0E0,0E0,0E0,0E0,0E0,0E0,0E0,0E0,0E0],"parents":[2147483647,0,0,1,1,2,2,3,3,4,4,5,5,6,6,7,7,8,8,9,9,10,10,11,11,12,12,13,13,14,14,15,15,16,16,17,17,18,18,19,19,20,20,21,21,22,22,23,23,24,24,25,25,26,26,27,27,28,28,29,29,30,30,31,31,32,32,33,33,34,34,35,35,36,36,37,37,38,38,39,39,40,40,41,41,42,42,43,43,44,44,45,45,46,46,47,47,48,48,49,49,50,50,51,51,52,52,53,53,54,54,55,55,56,56,57,57,58,58,59,59,60,60,61,61,62,62],"right_children":[2,4,6,8,10,12,14,16,18,20,22,24,26,28,30,32,34,36,38,40,42,44,46,48,50,52,54,56,58,60,62,64,66,68,70,72,74,76,78,80,82,84,86,88,90,92,94,96,98,100,102,104,106,108,110,112,114,116,118,120,122,124,126,-1,-1,-1,-1,-1,-1,-1,-1,-1,-1,-1,-1,-1,-1,-1,-1,-1,-1,-1,-1,-1,-1,-1,-1,-1,-1,-1,-1,-1,-1,-1,-1,-1,-1,-1,-1,-1,-1,-1,-1,-1,-1,-1,-1,-1,-1,-1,-1,-1,-1,-1,-1,-1,-1,-1,-1,-1,-1,-1,-1,-1,-1,-1,-1],"split_conditions":[-2E0,-8E0,1.1763479E0,1.338E3,3.4633076E1,5E0,6E0,7.203E2,3.3297466E1,3.77E2,6.93E2,-1.1501768E2,1.114E3,9.299602E1,1.2E1,-1.2E1,-1.3E1,-1.3E1,1.3438663E2,1.12E2,-6.690118E1,1.45E2,1.6486388E2,-2.0375734E2,-6.519018E1,1E1,1.1E1,3E0,2.000921E2,6.28E2,1.261E3,-1.5E1,2.99E2,1.3207828E2,9.299602E1,-1.7E1,-4.0763042E1,1.793E3,1.9600797E2,-4E0,-4E0,-1.611511E2,-5E0,6.3E1,-4E0,2.033E3,1.607E3,1E0,2E0,2E0,2E0,4E2,6.79E2,-1.1501768E2,1.6E1,0E0,1.77E2,0E0,3.0597565E2,2.65E2,9.945046E1,1.7E1,1.7E1,-1.1936082E-1,-1.15366116E-1,-1.1807628E-1,-9.989802E-2,-1.1056588E-1,-7.732989E-2,-8.822536E-2,-4.8805624E-2,-1.07151546E-1,-9.137927E-2,-7.974565E-2,-5.41339E-2,-5.8146328E-2,-3.498632E-2,-1.5172385E-2,8.418869E-3,-1.1713604E-1,-1.0446601E-1,-9.669515E-2,-6.747217E-2,-7.37459E-2,-5.7395708E-2,-4.947941E-2,-2.8859232E-2,-1.1657534E-1,-9.1068104E-2,-6.482207E-2,-3.1673905E-2,-2.1148229E-2,2.7965202E-3,3.3919022E-3,3.0794045E-2,-6.274318E-2,-3.3923626E-2,-3.624734E-2,-1.6239539E-2,-2.5164474E-2,-4.5401734E-4,-6.8159E-3,1.1206198E-2,6.90609E-2,3.0442482E-2,8.1876494E-2,6.775034E-2,-6.89146E-3,1.8644443E-2,3.852216E-2,6.315334E-2,-7.4056895E-3,1.4655818E-2,7.1486525E-2,2.999883E-2,1.6876826E-2,4.0242147E-2,5.5096634E-2,6.8155184E-2,8.074844E-2,6.92351E-2,4.6552565E-2,6.172314E-2,7.850276E-2,8.29524E-2,6.767745E-2,7.847356E-2],"split_indices":[1,1,3,0,3,1,1,0,3,0,0,3,0,3,1,1,1,1,3,0,3,0,3,3,3,1,1,1,3,0,0,1,0,3,3,1,3,0,3,1,1,3,1,0,1,0,0,1,1,1,1,0,0,3,1,1,0,1,3,0,3,1,1,0,0,0,0,0,0,0,0,0,0,0,0,0,0,0,0,0,0,0,0,0,0,0,0,0,0,0,0,0,0,0,0,0,0,0,0,0,0,0,0,0,0,0,0,0,0,0,0,0,0,0,0,0,0,0,0,0,0,0,0,0,0,0,0],"split_type":[0,0,0,0,0,0,0,0,0,0,0,0,0,0,0,0,0,0,0,0,0,0,0,0,0,0,0,0,0,0,0,0,0,0,0,0,0,0,0,0,0,0,0,0,0,0,0,0,0,0,0,0,0,0,0,0,0,0,0,0,0,0,0,0,0,0,0,0,0,0,0,0,0,0,0,0,0,0,0,0,0,0,0,0,0,0,0,0,0,0,0,0,0,0,0,0,0,0,0,0,0,0,0,0,0,0,0,0,0,0,0,0,0,0,0,0,0,0,0,0,0,0,0,0,0,0,0],"sum_hessian":[2.4369012E6,4.3836122E5,1.9985401E6,1.9725784E5,2.4110339E5,9.637862E5,1.03475394E6,1.2096652E5,7.629132E4,1.6598755E5,7.5115836E4,7.823638E5,1.8142239E5,7.701261E5,2.6462778E5,6.792357E4,5.3042953E4,5.739488E4,1.8896438E4,2.3271984E4,1.4271556E5,1.52722295E4,5.984361E4,3.1847406E5,4.6388972E5,8.388431E4,9.753807E4,3.8085184E5,3.8927428E5,1.24651375E5,1.3997642E5,4.387959E4,2.404398E4,2.7838645E4,2.5204309E4,2.145793E4,3.593695E4,1.2755516E4,6.1409224E3,1.0946881E4,1.2325104E4,8.0889234E4,6.1826324E4,4.77428E3,1.049795E4,4.544861E4,1.4395002E4,1.1492581E5,2.0354827E5,1.7260986E5,2.9127988E5,3.5236457E4,4.8647855E4,6.4225582E4,3.3312492E4,3.4047572E5,4.0376152E4,2.7349378E5,1.157805E5,2.8919145E4,9.5732234E4,9.3028766E4,4.6947652E4,3.0969875E4,1.2909714E4,1.0606067E4,1.3437912E4,2.6577266E4,1.2613796E3,2.1748475E4,3.4558337E3,8.833203E3,1.2624727E4,2.5820648E4,1.0116302E4,5.656773E3,7.0987427E3,3.9056555E3,2.235267E3,6.7690522E3,4.1778286E3,7.6957188E3,4.629385E3,3.275764E4,4.8131598E4,2.5726594E4,3.609973E4,3.1364353E3,1.6378442E3,6.3349585E3,4.1629917E3,2.6298803E4,1.9149807E4,4.7759336E3,9.619068E3,1.01373195E5,1.3552616E4,1.8201542E5,2.1532836E4,1.5356975E5,1.9040105E4,2.5803905E5,3.3240812E4,1.3885247E4,2.1351213E4,2.9645752E4,1.9002104E4,2.2082662E4,4.214292E4,2.1637049E4,1.1675441E4,2.7747785E4,3.127279E5,3.4025032E3,3.697365E4,1.801082E4,2.5548295E5,9.784429E4,1.7936219E4,1.4014671E4,1.4904474E4,4.7596977E4,4.8135258E4,3.698606E4,5.6042707E4,2.7918643E4,1.9029008E4],"tree_param":{"num_deleted":"0","num_feature":"4","num_nodes":"127","size_leaf_vector":"1"}},{"base_weights":[3.7357772E-3,-5.1984143E-1,5.555403E-1,-8.8747257E-1,-2.476696E-1,2.569085E-1,8.3848083E-1,-1.1519305E0,-6.9618237E-1,-4.1928264E-1,-1.0472223E-1,8.600405E-2,3.4647378E-1,7.218075E-1,1.1234344E0,-1.3048539E0,-1.0534261E0,-7.5812554E-1,-6.680242E-1,-4.6029142E-1,-2.8533515E-1,-2.0099935E-1,-6.47676E-2,1.0026214E-1,-1.9735624E-1,3.3335695E-1,4.6484584E-1,6.390315E-1,7.915312E-1,1.0956423E0,1.359948E0,-1.4095858E0,-1.2208288E0,-1.0998664E0,-9.9118334E-1,-6.927839E-1,-8.2348835E-1,-5.3520995E-1,-7.0694E-1,-2.5815398E-1,-4.7713307E-1,-2.1405303E-1,-4.9971402E-1,-1.5790169E-1,-2.8726828E-1,-3.6721334E-2,-1.3683447E-1,7.282492E-2,1.8184285E-1,-1.9345333E-1,-4.9216476E-1,2.3010366E-1,3.4279627E-1,6.064984E-1,3.2216117E-1,6.552943E-1,4.8431313E-1,7.997019E-1,-3.035537E-1,1.0636164E0,1.1545459E0,1.3621793E0,4.1190732E-1,-4.857556E-2,-7.084047E-2,-5.9434798E-2,-6.345873E-2,-5.3488847E-2,-6.5548494E-2,-4.7210295E-2,-5.4250654E-2,-3.7986994E-2,-2.127264E-2,-4.151632E-2,-3.2724492E-4,-3.2838408E-2,-1.8650409E-3,-3.9789815E-2,-3.438691E-2,-1.0026965E-2,-1.5769174E-2,-2.7561361E-2,-2.12065E-2,-1.36155775E-2,4.0187812E-3,-2.161524E-2,-2.8331095E-2,-1.0260588E-2,8.786806E-3,-2.784345E-2,-9.8783765E-3,-2.7174114E-3,1.5867505E-2,-1.2840501E-2,-4.712581E-3,6.9605163E-3,3.162507E-3,1.5804818E-2,7.4181603E-3,-9.079117E-3,-1.1376736E-2,-4.117571E-2,-2.0216573E-2,1.6139511E-2,9.2005795E-3,1.8564966E-2,1.5204814E-2,1.0259478E-2,3.077814E-2,1.0555486E-2,2.1713287E-2,3.2266196E-2,4.1784E-2,2.1889623E-2,2.6547655E-2,3.7859917E-2,4.2695954E-2,-5.3850655E-3,-4.897693E-2,5.7212997E-2,4.614437E-2,3.8531166E-2,5.8005996E-2,6.587664E-2,7.028695E-2,7.808339E-2,-3.238414E-2],"categories":[],"categories_nodes":[],"categories_segments":[],"categories_sizes":[],"default_left":[0,0,0,0,0,0,0,0,0,0,0,0,0,0,0,0,0,0,0,0,0,0,0,0,0,0,0,0,0,0,0,0,0,0,0,0,0,0,0,0,0,0,0,0,0,0,0,0,0,0,0,0,0,0,0,0,0,0,0,0,0,0,0,0,0,0,0,0,0,0,0,0,0,0,0,0,0,0,0,0,0,0,0,0,0,0,0,0,0,0,0,0,0,0,0,0,0,0,0,0,0,0,0,0,0,0,0,0,0,0,0,0,0,0,0,0,0,0,0,0,0,0,0,0,0,0,0],"id":2,"left_children":[1,3,5,7,9,11,13,15,17,19,21,23,25,27,29,31,33,35,37,39,41,43,45,47,49,51,53,55,57,59,61,63,65,67,69,71,73,75,77,79,81,83,85,87,89,91,93,95,97,99,101,103,105,107,109,111,113,115,117,119,121,123,125,-1,-1,-1,-1,-1,-1,-1,-1,-1,-1,-1,-1,-1,-1,-1,-1,-1,-1,-1,-1,-1,-1,-1,-1,-1,-1,-1,-1,-1,-1,-1,-1,-1,-1,-1,-1,-1,-1,-1,-1,-1,-1,-1,-1,-1,-1,-1,-1,-1,-1,-1,-1,-1,-1,-1,-1,-1,-1,-1,-1,-1,-1,-1,-1],"loss_changes":[7.033763E5,1.24996875E5,1.0015441E5,2.6883E4,1.7609078E4,8.827215E3,2.0234844E4,3.3585625E3,5.3734375E2,1.7916875E3,1.5064175E3,8.0117773E2,5.8734766E2,2.4918438E3,1.16075E3,7.672656E2,3.9107812E2,4.109961E2,1.0954141E3,8.500664E2,1.1683369E3,4.269795E2,5.593876E2,4.2258337E2,1.0835907E1,3.3191797E2,7.626577E2,4.964922E2,2.0975625E3,2.9723438E2,3.876172E1,1.2169531E2,7.382031E1,4.9207812E2,2.5455469E2,8.623594E2,2.6907617E2,2.9080605E3,2.7920312E2,6.327539E1,9.0510547E2,9.843247E2,8.5805176E1,1.2090173E3,9.2518604E2,1.2434437E3,3.9608508E2,8.97948E1,2.1352356E2,3.7527466E0,3.2607727E0,1.21847046E2,3.4415625E2,6.876611E1,2.340216E2,3.2078906E2,4.0523926E1,5.355E2,2.2981847E2,1.1623359E3,1.1834375E2,3.420703E1,5.59313E1,0E0,0E0,0E0,0E0,0E0,0E0,0E0,0E0,0E0,0E0,0E0,0E0,0E0,0E0,0E0,0E0,0E0,0E0,0E0,0E0,0E0,0E0,0E0,0E0,0E0,0E0,0E0,0E0,0E0,0E0,0E0,0E0,0E0,0E0,0E0,0E0,0E0,0E0,0E0,0E0,0E0,0E0,0E0,0E0,0E0,0E0,0E0,0E0,0E0,0E0,0E0,0E0,0E0,0E0,0E0,0E0,0E0,0E0,0E0,0E0,0E0,0E0,0E0,0E0],"parents":[2147483647,0,0,1,1,2,2,3,3,4,4,5,5,6,6,7,7,8,8,9,9,10,10,11,11,12,12,13,13,14,14,15,15,16,16,17,17,18,18,19,19,20,20,21,21,22,22,23,23,24,24,25,25,26,26,27,27,28,28,29,29,30,30,31,31,32,32,33,33,34,34,35,35,36,36,37,37,38,38,39,39,40,40,41,41,42,42,43,43,44,44,45,45,46,46,47,47,48,48,49,49,50,50,51,51,52,52,53,53,54,54,55,55,56,56,57,57,58,58,59,59,60,60,61,61,62,62],"right_children":[2,4,6,8,10,12,14,16,18,20,22,24,26,28,30,32,34,36,38,40,42,44,46,48,50,52,54,56,58,60,62,64,66,68,70,72,74,76,78,80,82,84,86,88,90,92,94,96,98,100,102,104,106,108,110,112,114,116,118,120,122,124,126,-1,-1,-1,-1,-1,-1,-1,-1,-1,-1,-1,-1,-1,-1,-1,-1,-1,-1,-1,-1,-1,-1,-1,-1,-1,-1,-1,-1,-1,-1,-1,-1,-1,-1,-1,-1,-1,-1,-1,-1,-1,-1,-1,-1,-1,-1,-1,-1,-1,-1,-1,-1,-1,-1,-1,-1,-1,-1,-1,-1,-1,-1,-1,-1],"split_conditions":[1.1763479E0,-1.1117014E2,9.1070015E1,-1.8974811E2,-5.4741325E1,2.9104694E1,2.000921E2,-2.5134111E2,-1.58712E2,-6.690118E1,-3.8032154E1,2.7796906E1,8.4149445E1,1.301863E2,3.22599E2,-2.9514557E2,-2.1187708E2,-1.7365935E2,-1.4616685E2,-1.07521515E2,-5.7287178E1,-4.3395756E1,-9.306289E0,2.0951876E1,1E0,3.3297466E1,8.7552635E1,1.2585878E2,1E0,2.5331786E2,1E0,1.93E1,-2.665046E2,-2.1571916E2,-1.967748E2,-1.7659587E2,1E0,-1.4843063E2,-1.3924287E2,-1.09452835E2,-8.982733E1,-5.8781868E1,-5.59312E1,-4.484352E1,-4.2077084E1,-1.0536246E1,-6.4387007E0,3.6088479E0,2.2426516E1,2.093E3,1.42E1,3.0527933E1,6.098984E1,2.49E1,8.940665E1,1.2410167E2,1.2794832E2,1.6486388E2,1.7898376E2,2.2978325E2,1.93E1,3.5013452E2,3.5013452E2,-4.857556E-2,-7.084047E-2,-5.9434798E-2,-6.345873E-2,-5.3488847E-2,-6.5548494E-2,-4.7210295E-2,-5.4250654E-2,-3.7986994E-2,-2.127264E-2,-4.151632E-2,-3.2724492E-4,-3.2838408E-2,-1.8650409E-3,-3.9789815E-2,-3.438691E-2,-1.0026965E-2,-1.5769174E-2,-2.7561361E-2,-2.12065E-2,-1.36155775E-2,4.0187812E-3,-2.161524E-2,-2.8331095E-2,-1.0260588E-2,8.786806E-3,-2.784345E-2,-9.8783765E-3,-2.7174114E-3,1.5867505E-2,-1.2840501E-2,-4.712581E-3,6.9605163E-3,3.162507E-3,1.5804818E-2,7.4181603E-3,-9.079117E-3,-1.1376736E-2,-4.117571E-2,-2.0216573E-2,1.6139511E-2,9.2005795E-3,1.8564966E-2,1.5204814E-2,1.0259478E-2,3.077814E-2,1.0555486E-2,2.1713287E-2,3.2266196E-2,4.1784E-2,2.1889623E-2,2.6547655E-2,3.7859917E-2,4.2695954E-2,-5.3850655E-3,-4.897693E-2,5.7212997E-2,4.614437E-2,3.8531166E-2,5.8005996E-2,6.587664E-2,7.028695E-2,7.808339E-2,-3.238414E-2],"split_indices":[3,3,3,3,3,3,3,3,3,3,3,3,3,3,3,3,3,3,3,3,3,3,3,3,2,3,3,3,2,3,2,0,3,3,3,3,2,3,3,3,3,3,3,3,3,3,3,3,3,0,0,3,3,0,3,3,3,3,3,3,0,3,3,0,0,0,0,0,0,0,0,0,0,0,0,0,0,0,0,0,0,0,0,0,0,0,0,0,0,0,0,0,0,0,0,0,0,0,0,0,0,0,0,0,0,0,0,0,0,0,0,0,0,0,0,0,0,0,0,0,0,0,0,0,0,0,0],"split_type":[0,0,0,0,0,0,0,0,0,0,0,0,0,0,0,0,0,0,0,0,0,0,0,0,0,0,0,0,0,0,0,0,0,0,0,0,0,0,0,0,0,0,0,0,0,0,0,0,0,0,0,0,0,0,0,0,0,0,0,0,0,0,0,0,0,0,0,0,0,0,0,0,0,0,0,0,0,0,0,0,0,0,0,0,0,0,0,0,0,0,0,0,0,0,0,0,0,0,0,0,0,0,0,0,0,0,0,0,0,0,0,0,0,0,0,0,0,0,0,0,0,0,0,0,0,0,0],"sum_hessian":[2.434565E6,1.2492345E6,1.1853304E6,5.3142275E5,7.1781175E5,5.766755E5,6.086549E5,2.2305084E5,3.083719E5,3.2619816E5,3.9161356E5,1.9829666E5,3.7837884E5,4.3184206E5,1.7681281E5,8.7381984E4,1.3566886E5,9.636329E4,2.1200862E5,2.4973725E5,7.646091E4,1.1485292E5,2.7676066E5,1.887974E5,9.499245E3,3.4063666E5,3.77422E4,1.9744522E5,2.3439686E5,1.5822575E5,1.8587066E4,3.8891043E4,4.8490938E4,7.7688125E4,5.798074E4,4.8195234E4,4.816805E4,4.8046715E4,1.639619E5,1.9208496E4,2.3052877E5,5.7382812E4,1.9078092E4,7.65923E4,3.8260633E4,1.9922844E5,7.753221E4,1.41283E5,4.7514414E4,9.376764E3,1.2248137E2,2.8534402E4,3.1210225E5,1.8937963E4,1.8804236E4,1.786624E5,1.8782805E4,2.3266119E5,1.7356744E3,1.0251005E5,5.5715707E4,1.8542986E4,4.408001E1,6.3308527E2,3.8257957E4,2.9145285E4,1.9345654E4,6.800164E4,9.686486E3,3.864401E4,1.9336729E4,3.8540508E4,9.654727E3,4.7768207E4,3.9984692E2,3.8618242E4,9.428473E3,2.9128742E4,1.3483317E5,9.574285E3,9.634211E3,9.613296E4,1.343958E5,4.7904117E4,9.478696E3,9.507157E3,9.570936E3,6.70806E4,9.511689E3,9.55059E3,2.8710041E4,1.8978131E5,9.447119E3,2.0308572E4,5.722364E4,1.7807004E4,1.23476E5,9.482223E3,3.803219E4,6.959138E3,2.4176255E3,2.3909058E1,9.85723E1,9.475038E3,1.9059363E4,1.7972436E5,1.3237789E5,4.1882614E2,1.8519137E4,9.447937E3,9.356299E3,1.6930883E5,9.353574E3,9.408631E3,9.374173E3,1.3042754E5,1.0223364E5,1.3466658E3,3.8900873E2,6.5162258E4,3.7347785E4,7.9932227E2,5.4916387E4,9.172687E3,9.3703E3,2.0913233E1,2.3166775E1],"tree_param":{"num_deleted":"0","num_feature":"4","num_nodes":"127","size_leaf_vector":"1"}},{"base_weights":[3.4568908E-3,-1.2450725E0,2.8165042E-1,-1.7163535E0,-8.5650694E-1,4.9516156E-2,1.1558034E0,-1.9723773E0,-1.2914058E0,-1.702564E0,-6.9916683E-1,-5.760398E-3,3.9202854E-1,8.967164E-1,1.4316341E0,-2.1276412E0,-1.7941872E0,-1.6875817E0,-1.1393701E0,-2.0575528E0,-1.4205127E0,-9.221939E-1,-5.383085E-1,-3.3088726E-1,2.4354834E-2,1.2325358E0,3.2135624E-1,1.3300029E0,7.358849E-1,1.5403407E0,1.2271115E0,-2.1873057E0,-2.017798E0,-1.9858764E0,-1.5010602E0,-1.946179E0,-1.5790193E0,-1.2968214E0,-1.0108862E0,-2.1724427E0,-1.8822625E0,-1.7269828E0,-1.1707425E0,-1.1699426E0,-7.413349E-1,-7.8072435E-1,-4.6005797E-1,-1.4184275E0,-2.757137E-1,2.6743619E-2,-2.083018E-1,1.4729584E0,9.725649E-1,2.1086365E-1,4.506076E-1,1.5438632E0,1.1724547E0,6.170636E-1,9.0236944E-1,1.5943676E0,1.4551822E0,1.0849708E0,1.3914392E0,-1.1082637E-1,-1.0748737E-1,-1.0944034E-1,-9.3613066E-2,-1.059005E-1,-9.318303E-2,-8.058843E-2,-7.041186E-2,-1.02145456E-1,-8.928048E-2,-8.561184E-2,-7.312713E-2,-6.911612E-2,-5.897498E-2,-5.8004934E-2,-4.677775E-2,-1.1101859E-1,-1.0227205E-1,-1.0367503E-1,-7.9065114E-2,-9.170925E-2,-7.672363E-2,-6.486991E-2,-4.6780895E-2,-6.833689E-2,-5.4776993E-2,-4.114748E-2,-3.0005796E-2,-4.767272E-2,-3.5054035E-2,-2.9371206E-2,-2.0357324E-2,-9.346703E-2,-5.2977312E-2,-2.8876329E-2,-1.086679E-2,-2.1983935E-3,1.4330852E-3,-1.2105937E-2,1.2638609E-2,6.740674E-2,8.034526E-2,3.0398235E-2,5.5072952E-2,2.0776277E-2,9.567685E-3,4.1958503E-2,2.0712268E-2,7.95934E-2,7.073495E-2,4.7782443E-2,6.4660706E-2,3.541417E-2,2.6649624E-2,5.14548E-2,3.9309707E-2,8.0827E-2,7.800619E-2,6.768109E-2,7.8326724E-2,5.954631E-2,5.141073E-2,6.489726E-2,7.5790145E-2],"categories":[],"categories_nodes":[],"categories_segments":[],"categories_sizes":[],"default_left":[0,0,0,0,0,0,0,0,0,0,0,0,0,0,0,0,0,0,0,0,0,0,0,0,0,0,0,0,0,0,0,0,0,0,0,0,0,0,0,0,0,0,0,0,0,0,0,0,0,0,0,0,0,0,0,0,0,0,0,0,0,0,0,0,0,0,0,0,0,0,0,0,0,0,0,0,0,0,0,0,0,0,0,0,0,0,0,0,0,0,0,0,0,0,0,0,0,0,0,0,0,0,0,0,0,0,0,0,0,0,0,0,0,0,0,0,0,0,0,0,0,0,0,0,0,0,0],"id":3,"left_children":[1,3,5,7,9,11,13,15,17,19,21,23,25,27,29,31,33,35,37,39,41,43,45,47,49,51,53,55,57,59,61,63,65,67,69,71,73,75,77,79,81,83,85,87,89,91,93,95,97,99,101,103,105,107,109,111,113,115,117,119,121,123,125,-1,-1,-1,-1,-1,-1,-1,-1,-1,-1,-1,-1,-1,-1,-1,-1,-1,-1,-1,-1,-1,-1,-1,-1,-1,-1,-1,-1,-1,-1,-1,-1,-1,-1,-1,-1,-1,-1,-1,-1,-1,-1,-1,-1,-1,-1,-1,-1,-1,-1,-1,-1,-1,-1,-1,-1,-1,-1,-1,-1,-1,-1,-1,-1],"loss_changes":[8.439895E5,8.108006E4,4.0323344E5,2.1766312E4,3.2304531E4,2.9728086E4,2.9796812E4,3.4505312E3,4.529367E3,3.8072266E3,7.3408047E3,1.323771E4,1.2960309E4,1.4982359E4,4.4882188E3,4.32875E2,3.2640625E3,5.8258984E2,1.0985703E3,3.351797E2,1.6214414E3,3.8411328E3,2.254836E3,6.8768135E3,6.876989E2,1.0562969E3,2.8743008E3,1.9592656E3,3.1014219E3,6.0434375E2,1.6357266E3,4.2671875E1,5.806797E2,5.637031E2,2.3401562E2,9.208984E1,2.255664E2,2.4340234E2,3.3548438E2,5.736328E1,3.810371E2,1.9368164E2,3.4686426E2,5.282539E2,5.707754E2,3.9841797E2,6.0546484E2,8.934961E2,1.921792E3,1.6612201E2,1.9614246E2,1.4480273E2,3.815786E2,4.3319775E2,1.3102559E3,1.508164E2,8.763242E2,7.013789E2,9.606289E2,5.871875E1,5.7684375E2,2.248164E2,3.7598828E2,0E0,0E0,0E0,0E0,0E0,0E0,0E0,0E0,0E0,0E0,0E0,0E0,0E0,0E0,0E0,0E0,0E0,0E0,0E0,0E0,0E0,0E0,0E0,0E0,0E0,0E0,0E0,0E0,0E0,0E0,0E0,0E0,0E0,0E0,0E0,0E0,0E0,0E0,0E0,0E0,0E0,0E0,0E0,0E0,0E0,0E0,0E0,0E0,0E0,0E0,0E0,0E0,0E0,0E0,0E0,0E0,0E0,0E0,0E0,0E0,0E0,0E0,0E0,0E0],"parents":[2147483647,0,0,1,1,2,2,3,3,4,4,5,5,6,6,7,7,8,8,9,9,10,10,11,11,12,12,13,13,14,14,15,15,16,16,17,17,18,18,19,19,20,20,21,21,22,22,23,23,24,24,25,25,26,26,27,27,28,28,29,29,30,30,31,31,32,32,33,33,34,34,35,35,36,36,37,37,38,38,39,39,40,40,41,41,42,42,43,43,44,44,45,45,46,46,47,47,48,48,49,49,50,50,51,51,52,52,53,53,54,54,55,55,56,56,57,57,58,58,59,59,60,60,61,61,62,62],"right_children":[2,4,6,8,10,12,14,16,18,20,22,24,26,28,30,32,34,36,38,40,42,44,46,48,50,52,54,56,58,60,62,64,66,68,70,72,74,76,78,80,82,84,86,88,90,92,94,96,98,100,102,104,106,108,110,112,114,116,118,120,122,124,126,-1,-1,-1,-1,-1,-1,-1,-1,-1,-1,-1,-1,-1,-1,-1,-1,-1,-1,-1,-1,-1,-1,-1,-1,-1,-1,-1,-1,-1,-1,-1,-1,-1,-1,-1,-1,-1,-1,-1,-1,-1,-1,-1,-1,-1,-1,-1,-1,-1,-1,-1,-1,-1,-1,-1,-1,-1,-1,-1,-1,-1,-1,-1,-1],"split_conditions":[-2E0,-8E0,6E0,1.366E3,4.57E2,2E0,1.2E1,7.2E2,-1.4E1,1.34E2,-5E0,0E0,1.77E2,7.398E2,1.248E3,-1.2E1,-1.2E1,-1.9E1,1.846E3,-4E0,-5E0,1.517E3,1.2E3,1.02E2,1E0,4.59E1,4E0,2.76E2,9E0,7.203E2,1.6E1,3.77E2,2.99E2,-1.7E1,-1E1,1.752E3,1.739E3,-1E1,-1.1E1,7.2E1,4.59E1,-6E0,-3E0,7.604E2,2.28E3,-4E0,-4E0,1.93E1,7.398E2,3.81E1,1E0,4E0,3E0,5.14E2,4.8E2,1.77E2,8E0,1.772E3,1.618E3,4.22E2,1.8E1,1.618E3,2E1,-1.1082637E-1,-1.0748737E-1,-1.0944034E-1,-9.3613066E-2,-1.059005E-1,-9.318303E-2,-8.058843E-2,-7.041186E-2,-1.02145456E-1,-8.928048E-2,-8.561184E-2,-7.312713E-2,-6.911612E-2,-5.897498E-2,-5.8004934E-2,-4.677775E-2,-1.1101859E-1,-1.0227205E-1,-1.0367503E-1,-7.9065114E-2,-9.170925E-2,-7.672363E-2,-6.486991E-2,-4.6780895E-2,-6.833689E-2,-5.4776993E-2,-4.114748E-2,-3.0005796E-2,-4.767272E-2,-3.5054035E-2,-2.9371206E-2,-2.0357324E-2,-9.346703E-2,-5.2977312E-2,-2.8876329E-2,-1.086679E-2,-2.1983935E-3,1.4330852E-3,-1.2105937E-2,1.2638609E-2,6.740674E-2,8.034526E-2,3.0398235E-2,5.5072952E-2,2.0776277E-2,9.567685E-3,4.1958503E-2,2.0712268E-2,7.95934E-2,7.073495E-2,4.7782443E-2,6.4660706E-2,3.541417E-2,2.6649624E-2,5.14548E-2,3.9309707E-2,8.0827E-2,7.800619E-2,6.768109E-2,7.8326724E-2,5.954631E-2,5.141073E-2,6.489726E-2,7.5790145E-2],"split_indices":[1,1,1,0,0,1,1,0,1,0,1,1,0,0,0,1,1,1,0,1,1,0,0,0,2,0,1,0,1,0,1,0,0,1,1,0,0,1,1,0,0,1,1,0,0,1,1,0,0,0,1,1,1,0,0,0,1,0,0,0,1,0,1,0,0,0,0,0,0,0,0,0,0,0,0,0,0,0,0,0,0,0,0,0,0,0,0,0,0,0,0,0,0,0,0,0,0,0,0,0,0,0,0,0,0,0,0,0,0,0,0,0,0,0,0,0,0,0,0,0,0,0,0,0,0,0,0],"split_type":[0,0,0,0,0,0,0,0,0,0,0,0,0,0,0,0,0,0,0,0,0,0,0,0,0,0,0,0,0,0,0,0,0,0,0,0,0,0,0,0,0,0,0,0,0,0,0,0,0,0,0,0,0,0,0,0,0,0,0,0,0,0,0,0,0,0,0,0,0,0,0,0,0,0,0,0,0,0,0,0,0,0,0,0,0,0,0,0,0,0,0,0,0,0,0,0,0,0,0,0,0,0,0,0,0,0,0,0,0,0,0,0,0,0,0,0,0,0,0,0,0,0,0,0,0,0,0],"sum_hessian":[2.429914E6,4.427689E5,1.9871451E6,2.0008616E5,2.4268277E5,1.5701798E6,4.1696544E5,1.248578E5,7.522836E4,3.8052914E4,2.0462986E5,1.3519891E6,2.1819055E5,2.1501072E5,2.0195473E5,6.6715305E4,5.8142492E4,2.0860314E4,5.4368043E4,1.6845246E4,2.1207668E4,8.5743445E4,1.1888641E5,1.14612445E5,1.2373768E6,1.6921875E4,2.0126867E5,5.8202805E4,1.568079E5,1.3186186E5,7.0092875E4,4.322014E4,2.349516E4,3.515031E4,2.2992182E4,6.1630005E3,1.4697313E4,2.4425988E4,2.9942055E4,1.0168885E4,6.676361E3,9.520286E3,1.1687382E4,3.617873E4,4.9564715E4,2.9009047E4,8.987736E4,5.532632E3,1.0907981E5,1.224802E6,1.257468E4,8.789049E3,8.1328257E3,1.08509914E5,9.2758766E4,2.4685389E4,3.3517418E4,9.150489E4,6.530302E4,8.06668E4,5.1195062E4,3.7587742E4,3.2505129E4,2.427509E4,1.894505E4,1.07958E4,1.2699359E4,1.688201E4,1.82683E4,1.0478404E4,1.2513777E4,3.838745E3,2.3242554E3,6.8495747E3,7.8477383E3,1.4122842E4,1.0303146E4,1.00403E4,1.9901756E4,7.370763E3,2.798121E3,4.0787334E3,2.5976272E3,6.109563E3,3.410723E3,7.592808E3,4.0945735E3,9.920831E3,2.6257898E4,3.1408166E4,1.815655E4,9.151166E3,1.985788E4,2.637604E4,6.3501316E4,2.450063E3,3.0825686E3,1.7677668E4,9.140215E4,3.2345393E4,1.1924566E6,1.1715868E4,8.588116E2,4.5551777E3,4.233871E3,2.1256787E3,6.007147E3,9.441981E3,9.906793E4,7.935797E3,8.482297E4,1.7988518E4,6.6968716E3,1.1993591E4,2.1523826E4,4.3883008E4,4.762188E4,3.1229412E4,3.407361E4,4.8935523E4,3.1731275E4,2.6781615E4,2.4413447E4,1.3104189E4,2.4483553E4,1.8562027E4,1.3943103E4],"tree_param":{"num_deleted":"0","num_feature":"4","num_nodes":"127","size_leaf_vector":"1"}},{"base_weights":[3.495078E-3,-1.1751213E0,2.6859114E-1,-1.617248E0,-8.0961937E-1,4.7083285E-2,1.1140368E0,-1.8672454E0,-1.2330809E0,-1.6440282E0,-6.684686E-1,3.3170106E-3,4.4574055E-1,8.254968E-1,1.3513985E0,-1.9959432E0,-1.6898401E0,-1.6642568E0,-1.1080799E0,-1.9545102E0,-1.3792453E0,-8.778151E-1,-5.168745E-1,-3.136554E-1,3.135915E-2,1.2182537E0,3.64157E-1,1.2814053E0,6.763188E-1,1.4755862E0,1.1368523E0,-2.0480413E0,-1.8587029E0,-1.8709551E0,-1.4101889E0,-1.8441707E0,-1.5535101E0,-1.2790803E0,-9.961698E-1,-2.0181975E0,-1.7103728E0,-1.5904018E0,-1.0368853E0,-1.1437229E0,-7.136988E-1,-7.629582E-1,-4.4086346E-1,-1.0914183E0,-2.4321243E-1,2.2861768E-2,2.0064715E-1,1.4869173E0,9.7733134E-1,5.6479734E-1,3.201737E-1,1.4878731E0,1.1150589E0,5.467785E-1,7.897191E-1,1.5443099E0,1.3863282E0,1.0056511E0,1.3448676E0,-1.0398469E-1,-9.9714786E-2,-1.0125599E-1,-8.341703E-2,-9.891172E-2,-8.663234E-2,-7.5942524E-2,-6.593921E-2,-9.681724E-2,-8.3474204E-2,-8.322993E-2,-7.214743E-2,-6.8212144E-2,-5.703914E-2,-5.7073023E-2,-4.5257833E-2,-1.0387794E-1,-9.352131E-2,-9.645633E-2,-7.1076356E-2,-8.8776715E-2,-7.1411684E-2,-5.8063995E-2,-4.1739088E-2,-6.151405E-2,-4.932976E-2,-3.9637193E-2,-2.849572E-2,-4.6581E-2,-3.426453E-2,-2.8110284E-2,-1.9508984E-2,-8.542791E-2,-4.1615434E-2,-2.274435E-2,-9.659542E-3,1.2579522E-3,-9.960423E-3,5.3877693E-2,7.848031E-3,6.899948E-2,7.732063E-2,3.9353054E-2,5.3953726E-2,2.0842962E-2,3.202593E-2,1.0887391E-2,1.8848259E-2,7.755746E-2,6.874341E-2,4.738451E-2,6.179548E-2,3.2714054E-2,2.4162708E-2,4.693571E-2,3.508131E-2,7.507183E-2,7.825713E-2,6.2446713E-2,7.473286E-2,5.5136796E-2,4.6961647E-2,6.2631905E-2,7.3368214E-2],"categories":[],"categories_nodes":[],"categories_segments":[],"categories_sizes":[],"default_left":[0,0,0,0,0,0,0,0,0,0,0,0,0,0,0,0,0,0,0,0,0,0,0,0,0,0,0,0,0,0,0,0,0,0,0,0,0,0,0,0,0,0,0,0,0,0,0,0,0,0,0,0,0,0,0,0,0,0,0,0,0,0,0,0,0,0,0,0,0,0,0,0,0,0,0,0,0,0,0,0,0,0,0,0,0,0,0,0,0,0,0,0,0,0,0,0,0,0,0,0,0,0,0,0,0,0,0,0,0,0,0,0,0,0,0,0,0,0,0,0,0,0,0,0,0,0,0],"id":4,"left_children":[1,3,5,7,9,11,13,15,17,19,21,23,25,27,29,31,33,35,37,39,41,43,45,47,49,51,53,55,57,59,61,63,65,67,69,71,73,75,77,79,81,83,85,87,89,91,93,95,97,99,101,103,105,107,109,111,113,115,117,119,121,123,125,-1,-1,-1,-1,-1,-1,-1,-1,-1,-1,-1,-1,-1,-1,-1,-1,-1,-1,-1,-1,-1,-1,-1,-1,-1,-1,-1,-1,-1,-1,-1,-1,-1,-1,-1,-1,-1,-1,-1,-1,-1,-1,-1,-1,-1,-1,-1,-1,-1,-1,-1,-1,-1,-1,-1,-1,-1,-1,-1,-1,-1,-1,-1,-1],"loss_changes":[7.582998E5,7.2013875E4,3.7104934E5,1.9367188E4,2.8732406E4,2.7392818E4,2.8170875E4,2.7860938E3,4.283461E3,2.8991328E3,6.621758E3,1.2574542E4,9.787859E3,1.2625984E4,6.0114062E3,5.0240625E2,2.5993281E3,3.5314453E2,1.1783438E3,2.491289E2,1.3758164E3,3.823711E3,2.263539E3,6.299412E3,1.8696226E3,9.5875977E2,1.2394941E3,1.5703438E3,2.054504E3,8.7465625E2,2.2568984E3,8.3140625E1,6.141328E2,4.5914844E2,1.9860156E2,1.0629492E2,1.3351562E2,2.8558984E2,4.9170312E2,1.0908203E2,2.100332E2,3.5123828E2,1.8184668E2,4.5366406E2,6.154922E2,3.7349414E2,5.684844E2,1.5255254E3,1.1162891E3,6.3136633E2,2.379589E3,4.2470703E1,1.5061572E2,2.8265527E2,6.7014746E2,1.438789E2,5.116211E2,4.4561914E2,9.7834375E2,6.9765625E1,9.237656E2,3.261797E2,3.5970312E2,0E0,0E0,0E0,0E0,0E0,0E0,0E0,0E0,0E0,0E0,0E0,0E0,0E0,0E0,0E0,0E0,0E0,0E0,0E0,0E0,0E0,0E0,0E0,0E0,0E0,0E0,0E0,0E0,0E0,0E0,0E0,0E0,0E0,0E0,0E0,0E0,0E0,0E0,0E0,0E0,0E0,0E0,0E0,0E0,0E0,0E0,0E0,0E0,0E0,0E0,0E0,0E0,0E0,0E0,0E0,0E0,0E0,0E0,0E0,0E0,0E0,0E0,0E0,0E0],"parents":[2147483647,0,0,1,1,2,2,3,3,4,4,5,5,6,6,7,7,8,8,9,9,10,10,11,11,12,12,13,13,14,14,15,15,16,16,17,17,18,18,19,19,20,20,21,21,22,22,23,23,24,24,25,25,26,26,27,27,28,28,29,29,30,30,31,31,32,32,33,33,34,34,35,35,36,36,37,37,38,38,39,39,40,40,41,41,42,42,43,43,44,44,45,45,46,46,47,47,48,48,49,49,50,50,51,51,52,52,53,53,54,54,55,55,56,56,57,57,58,58,59,59,60,60,61,61,62,62],"right_children":[2,4,6,8,10,12,14,16,18,20,22,24,26,28,30,32,34,36,38,40,42,44,46,48,50,52,54,56,58,60,62,64,66,68,70,72,74,76,78,80,82,84,86,88,90,92,94,96,98,100,102,104,106,108,110,112,114,116,118,120,122,124,126,-1,-1,-1,-1,-1,-1,-1,-1,-1,-1,-1,-1,-1,-1,-1,-1,-1,-1,-1,-1,-1,-1,-1,-1,-1,-1,-1,-1,-1,-1,-1,-1,-1,-1,-1,-1,-1,-1,-1,-1,-1,-1,-1,-1,-1,-1,-1,-1,-1,-1,-1,-1,-1,-1,-1,-1,-1,-1,-1,-1,-1,-1,-1,-1],"split_conditions":[-2E0,-8E0,6E0,1.313E3,4.11E2,3E0,1.1E1,7.248E2,-1.5E1,1.23E2,-5E0,0E0,2.31E2,7.06E2,1.248E3,-1.1E1,-1.2E1,-1.9E1,1.752E3,-3E0,-4E0,1.44E3,1.139E3,2.31E2,2E0,5.44E1,8.49E2,2.65E2,8E0,6.79E2,1.6E1,-1.5E1,3.77E2,-1.6E1,-1E1,1.752E3,1.728E3,-1E1,-1.1E1,6.3E1,3.11E1,-6E0,2.99E2,-6E0,2.257E3,-4E0,-4E0,2.49E1,9.57E2,1E0,9.2E1,4E0,4E0,4E0,4E0,1.34E2,8E0,1.552E3,1.4505E3,1.5E1,1.6E1,1.694E3,2E1,-1.0398469E-1,-9.9714786E-2,-1.0125599E-1,-8.341703E-2,-9.891172E-2,-8.663234E-2,-7.5942524E-2,-6.593921E-2,-9.681724E-2,-8.3474204E-2,-8.322993E-2,-7.214743E-2,-6.8212144E-2,-5.703914E-2,-5.7073023E-2,-4.5257833E-2,-1.0387794E-1,-9.352131E-2,-9.645633E-2,-7.1076356E-2,-8.8776715E-2,-7.1411684E-2,-5.8063995E-2,-4.1739088E-2,-6.151405E-2,-4.932976E-2,-3.9637193E-2,-2.849572E-2,-4.6581E-2,-3.426453E-2,-2.8110284E-2,-1.9508984E-2,-8.542791E-2,-4.1615434E-2,-2.274435E-2,-9.659542E-3,1.2579522E-3,-9.960423E-3,5.3877693E-2,7.848031E-3,6.899948E-2,7.732063E-2,3.9353054E-2,5.3953726E-2,2.0842962E-2,3.202593E-2,1.0887391E-2,1.8848259E-2,7.755746E-2,6.874341E-2,4.738451E-2,6.179548E-2,3.2714054E-2,2.4162708E-2,4.693571E-2,3.508131E-2,7.507183E-2,7.825713E-2,6.2446713E-2,7.473286E-2,5.5136796E-2,4.6961647E-2,6.2631905E-2,7.3368214E-2],"split_indices":[1,1,1,0,0,1,1,0,1,0,1,1,0,0,0,1,1,1,0,1,1,0,0,0,1,0,0,0,1,0,1,1,0,1,1,0,0,1,1,0,0,1,0,1,0,1,1,0,0,2,0,1,1,1,1,0,1,0,0,1,1,0,1,0,0,0,0,0,0,0,0,0,0,0,0,0,0,0,0,0,0,0,0,0,0,0,0,0,0,0,0,0,0,0,0,0,0,0,0,0,0,0,0,0,0,0,0,0,0,0,0,0,0,0,0,0,0,0,0,0,0,0,0,0,0,0,0],"split_type":[0,0,0,0,0,0,0,0,0,0,0,0,0,0,0,0,0,0,0,0,0,0,0,0,0,0,0,0,0,0,0,0,0,0,0,0,0,0,0,0,0,0,0,0,0,0,0,0,0,0,0,0,0,0,0,0,0,0,0,0,0,0,0,0,0,0,0,0,0,0,0,0,0,0,0,0,0,0,0,0,0,0,0,0,0,0,0,0,0,0,0,0,0,0,0,0,0,0,0,0,0,0,0,0,0,0,0,0,0,0,0,0,0,0,0,0,0,0,0,0,0,0,0,0,0,0,0],"sum_hessian":[2.4269725E6,4.456427E5,1.9813298E6,2.0167933E5,2.4396336E5,1.5699911E6,4.1133862E5,1.2217193E5,7.95074E4,3.529677E4,2.0866658E5,1.4146824E6,1.5530878E5,1.8565655E5,2.2568206E5,7.08001E4,5.1371824E4,1.7866553E4,6.1640844E4,1.6243455E4,1.9053316E4,8.763741E4,1.2102917E5,1.14981914E5,1.2997004E6,1.483381E4,1.4047498E5,4.5769887E4,1.3988667E5,1.4293805E5,8.274402E4,5.1308777E4,1.9491326E4,3.1175465E4,2.0196361E4,6.8015015E3,1.1065052E4,2.437897E4,3.7261875E4,1.2877003E4,3.3664521E3,1.1782569E4,7.270747E3,3.3444062E4,5.4193348E4,2.8559494E4,9.246968E4,9.547976E3,1.0543394E5,1.2375814E6,6.211906E4,7.010692E3,7.8231177E3,2.525524E4,1.15219734E5,2.0418574E4,2.535131E4,6.5299277E4,7.458738E4,8.074929E4,6.2188754E4,5.074413E4,3.1999896E4,3.22676E4,1.9041176E4,1.03946045E4,9.096721E3,1.754969E4,1.3625776E4,9.220022E3,1.0976339E4,4.4456523E3,2.3558494E3,5.512357E3,5.552695E3,1.5082446E4,9.296523E3,1.4347086E4,2.291479E4,9.177332E3,3.6996704E3,1.9124237E3,1.4540284E3,5.4970923E3,6.2854766E3,4.497678E3,2.7730686E3,2.1560205E4,1.1883857E4,3.4966234E4,1.9227111E4,9.001337E3,1.9558156E4,2.724124E4,6.5228438E4,2.8217104E3,6.7262646E3,2.0151496E4,8.528244E4,1.2249108E6,1.2670601E4,2.9467224E3,5.9172336E4,2.514929E3,4.4957627E3,2.7287705E3,5.094347E3,8.552518E3,1.6702723E4,4.1099617E4,7.412012E4,1.3081166E4,7.337408E3,1.0633536E4,1.4717775E4,2.42506E4,4.104868E4,2.7710264E4,4.6877125E4,2.6429932E4,5.431936E4,2.742195E4,3.47668E4,2.0606953E4,3.0137178E4,1.8261652E4,1.3738244E4],"tree_param":{"num_deleted":"0","num_feature":"4","num_nodes":"127","size_leaf_vector":"1"}},{"base_weights":[3.705472E-3,-4.803154E-1,5.210304E-1,-8.1734794E-1,-2.294686E-1,2.395117E-1,7.9050624E-1,-1.0598615E0,-6.415604E-1,-3.8843098E-1,-9.655004E-2,8.043306E-2,3.2318386E-1,6.7890304E-1,1.0654573E0,-1.2002078E0,-9.6957046E-1,-7.0044476E-1,-6.1846685E-1,-4.2559478E-1,-2.667203E-1,-1.4759663E-1,-3.1093186E-2,9.413306E-2,-1.9190596E-1,3.1085825E-1,4.3447828E-1,6.038712E-1,7.4809855E-1,1.0384064E0,1.2962612E0,-1.3182591E0,-1.140732E0,-9.74685E-1,-3.9337587E-1,-6.3305986E-1,-7.8451884E-1,-5.1931244E-1,-6.5332264E-1,-2.3859417E-1,-4.4113705E-1,-2.0308182E-1,-4.5703074E-1,-1.4315687E-1,-6.371268E-1,5.04921E-2,-1.2995575E-1,7.080368E-2,1.6383591E-1,-2.4251197E-1,-1.7219727E-1,1.5727459E-1,3.16356E-1,5.6906474E-1,2.9986E-1,3.276695E-1,6.0986024E-1,7.549708E-1,-1.9749504E-1,7.5612587E-1,1.0455784E0,1.2982868E0,4.544068E-1,-4.5217093E-2,-6.624498E-2,-4.217898E-2,-5.7297904E-2,-5.0987143E-2,-4.57191E-2,-6.0715955E-2,-1.2402661E-2,-3.4953516E-2,-1.8425673E-2,-3.9479297E-2,-6.6485885E-3,-3.0694148E-2,-1.7215023E-3,-3.671386E-2,-3.1787284E-2,-8.8652335E-3,-1.4967896E-2,-2.5596445E-2,-1.9517146E-2,-1.2846382E-2,3.4726716E-3,-1.9811668E-2,-2.5866702E-2,-9.084466E-3,-5.048439E-3,-2.241463E-2,-9.419499E-2,1.1795138E-3,1.4671333E-2,-1.219426E-2,-4.4733393E-3,-3.3203259E-3,3.7037916E-3,1.4367511E-2,6.651456E-3,-7.34336E-3,-1.3428909E-2,8.030343E-5,-8.785766E-3,6.1956355E-3,1.2338585E-2,1.1085367E-2,1.6249651E-2,1.0208431E-2,2.8857274E-2,1.0101237E-2,1.9968597E-2,1.8063096E-2,1.7654354E-3,3.621393E-2,2.991961E-2,1.8389342E-2,3.8052272E-2,4.8410773E-4,-4.2892657E-2,4.2813834E-2,3.4178305E-2,5.067047E-2,5.5238765E-2,6.2785104E-2,6.698734E-2,7.6385416E-2,-3.4710854E-2],"categories":[],"categories_nodes":[],"categories_segments":[],"categories_sizes":[],"default_left":[0,0,0,0,0,0,0,0,0,0,0,0,0,0,0,0,0,0,0,0,0,0,0,0,0,0,0,0,0,0,0,0,0,0,0,0,0,0,0,0,0,0,0,0,0,0,0,0,0,0,0,0,0,0,0,0,0,0,0,0,0,0,0,0,0,0,0,0,0,0,0,0,0,0,0,0,0,0,0,0,0,0,0,0,0,0,0,0,0,0,0,0,0,0,0,0,0,0,0,0,0,0,0,0,0,0,0,0,0,0,0,0,0,0,0,0,0,0,0,0,0,0,0,0,0,0,0],"id":5,"left_children":[1,3,5,7,9,11,13,15,17,19,21,23,25,27,29,31,33,35,37,39,41,43,45,47,49,51,53,55,57,59,61,63,65,67,69,71,73,75,77,79,81,83,85,87,89,91,93,95,97,99,101,103,105,107,109,111,113,115,117,119,121,123,125,-1,-1,-1,-1,-1,-1,-1,-1,-1,-1,-1,-1,-1,-1,-1,-1,-1,-1,-1,-1,-1,-1,-1,-1,-1,-1,-1,-1,-1,-1,-1,-1,-1,-1,-1,-1,-1,-1,-1,-1,-1,-1,-1,-1,-1,-1,-1,-1,-1,-1,-1,-1,-1,-1,-1,-1,-1,-1,-1,-1,-1,-1,-1,-1],"loss_changes":[6.06512E5,1.05796375E5,8.88215E4,2.2762656E4,1.5158441E4,7.621785E3,1.83555E4,2.8423281E3,4.2053125E2,1.4776484E3,1.3055271E3,7.364269E2,5.146211E2,2.2086719E3,1.0769531E3,6.152578E2,4.0202344E2,4.9351562E2,7.6821094E2,7.273125E2,9.254971E2,4.770205E2,1.3808381E3,3.0557104E2,9.387085E0,2.8520898E2,6.77645E2,3.375E2,1.4385859E3,3.1220312E2,3.0300781E1,7.9671875E1,8.975781E1,3.6682812E2,1.432308E2,8.451074E2,1.2796289E2,2.6524316E3,2.3364844E2,7.147949E1,8.306992E2,8.405239E2,7.000781E1,3.536372E2,4.6361145E2,6.129806E2,3.5703015E2,6.3219604E1,1.7927039E2,6.560608E0,4.1625977E0,3.4835632E1,2.665547E2,5.5041992E1,1.8203381E2,4.256024E1,2.617578E2,5.1659375E2,2.1862021E2,2.7277344E1,2.8598438E2,3.0220703E1,5.6559944E1,0E0,0E0,0E0,0E0,0E0,0E0,0E0,0E0,0E0,0E0,0E0,0E0,0E0,0E0,0E0,0E0,0E0,0E0,0E0,0E0,0E0,0E0,0E0,0E0,0E0,0E0,0E0,0E0,0E0,0E0,0E0,0E0,0E0,0E0,0E0,0E0,0E0,0E0,0E0,0E0,0E0,0E0,0E0,0E0,0E0,0E0,0E0,0E0,0E0,0E0,0E0,0E0,0E0,0E0,0E0,0E0,0E0,0E0,0E0,0E0,0E0,0E0,0E0,0E0],"parents":[2147483647,0,0,1,1,2,2,3,3,4,4,5,5,6,6,7,7,8,8,9,9,10,10,11,11,12,12,13,13,14,14,15,15,16,16,17,17,18,18,19,19,20,20,21,21,22,22,23,23,24,24,25,25,26,26,27,27,28,28,29,29,30,30,31,31,32,32,33,33,34,34,35,35,36,36,37,37,38,38,39,39,40,40,41,41,42,42,43,43,44,44,45,45,46,46,47,47,48,48,49,49,50,50,51,51,52,52,53,53,54,54,55,55,56,56,57,57,58,58,59,59,60,60,61,61,62,62],"right_children":[2,4,6,8,10,12,14,16,18,20,22,24,26,28,30,32,34,36,38,40,42,44,46,48,50,52,54,56,58,60,62,64,66,68,70,72,74,76,78,80,82,84,86,88,90,92,94,96,98,100,102,104,106,108,110,112,114,116,118,120,122,124,126,-1,-1,-1,-1,-1,-1,-1,-1,-1,-1,-1,-1,-1,-1,-1,-1,-1,-1,-1,-1,-1,-1,-1,-1,-1,-1,-1,-1,-1,-1,-1,-1,-1,-1,-1,-1,-1,-1,-1,-1,-1,-1,-1,-1,-1,-1,-1,-1,-1,-1,-1,-1,-1,-1,-1,-1,-1,-1,-1,-1,-1,-1,-1,-1],"split_conditions":[1.1763479E0,-1.1117014E2,9.1070015E1,-1.8974811E2,-5.4741325E1,2.9104694E1,2.000921E2,-2.5134111E2,-1.611511E2,-6.690118E1,-2.1984509E1,2.7796906E1,8.4149445E1,1.3207828E2,3.22599E2,-3.086947E2,1E0,-1.7365935E2,-1.4616685E2,-1.07521515E2,-5.7287178E1,1E0,-9.306289E0,2.0951876E1,7.248E2,4.59E1,8.7552635E1,2.49E1,1E0,3.81E1,1E0,1.93E1,1.93E1,-2.1187708E2,-2.3836414E2,-1.7659587E2,1E0,-1.4843063E2,-1.3924287E2,-1.09452835E2,-8.982733E1,-5.8781868E1,-5.59312E1,-3.8032154E1,-2.6039892E1,-1.0536246E1,-6.4387007E0,2.49E1,2.2426516E1,9.2E1,7.709E2,6.720555E1,3.3297466E1,2.49E1,8.940665E1,1E0,9.444129E1,1.93E1,1.7898376E2,2.2978325E2,2.5331786E2,3.5013452E2,3.5013452E2,-4.5217093E-2,-6.624498E-2,-4.217898E-2,-5.7297904E-2,-5.0987143E-2,-4.57191E-2,-6.0715955E-2,-1.2402661E-2,-3.4953516E-2,-1.8425673E-2,-3.9479297E-2,-6.6485885E-3,-3.0694148E-2,-1.7215023E-3,-3.671386E-2,-3.1787284E-2,-8.8652335E-3,-1.4967896E-2,-2.5596445E-2,-1.9517146E-2,-1.2846382E-2,3.4726716E-3,-1.9811668E-2,-2.5866702E-2,-9.084466E-3,-5.048439E-3,-2.241463E-2,-9.419499E-2,1.1795138E-3,1.4671333E-2,-1.219426E-2,-4.4733393E-3,-3.3203259E-3,3.7037916E-3,1.4367511E-2,6.651456E-3,-7.34336E-3,-1.3428909E-2,8.030343E-5,-8.785766E-3,6.1956355E-3,1.2338585E-2,1.1085367E-2,1.6249651E-2,1.0208431E-2,2.8857274E-2,1.0101237E-2,1.9968597E-2,1.8063096E-2,1.7654354E-3,3.621393E-2,2.991961E-2,1.8389342E-2,3.8052272E-2,4.8410773E-4,-4.2892657E-2,4.2813834E-2,3.4178305E-2,5.067047E-2,5.5238765E-2,6.2785104E-2,6.698734E-2,7.6385416E-2,-3.4710854E-2],"split_indices":[3,3,3,3,3,3,3,3,3,3,3,3,3,3,3,3,2,3,3,3,3,2,3,3,0,0,3,0,2,0,2,0,0,3,3,3,2,3,3,3,3,3,3,3,3,3,3,0,3,0,0,3,3,0,3,2,3,0,3,3,3,3,3,0,0,0,0,0,0,0,0,0,0,0,0,0,0,0,0,0,0,0,0,0,0,0,0,0,0,0,0,0,0,0,0,0,0,0,0,0,0,0,0,0,0,0,0,0,0,0,0,0,0,0,0,0,0,0,0,0,0,0,0,0,0,0,0],"split_type":[0,0,0,0,0,0,0,0,0,0,0,0,0,0,0,0,0,0,0,0,0,0,0,0,0,0,0,0,0,0,0,0,0,0,0,0,0,0,0,0,0,0,0,0,0,0,0,0,0,0,0,0,0,0,0,0,0,0,0,0,0,0,0,0,0,0,0,0,0,0,0,0,0,0,0,0,0,0,0,0,0,0,0,0,0,0,0,0,0,0,0,0,0,0,0,0,0,0,0,0,0,0,0,0,0,0,0,0,0,0,0,0,0,0,0,0,0,0,0,0,0,0,0,0,0,0,0],"sum_hessian":[2.4222085E6,1.2513848E6,1.1708236E6,5.3396206E5,7.174227E5,5.726176E5,5.98206E5,2.2439103E5,3.0957103E5,3.2670353E5,3.9071912E5,1.9737247E5,3.752452E5,4.2549872E5,1.7270731E5,8.784091E4,1.3655014E5,8.719903E4,2.22372E5,2.5027938E5,7.642415E4,2.1952281E5,1.7119633E5,1.8791983E5,9.452637E3,3.3783456E5,3.7410617E4,2.0414478E5,2.2135394E5,1.545939E5,1.8113398E4,2.9421727E4,5.8419176E4,1.3534803E5,1.2021018E3,4.8408453E4,3.8790582E4,5.7842625E4,1.6452938E5,1.9206623E4,2.3107275E5,5.7274145E4,1.9150004E4,2.1755105E5,1.9717703E3,9.379417E4,7.740216E4,1.4079733E5,4.7122504E4,2.6463364E3,6.806301E3,1.1676363E4,3.261582E5,1.870591E4,1.8704709E4,4.333841E3,1.9981094E5,2.1975703E5,1.5969102E3,3.8331536E3,1.5076075E5,1.8069379E4,4.4018246E1,4.6672174E2,2.8955006E4,1.01246716E3,5.740671E4,7.745704E4,5.7890996E4,1.7968515E2,1.0224167E3,3.8740234E4,9.66822E3,3.8491027E4,2.995539E2,4.8402105E4,9.44052E3,2.9343053E4,1.3518633E5,9.5638955E3,9.642729E3,9.652984E4,1.345429E5,4.78252E4,9.448947E3,9.539709E3,9.610295E3,1.13699984E5,1.03851055E5,1.7135919E3,2.5817828E2,8.444418E4,9.349991E3,2.0293758E4,5.71084E4,3.2790393E3,1.3751828E5,9.405303E3,3.7717203E4,5.681729E2,2.0781636E3,1.3504762E2,6.671253E3,8.507429E3,3.168934E3,2.7276357E4,2.9888184E5,4.0584308E2,1.8300066E4,9.43334E3,9.271369E3,3.8869878E3,4.468531E2,1.819683E4,1.8161411E5,3.3955168E3,2.1636152E5,1.2163E3,3.8061008E2,1.6058608E3,2.2272927E3,9.769107E4,5.306968E4,8.929219E3,9.14016E3,2.2584612E1,2.1433634E1],"tree_param":{"num_deleted":"0","num_feature":"4","num_nodes":"127","size_leaf_vector":"1"}},{"base_weights":[3.4080283E-3,-4.5511913E-1,4.9776202E-1,-7.7417296E-1,-2.1731745E-1,2.2727475E-1,7.5881124E-1,-1.00419E0,-6.074378E-1,-3.9847136E-1,-1.1436618E-1,7.48633E-2,3.0759776E-1,6.5078783E-1,1.0267162E0,-1.1356822E0,-9.195437E-1,-6.641442E-1,-5.852333E-1,-2.2374131E-1,-4.1245243E-1,-2.0087706E-1,-5.7380326E-2,8.777342E-2,-1.8034706E-1,2.9545888E-1,4.17499E-1,5.7498825E-1,7.148831E-1,9.9989825E-1,1.2575045E0,-1.2264725E0,-1.0626541E0,-9.244222E-1,-3.678571E-1,-6.036996E-1,-7.3952246E-1,-4.926304E-1,-6.177777E-1,-1.6944502E-1,-2.774704E-1,-4.8283932E-1,-3.6537308E-1,-2.2725816E-1,-1.5555629E-1,-3.2305416E-2,-1.2167036E-1,6.410775E-2,1.583405E-1,-1.7650709E-1,-4.6269754E-1,2.013417E-1,3.040699E-1,5.4365325E-1,2.9176235E-1,5.912286E-1,4.2112336E-1,7.222377E-1,-2.504628E-1,7.533255E-1,1.0070888E0,1.2595541E0,4.2514375E-1,-4.080552E-2,-6.1656743E-2,-5.1420655E-2,-5.5704422E-2,-4.8413698E-2,-4.328657E-2,-5.6362744E-2,-1.1793989E-2,-3.326632E-2,-1.7896758E-2,-3.7230354E-2,-4.449299E-3,-2.9205313E-2,-1.1439059E-3,-3.4738667E-2,-3.0056832E-2,-7.482206E-3,-1.0324172E-2,-1.4510705E-2,1.3728768E-2,-2.2409858E-2,-2.673429E-2,4.1682287E-3,-1.9875448E-2,-8.26577E-3,-1.3561926E-2,-9.406111E-4,-1.2899977E-2,-4.423098E-3,3.0125664E-3,-1.1488422E-2,-4.163901E-3,3.9188433E-3,1.2683873E-3,1.3748298E-2,6.4675487E-3,-8.113881E-3,-1.0903402E-2,-3.9918616E-2,-1.8706808E-2,1.49204135E-2,7.644012E-3,1.6490838E-2,1.3461537E-2,6.361261E-3,2.7659936E-2,9.322203E-3,1.9937873E-2,2.9095188E-2,3.7994064E-2,1.8243669E-2,2.3896119E-2,1.7564043E-2,3.6401816E-2,-4.508195E-3,-4.0375926E-2,4.2816367E-2,3.3947524E-2,4.884487E-2,5.3136285E-2,6.0893346E-2,6.5007105E-2,7.449325E-2,-3.269857E-2],"categories":[],"categories_nodes":[],"categories_segments":[],"categories_sizes":[],"default_left":[0,0,0,0,0,0,0,0,0,0,0,0,0,0,0,0,0,0,0,0,0,0,0,0,0,0,0,0,0,0,0,0,0,0,0,0,0,0,0,0,0,0,0,0,0,0,0,0,0,0,0,0,0,0,0,0,0,0,0,0,0,0,0,0,0,0,0,0,0,0,0,0,0,0,0,0,0,0,0,0,0,0,0,0,0,0,0,0,0,0,0,0,0,0,0,0,0,0,0,0,0,0,0,0,0,0,0,0,0,0,0,0,0,0,0,0,0,0,0,0,0,0,0,0,0,0,0],"id":6,"left_children":[1,3,5,7,9,11,13,15,17,19,21,23,25,27,29,31,33,35,37,39,41,43,45,47,49,51,53,55,57,59,61,63,65,67,69,71,73,75,77,79,81,83,85,87,89,91,93,95,97,99,101,103,105,107,109,111,113,115,117,119,121,123,125,-1,-1,-1,-1,-1,-1,-1,-1,-1,-1,-1,-1,-1,-1,-1,-1,-1,-1,-1,-1,-1,-1,-1,-1,-1,-1,-1,-1,-1,-1,-1,-1,-1,-1,-1,-1,-1,-1,-1,-1,-1,-1,-1,-1,-1,-1,-1,-1,-1,-1,-1,-1,-1,-1,-1,-1,-1,-1,-1,-1,-1,-1,-1,-1],"loss_changes":[5.478901E5,9.5141016E4,8.212678E4,2.0536969E4,1.3399543E4,6.992994E3,1.712825E4,2.5037656E3,3.9053906E2,6.359336E2,2.2584854E3,6.495735E2,4.9892578E2,2.0488594E3,1.0513438E3,5.830078E2,3.6814844E2,3.9754297E2,6.720781E2,5.623059E1,7.9865234E2,2.174834E2,4.4523767E2,3.1337622E2,1.0210815E1,2.7295703E2,5.900083E2,4.8267578E2,1.6227812E3,2.6939062E2,2.9664062E1,1.06390625E2,8.488281E1,3.4845312E2,1.2018089E2,7.340781E2,1.2850586E2,2.4933457E3,2.1110156E2,7.007843E0,6.828198E1,1.7328516E2,2.0831094E3,3.1322168E2,9.377318E2,1.0327683E3,3.2160254E2,7.7680176E1,1.5929675E2,5.5043335E0,3.4694843E0,1.327992E2,2.7675586E2,7.374951E1,2.0992542E2,2.7447266E2,5.8786865E1,4.876172E2,1.5429749E2,3.2524902E1,2.4767188E2,2.8294922E1,5.2668602E1,0E0,0E0,0E0,0E0,0E0,0E0,0E0,0E0,0E0,0E0,0E0,0E0,0E0,0E0,0E0,0E0,0E0,0E0,0E0,0E0,0E0,0E0,0E0,0E0,0E0,0E0,0E0,0E0,0E0,0E0,0E0,0E0,0E0,0E0,0E0,0E0,0E0,0E0,0E0,0E0,0E0,0E0,0E0,0E0,0E0,0E0,0E0,0E0,0E0,0E0,0E0,0E0,0E0,0E0,0E0,0E0,0E0,0E0,0E0,0E0,0E0,0E0,0E0,0E0],"parents":[2147483647,0,0,1,1,2,2,3,3,4,4,5,5,6,6,7,7,8,8,9,9,10,10,11,11,12,12,13,13,14,14,15,15,16,16,17,17,18,18,19,19,20,20,21,21,22,22,23,23,24,24,25,25,26,26,27,27,28,28,29,29,30,30,31,31,32,32,33,33,34,34,35,35,36,36,37,37,38,38,39,39,40,40,41,41,42,42,43,43,44,44,45,45,46,46,47,47,48,48,49,49,50,50,51,51,52,52,53,53,54,54,55,55,56,56,57,57,58,58,59,59,60,60,61,61,62,62],"right_children":[2,4,6,8,10,12,14,16,18,20,22,24,26,28,30,32,34,36,38,40,42,44,46,48,50,52,54,56,58,60,62,64,66,68,70,72,74,76,78,80,82,84,86,88,90,92,94,96,98,100,102,104,106,108,110,112,114,116,118,120,122,124,126,-1,-1,-1,-1,-1,-1,-1,-1,-1,-1,-1,-1,-1,-1,-1,-1,-1,-1,-1,-1,-1,-1,-1,-1,-1,-1,-1,-1,-1,-1,-1,-1,-1,-1,-1,-1,-1,-1,-1,-1,-1,-1,-1,-1,-1,-1,-1,-1,-1,-1,-1,-1,-1,-1,-1,-1,-1,-1,-1,-1,-1,-1,-1,-1],"split_conditions":[1.1763479E0,-1.1117014E2,9.1070015E1,-1.8974811E2,-6.519018E1,2.9104694E1,2.000921E2,-2.5134111E2,-1.611511E2,-1.07521515E2,-3.8032154E1,2.7796906E1,8.4149445E1,1.301863E2,3.22599E2,-2.9514557E2,1E0,-1.7365935E2,-1.4616685E2,-1.09452835E2,-8.982733E1,-4.7646545E1,-9.306289E0,2.0951876E1,1E0,3.3297466E1,8.7552635E1,1.2585878E2,1E0,4.59E1,1E0,1.93E1,-2.665046E2,-2.1187708E2,-2.3836414E2,-1.7659587E2,1E0,-1.4843063E2,-1.3924287E2,1.813E3,1E0,-9.6685135E1,-8.820758E1,-5.7287178E1,-4.3395756E1,-1.947079E1,-6.4387007E0,1.5846855E1,2.2426516E1,2.106E3,1.42E1,3.0527933E1,6.098984E1,2.49E1,8.940665E1,1.2410167E2,1.2794832E2,1.93E1,1.7898376E2,2.2978325E2,2.5331786E2,3.5013452E2,3.5013452E2,-4.080552E-2,-6.1656743E-2,-5.1420655E-2,-5.5704422E-2,-4.8413698E-2,-4.328657E-2,-5.6362744E-2,-1.1793989E-2,-3.326632E-2,-1.7896758E-2,-3.7230354E-2,-4.449299E-3,-2.9205313E-2,-1.1439059E-3,-3.4738667E-2,-3.0056832E-2,-7.482206E-3,-1.0324172E-2,-1.4510705E-2,1.3728768E-2,-2.2409858E-2,-2.673429E-2,4.1682287E-3,-1.9875448E-2,-8.26577E-3,-1.3561926E-2,-9.406111E-4,-1.2899977E-2,-4.423098E-3,3.0125664E-3,-1.1488422E-2,-4.163901E-3,3.9188433E-3,1.2683873E-3,1.3748298E-2,6.4675487E-3,-8.113881E-3,-1.0903402E-2,-3.9918616E-2,-1.8706808E-2,1.49204135E-2,7.644012E-3,1.6490838E-2,1.3461537E-2,6.361261E-3,2.7659936E-2,9.322203E-3,1.9937873E-2,2.9095188E-2,3.7994064E-2,1.8243669E-2,2.3896119E-2,1.7564043E-2,3.6401816E-2,-4.508195E-3,-4.0375926E-2,4.2816367E-2,3.3947524E-2,4.884487E-2,5.3136285E-2,6.0893346E-2,6.5007105E-2,7.449325E-2,-3.269857E-2],"split_indices":[3,3,3,3,3,3,3,3,3,3,3,3,3,3,3,3,2,3,3,3,3,3,3,3,2,3,3,3,2,0,2,0,3,3,3,3,2,3,3,0,2,3,3,3,3,3,3,3,3,0,0,3,3,0,3,3,3,0,3,3,3,3,3,0,0,0,0,0,0,0,0,0,0,0,0,0,0,0,0,0,0,0,0,0,0,0,0,0,0,0,0,0,0,0,0,0,0,0,0,0,0,0,0,0,0,0,0,0,0,0,0,0,0,0,0,0,0,0,0,0,0,0,0,0,0,0,0],"split_type":[0,0,0,0,0,0,0,0,0,0,0,0,0,0,0,0,0,0,0,0,0,0,0,0,0,0,0,0,0,0,0,0,0,0,0,0,0,0,0,0,0,0,0,0,0,0,0,0,0,0,0,0,0,0,0,0,0,0,0,0,0,0,0,0,0,0,0,0,0,0,0,0,0,0,0,0,0,0,0,0,0,0,0,0,0,0,0,0,0,0,0,0,0,0,0,0,0,0,0,0,0,0,0,0,0,0,0,0,0,0,0,0,0,0,0,0,0,0,0,0,0,0,0,0,0,0,0],"sum_hessian":[2.4170742E6,1.2539762E6,1.1630979E6,5.3550175E5,7.184745E5,5.7122375E5,5.918742E5,2.2504261E5,3.1045916E5,2.6035275E5,4.5812172E5,1.9714558E5,3.740782E5,4.2180097E5,1.7007319E5,8.812851E4,1.3691411E5,8.7351086E4,2.2310806E5,1.9290055E4,2.4106269E5,1.819297E5,2.7619203E5,1.8765356E5,9.492022E3,3.3687334E5,3.720485E4,1.9325997E5,2.28541E5,1.5237262E5,1.770057E4,3.9279473E4,4.8849035E4,1.3571333E5,1.2007847E3,4.8482637E4,3.886845E4,5.8023215E4,1.6508486E5,9.596453E3,9.693603E3,9.661191E4,1.444508E5,1.1499017E5,6.693953E4,1.9869639E5,7.749563E4,1.4052758E5,4.7125984E4,9.366267E3,1.25756165E2,2.823991E4,3.086334E5,1.8569928E4,1.8634924E4,1.7480644E5,1.8453527E4,2.2681323E5,1.7277596E3,4.3205195E3,1.4805211E5,1.7656578E4,4.399235E1,6.2949744E2,3.8649973E4,2.9338566E4,1.951047E4,7.766747E4,5.8045855E4,1.7667204E2,1.0241125E3,3.876132E4,9.721316E3,3.8566863E4,3.0158292E2,4.856567E4,9.457542E3,2.9331576E4,1.3575328E5,6.256655E3,3.3397976E3,9.475344E3,2.1825853E2,5.7920742E4,3.869116E4,9.653267E3,1.3479753E5,4.774706E4,6.724311E4,2.8670518E4,3.8269016E4,1.23665445E5,7.5030945E4,2.030882E4,5.7186812E4,1.0269931E5,3.7828266E4,9.380312E3,3.7745676E4,6.981032E3,2.3852344E3,2.4579065E1,1.011771E2,9.402293E3,1.8837617E4,1.7747061E5,1.3116281E5,4.1644424E2,1.8153482E4,9.392433E3,9.242491E3,1.6565198E5,9.154459E3,9.275298E3,9.1782295E3,3.491782E3,2.2332145E5,1.3425796E3,3.851801E2,1.8072076E3,2.513312E3,9.598472E4,5.206738E4,8.725616E3,8.930961E3,2.1952265E1,2.2040089E1],"tree_param":{"num_deleted":"0","num_feature":"4","num_nodes":"127","size_leaf_vector":"1"}},{"base_weights":[3.7001555E-3,-1.0976844E0,2.5400594E-1,-1.5080739E0,-7.5827175E-1,-1.7530361E-1,6.713603E-1,-1.75084E0,-1.1564877E0,-1.4894654E0,-6.147927E-1,-3.7060767E-1,8.443453E-1,5.0749195E-1,1.2393811E0,-1.8813983E0,-1.6009923E0,-1.3332691E0,-6.075236E-1,-1.7885544E0,-1.2142893E0,-8.333746E-1,-1.2490885E-1,-6.695042E-1,-1.6446234E-1,1.2565405E0,5.1767164E-1,2.6214728E-1,7.542914E-1,1.0755149E0,1.3947142E0,-1.9366617E0,-1.8017347E0,-1.7680266E0,-1.339379E0,-1.5875735E0,-1.1766436E0,-8.093096E-1,-1.742012E-1,-1.884011E0,-1.5762527E0,-1.478692E0,-9.998966E-1,-1.0099367E0,-6.0325366E-1,-4.3622974E-1,9.1205746E-2,-9.179361E-1,-5.1745915E-1,-2.2026515E-1,1.8225864E-1,9.4046456E-1,1.4331965E0,3.0182618E-1,9.490856E-1,2.1063372E-1,6.0335356E-1,6.584508E-1,9.8620903E-1,1.2936312E0,9.599875E-1,1.4343011E0,1.2615451E0,-9.362712E-2,-1.0124713E-1,-9.3997754E-2,-7.960203E-2,-9.366597E-2,-8.336115E-2,-6.857531E-2,-1.4540811E-2,-8.66498E-2,-7.409626E-2,-7.203781E-2,-5.3416856E-2,-5.4103084E-2,-3.221263E-2,-2.3424743E-2,-1.5062149E-4,-9.681959E-2,-8.4368505E-2,-9.2487596E-2,-6.769823E-2,-7.868065E-2,-6.535198E-2,-6.157111E-2,-4.52927E-2,-5.76518E-2,-4.5610797E-2,-4.0131442E-2,-2.3057243E-2,-3.071327E-2,-7.973327E-3,-5.746249E-3,2.2051955E-2,-4.9450215E-2,-2.3304759E-2,-2.793928E-2,-5.114637E-3,-2.0232381E-2,-5.4776487E-3,5.4492313E-2,4.7234325E-3,6.978415E-2,3.4764674E-2,7.6224536E-2,6.394785E-2,6.7969034E-3,2.4901714E-2,4.102321E-2,6.389359E-2,-7.036337E-3,1.2109574E-2,5.7584066E-2,2.6066834E-2,1.278614E-2,3.4324568E-2,4.7428157E-2,5.9737552E-2,7.1270086E-2,5.9598453E-2,4.5058038E-2,6.1963227E-2,7.359364E-2,6.9452874E-2,5.9101272E-2,6.8169646E-2],"categories":[],"categories_nodes":[],"categories_segments":[],"categories_sizes":[],"default_left":[0,0,0,0,0,0,0,0,0,0,0,0,0,0,0,0,0,0,0,0,0,0,0,0,0,0,0,0,0,0,0,0,0,0,0,0,0,0,0,0,0,0,0,0,0,0,0,0,0,0,0,0,0,0,0,0,0,0,0,0,0,0,0,0,0,0,0,0,0,0,0,0,0,0,0,0,0,0,0,0,0,0,0,0,0,0,0,0,0,0,0,0,0,0,0,0,0,0,0,0,0,0,0,0,0,0,0,0,0,0,0,0,0,0,0,0,0,0,0,0,0,0,0,0,0,0,0],"id":7,"left_children":[1,3,5,7,9,11,13,15,17,19,21,23,25,27,29,31,33,35,37,39,41,43,45,47,49,51,53,55,57,59,61,63,65,67,69,71,73,75,77,79,81,83,85,87,89,91,93,95,97,99,101,103,105,107,109,111,113,115,117,119,121,123,125,-1,-1,-1,-1,-1,-1,-1,-1,-1,-1,-1,-1,-1,-1,-1,-1,-1,-1,-1,-1,-1,-1,-1,-1,-1,-1,-1,-1,-1,-1,-1,-1,-1,-1,-1,-1,-1,-1,-1,-1,-1,-1,-1,-1,-1,-1,-1,-1,-1,-1,-1,-1,-1,-1,-1,-1,-1,-1,-1,-1,-1,-1,-1,-1],"loss_changes":[6.649084E5,6.221025E4,3.5211894E5,1.7254156E4,2.5645094E4,1.9291703E5,9.275331E4,2.3366875E3,8.0134766E3,3.2980625E3,2.1882367E4,5.009483E4,2.0968336E4,4.682872E4,5.6775625E3,2.77875E2,2.4311719E3,2.486164E3,1.7589097E3,3.863789E2,1.1825508E3,5.7407812E3,4.2421797E3,1.2534547E4,9.309626E3,3.8430078E3,8.08959E3,6.81675E3,8.568953E3,2.73475E3,6.019844E2,2.0970312E2,4.2654688E2,3.5759375E2,7.3078906E2,3.6316797E2,1.1043516E3,6.1722363E2,3.2207733E2,1.3319531E2,3.6015625E2,1.5030078E2,2.5009766E2,1.1170391E3,1.7378887E3,1.2728936E3,2.6838196E3,4.0452578E3,3.5320195E3,8.4605E3,5.3148057E3,2.7542773E3,6.199297E2,1.8847246E3,1.2241016E3,3.736336E3,2.2872324E3,3.080586E3,8.839375E2,5.0190234E2,1.1650938E3,1.4801562E2,2.1101953E2,0E0,0E0,0E0,0E0,0E0,0E0,0E0,0E0,0E0,0E0,0E0,0E0,0E0,0E0,0E0,0E0,0E0,0E0,0E0,0E0,0E0,0E0,0E0,0E0,0E0,0E0,0E0,0E0,0E0,0E0,0E0,0E0,0E0,0E0,0E0,0E0,0E0,0E0,0E0,0E0,0E0,0E0,0E0,0E0,0E0,0E0,0E0,0E0,0E0,0E0,0E0,0E0,0E0,0E0,0E0,0E0,0E0,0E0,0E0,0E0,0E0,0E0,0E0,0E0],"parents":[2147483647,0,0,1,1,2,2,3,3,4,4,5,5,6,6,7,7,8,8,9,9,10,10,11,11,12,12,13,13,14,14,15,15,16,16,17,17,18,18,19,19,20,20,21,21,22,22,23,23,24,24,25,25,26,26,27,27,28,28,29,29,30,30,31,31,32,32,33,33,34,34,35,35,36,36,37,37,38,38,39,39,40,40,41,41,42,42,43,43,44,44,45,45,46,46,47,47,48,48,49,49,50,50,51,51,52,52,53,53,54,54,55,55,56,56,57,57,58,58,59,59,60,60,61,61,62,62],"right_children":[2,4,6,8,10,12,14,16,18,20,22,24,26,28,30,32,34,36,38,40,42,44,46,48,50,52,54,56,58,60,62,64,66,68,70,72,74,76,78,80,82,84,86,88,90,92,94,96,98,100,102,104,106,108,110,112,114,116,118,120,122,124,126,-1,-1,-1,-1,-1,-1,-1,-1,-1,-1,-1,-1,-1,-1,-1,-1,-1,-1,-1,-1,-1,-1,-1,-1,-1,-1,-1,-1,-1,-1,-1,-1,-1,-1,-1,-1,-1,-1,-1,-1,-1,-1,-1,-1,-1,-1,-1,-1,-1,-1,-1,-1,-1,-1,-1,-1,-1,-1,-1,-1,-1,-1,-1,-1],"split_conditions":[-2E0,-8E0,1.1763479E0,1.275E3,4.8E2,6E0,7E0,6.66E2,3.3297466E1,1.66E2,3.6017384E1,-1.1501768E2,1.035E3,9.299602E1,1.3E1,3.77E2,-1.2E1,-1.3E1,1.3438663E2,8.2E1,-5E0,-6.690118E1,1.618E3,-2.0031062E2,2E0,1E1,1.2E1,3E0,2.000921E2,9.13E2,1.4939E3,-5.1979942E1,-1.1E1,-1.7E1,1.9600797E2,-1.7E1,-1.5611421E2,1.683E3,1.694E3,-3E0,-5E0,-6E0,-1.0218591E2,-1.611511E2,-5E0,-4E0,1.3438663E2,1E0,3E0,-6.519018E1,2.09E2,3.22E2,6.53E2,-7.155298E1,1.8E1,0E0,3.55E2,0E0,3.0597565E2,3.77E2,1.9600797E2,7.248E2,1.7E1,-9.362712E-2,-1.0124713E-1,-9.3997754E-2,-7.960203E-2,-9.366597E-2,-8.336115E-2,-6.857531E-2,-1.4540811E-2,-8.66498E-2,-7.409626E-2,-7.203781E-2,-5.3416856E-2,-5.4103084E-2,-3.221263E-2,-2.3424743E-2,-1.5062149E-4,-9.681959E-2,-8.4368505E-2,-9.2487596E-2,-6.769823E-2,-7.868065E-2,-6.535198E-2,-6.157111E-2,-4.52927E-2,-5.76518E-2,-4.5610797E-2,-4.0131442E-2,-2.3057243E-2,-3.071327E-2,-7.973327E-3,-5.746249E-3,2.2051955E-2,-4.9450215E-2,-2.3304759E-2,-2.793928E-2,-5.114637E-3,-2.0232381E-2,-5.4776487E-3,5.4492313E-2,4.7234325E-3,6.978415E-2,3.4764674E-2,7.6224536E-2,6.394785E-2,6.7969034E-3,2.4901714E-2,4.102321E-2,6.389359E-2,-7.036337E-3,1.2109574E-2,5.7584066E-2,2.6066834E-2,1.278614E-2,3.4324568E-2,4.7428157E-2,5.9737552E-2,7.1270086E-2,5.9598453E-2,4.5058038E-2,6.1963227E-2,7.359364E-2,6.9452874E-2,5.9101272E-2,6.8169646E-2],"split_indices":[1,1,3,0,0,1,1,0,3,0,3,3,0,3,1,0,1,1,3,0,1,3,0,3,1,1,1,1,3,0,0,3,1,1,3,1,3,0,0,1,1,1,3,3,1,1,3,1,1,3,0,0,0,3,1,1,0,1,3,0,3,0,1,0,0,0,0,0,0,0,0,0,0,0,0,0,0,0,0,0,0,0,0,0,0,0,0,0,0,0,0,0,0,0,0,0,0,0,0,0,0,0,0,0,0,0,0,0,0,0,0,0,0,0,0,0,0,0,0,0,0,0,0,0,0,0,0],"split_type":[0,0,0,0,0,0,0,0,0,0,0,0,0,0,0,0,0,0,0,0,0,0,0,0,0,0,0,0,0,0,0,0,0,0,0,0,0,0,0,0,0,0,0,0,0,0,0,0,0,0,0,0,0,0,0,0,0,0,0,0,0,0,0,0,0,0,0,0,0,0,0,0,0,0,0,0,0,0,0,0,0,0,0,0,0,0,0,0,0,0,0,0,0,0,0,0,0,0,0,0,0,0,0,0,0,0,0,0,0,0,0,0,0,0,0,0,0,0,0,0,0,0,0,0,0,0,0],"sum_hessian":[2.4118572E6,4.466267E5,1.9652305E6,2.0217275E5,2.4445392E5,9.687406E5,9.964898E5,1.1959194E5,8.258081E4,4.009805E4,2.0435588E5,8.130158E5,1.5572483E5,7.7337944E5,2.2311042E5,6.3903207E4,5.5688727E4,6.2464215E4,2.0116602E4,1.9211531E4,2.088652E4,1.4130578E5,6.3050098E4,3.3185156E5,4.8116425E5,6.8848836E4,8.687599E4,3.8783384E5,3.8554556E5,1.0857694E5,1.14533484E5,3.771595E4,2.6187256E4,3.3984582E4,2.1704148E4,2.3804676E4,3.865954E4,1.3724583E4,6.3920186E3,1.3247311E4,5.9642217E3,9.349821E3,1.1536699E4,7.995573E4,6.1350047E4,2.583411E4,3.721599E4,1.2598886E5,2.058627E5,4.1445966E5,6.67046E4,2.4686201E4,4.4162633E4,5.7906066E4,2.896992E4,3.369626E5,5.087125E4,2.728099E5,1.1273566E5,3.7592293E4,7.098464E4,8.8280695E4,2.625279E4,2.1860582E4,1.5855367E4,1.9066926E4,7.120331E3,1.6613562E4,1.7371018E4,2.1058621E4,6.455261E2,1.0010313E4,1.3794363E4,1.1239359E4,2.7420178E4,5.1721675E3,8.552415E3,2.3501309E3,4.041888E3,1.0453805E4,2.7935063E3,2.6707993E3,3.293422E3,6.0153E3,3.3345212E3,3.32896E3,8.207739E3,3.2440332E4,4.7515395E4,2.5528936E4,3.5821113E4,1.5720341E4,1.0113769E4,2.341811E4,1.3797877E4,1.0886478E5,1.7124082E4,1.8722556E5,1.8637137E4,1.5549395E5,2.589657E5,5.8821836E3,6.0822418E4,8.639753E3,1.6046449E4,2.7736557E4,1.6426076E4,3.1378318E4,2.652775E4,2.0826193E4,8.143727E3,2.7770086E4,3.091925E5,6.6173833E3,4.4253867E4,1.7758984E4,2.5505092E5,9.550133E4,1.7234324E4,1.636612E4,2.1226174E4,5.8637496E4,1.2347149E4,4.8212285E4,4.006841E4,1.4749475E4,1.1503314E4],"tree_param":{"num_deleted":"0","num_feature":"4","num_nodes":"127","size_leaf_vector":"1"}},{"base_weights":[3.142184E-3,-3.946667E-1,4.7375667E-1,-6.967966E-1,-1.8260746E-1,2.2052912E-1,7.019545E-1,-9.061874E-1,-5.4552495E-1,-3.319549E-1,-7.0468E-2,7.099482E-2,2.8107968E-1,5.9938157E-1,9.596917E-1,-1.0273415E0,-8.283915E-1,-5.977068E-1,-5.250763E-1,-3.6299115E-1,-2.3026986E-1,-1.2662992E-1,-1.3601499E-2,8.8337086E-2,-1.878672E-1,2.556026E-1,3.284984E-1,5.298322E-1,6.63816E-1,9.3323654E-1,1.1891226E0,-1.1134967E0,-9.583218E-1,-8.328894E-1,-3.2556763E-1,-5.3949624E-1,-6.704643E-1,-4.3409866E-1,-5.5705273E-1,-1.9235337E-1,-3.7717855E-1,-1.6975182E-1,-4.1136724E-1,-1.2264832E-1,-5.680014E-1,4.515232E-2,-5.8360253E-2,7.3035896E-2,1.8824086E-1,-1.8553239E-1,-3.5887077E-1,2.8587264E-1,8.938294E-2,4.5994723E-1,3.0657196E-1,3.3201513E-1,5.3808767E-1,6.701746E-1,-1.782579E-1,9.8510337E-1,8.968893E-1,1.191274E0,3.412988E-1,-4.2620756E-2,-5.6178924E-2,-4.6389155E-2,-5.0213363E-2,-4.3607283E-2,-3.9018214E-2,-1.2277308E-2,-7.9129465E-2,-2.9826706E-2,-1.5574211E-2,-3.8511228E-2,-3.186074E-2,-2.5951639E-2,2.4527853E-4,-2.8447365E-2,-2.3357818E-2,-6.962297E-3,-1.2243246E-2,-2.4225201E-2,-1.7441774E-2,-1.0984744E-2,4.2225025E-3,-1.7694663E-2,-2.3425719E-2,-7.770337E-3,-4.335548E-3,-1.9426009E-2,-8.697736E-2,9.701052E-4,1.3884767E-2,-6.4652055E-3,1.3576205E-3,-4.5485264E-3,3.8117708E-3,9.648475E-3,-1.4802261E-2,-9.494974E-3,-6.1792512E-3,-9.047037E-3,-2.2747686E-2,1.2019405E-2,1.7035648E-2,-3.0787212E-3,6.9977017E-3,2.33386E-2,-2.6631234E-2,1.3454686E-2,1.9115193E-2,3.0048627E-2,1.5266384E-2,3.2732572E-2,2.6319603E-2,3.131476E-2,3.611862E-2,1.7706087E-2,-1.8526716E-2,4.5138907E-2,5.4760206E-2,3.7843853E-2,4.9596615E-2,5.725975E-2,6.1829478E-2,7.0626296E-2,-2.8175918E-2],"categories":[],"categories_nodes":[],"categories_segments":[],"categories_sizes":[],"default_left":[0,0,0,0,0,0,0,0,0,0,0,0,0,0,0,0,0,0,0,0,0,0,0,0,0,0,0,0,0,0,0,0,0,0,0,0,0,0,0,0,0,0,0,0,0,0,0,0,0,0,0,0,0,0,0,0,0,0,0,0,0,0,0,0,0,0,0,0,0,0,0,0,0,0,0,0,0,0,0,0,0,0,0,0,0,0,0,0,0,0,0,0,0,0,0,0,0,0,0,0,0,0,0,0,0,0,0,0,0,0,0,0,0,0,0,0,0,0,0,0,0,0,0,0,0,0,0],"id":8,"left_children":[1,3,5,7,9,11,13,15,17,19,21,23,25,27,29,31,33,35,37,39,41,43,45,47,49,51,53,55,57,59,61,63,65,67,69,71,73,75,77,79,81,83,85,87,89,91,93,95,97,99,101,103,105,107,109,111,113,115,117,119,121,123,125,-1,-1,-1,-1,-1,-1,-1,-1,-1,-1,-1,-1,-1,-1,-1,-1,-1,-1,-1,-1,-1,-1,-1,-1,-1,-1,-1,-1,-1,-1,-1,-1,-1,-1,-1,-1,-1,-1,-1,-1,-1,-1,-1,-1,-1,-1,-1,-1,-1,-1,-1,-1,-1,-1,-1,-1,-1,-1,-1,-1,-1,-1,-1,-1],"loss_changes":[4.4965784E5,8.339239E4,6.3578E4,1.70025E4,1.2808643E4,4.722004E3,1.5298906E4,2.1212188E3,3.3223438E2,1.0350195E3,1.3950662E3,6.748094E2,4.4836328E2,1.8547969E3,9.988281E2,5.224219E2,3.0983594E2,3.7122656E2,6.5116016E2,6.0826953E2,8.405447E2,3.861443E2,5.7078094E2,2.1533533E2,3.7016602E0,1.2149463E3,3.7377637E2,3.249453E2,1.1507031E3,2.7760156E2,3.0652344E1,1.0209375E2,6.766406E1,2.7952344E2,1.2205388E2,6.337705E2,1.2884375E2,2.171496E3,1.7689844E2,5.3764038E1,7.055508E2,7.299027E2,6.2931396E1,2.563977E2,4.124065E2,5.619801E2,7.473864E2,6.4112915E1,4.2903442E1,2.4960327E0,2.072771E0,5.0945508E2,2.840077E2,1.2587036E2,3.1548535E2,5.708319E1,2.6020312E2,4.8803125E2,1.650652E2,5.506094E2,1.1551797E3,3.405078E1,4.3934822E1,0E0,0E0,0E0,0E0,0E0,0E0,0E0,0E0,0E0,0E0,0E0,0E0,0E0,0E0,0E0,0E0,0E0,0E0,0E0,0E0,0E0,0E0,0E0,0E0,0E0,0E0,0E0,0E0,0E0,0E0,0E0,0E0,0E0,0E0,0E0,0E0,0E0,0E0,0E0,0E0,0E0,0E0,0E0,0E0,0E0,0E0,0E0,0E0,0E0,0E0,0E0,0E0,0E0,0E0,0E0,0E0,0E0,0E0,0E0,0E0,0E0,0E0,0E0,0E0],"parents":[2147483647,0,0,1,1,2,2,3,3,4,4,5,5,6,6,7,7,8,8,9,9,10,10,11,11,12,12,13,13,14,14,15,15,16,16,17,17,18,18,19,19,20,20,21,21,22,22,23,23,24,24,25,25,26,26,27,27,28,28,29,29,30,30,31,31,32,32,33,33,34,34,35,35,36,36,37,37,38,38,39,39,40,40,41,41,42,42,43,43,44,44,45,45,46,46,47,47,48,48,49,49,50,50,51,51,52,52,53,53,54,54,55,55,56,56,57,57,58,58,59,59,60,60,61,61,62,62],"right_children":[2,4,6,8,10,12,14,16,18,20,22,24,26,28,30,32,34,36,38,40,42,44,46,48,50,52,54,56,58,60,62,64,66,68,70,72,74,76,78,80,82,84,86,88,90,92,94,96,98,100,102,104,106,108,110,112,114,116,118,120,122,124,126,-1,-1,-1,-1,-1,-1,-1,-1,-1,-1,-1,-1,-1,-1,-1,-1,-1,-1,-1,-1,-1,-1,-1,-1,-1,-1,-1,-1,-1,-1,-1,-1,-1,-1,-1,-1,-1,-1,-1,-1,-1,-1,-1,-1,-1,-1,-1,-1,-1,-1,-1,-1,-1,-1,-1,-1,-1,-1,-1,-1,-1,-1,-1,-1],"split_conditions":[7.6218324E0,-1.1117014E2,9.1070015E1,-1.8974811E2,-5.4741325E1,2.9104694E1,2.000921E2,-2.5134111E2,-1.611511E2,-6.690118E1,-2.1984509E1,2.7796906E1,6.720555E1,1.3207828E2,3.22599E2,-2.9514557E2,1E0,-1.7365935E2,-1.4616685E2,-1.07521515E2,-5.7287178E1,1E0,-9.306289E0,2.5078705E1,1E0,6.098984E1,7.043157E1,6.3E1,1E0,2.2978325E2,1E0,6.3E1,-2.665046E2,-2.1187708E2,-1.9323283E2,-1.7659587E2,-1.7011641E2,-1.4843063E2,-1.1501768E2,-1.09452835E2,-9.847953E1,-5.8781868E1,-5.59312E1,-3.8032154E1,-2.6039892E1,-1.0536246E1,0E0,1.93E1,1E0,2.65E3,6.3E1,4.61859E1,6.2500652E1,1E0,8.4149445E1,9.444129E1,9.444129E1,1.6486388E2,1.4656679E2,2.1532594E2,2.5331786E2,3.5013452E2,3.5013452E2,-4.2620756E-2,-5.6178924E-2,-4.6389155E-2,-5.0213363E-2,-4.3607283E-2,-3.9018214E-2,-1.2277308E-2,-7.9129465E-2,-2.9826706E-2,-1.5574211E-2,-3.8511228E-2,-3.186074E-2,-2.5951639E-2,2.4527853E-4,-2.8447365E-2,-2.3357818E-2,-6.962297E-3,-1.2243246E-2,-2.4225201E-2,-1.7441774E-2,-1.0984744E-2,4.2225025E-3,-1.7694663E-2,-2.3425719E-2,-7.770337E-3,-4.335548E-3,-1.9426009E-2,-8.697736E-2,9.701052E-4,1.3884767E-2,-6.4652055E-3,1.3576205E-3,-4.5485264E-3,3.8117708E-3,9.648475E-3,-1.4802261E-2,-9.494974E-3,-6.1792512E-3,-9.047037E-3,-2.2747686E-2,1.2019405E-2,1.7035648E-2,-3.0787212E-3,6.9977017E-3,2.33386E-2,-2.6631234E-2,1.3454686E-2,1.9115193E-2,3.0048627E-2,1.5266384E-2,3.2732572E-2,2.6319603E-2,3.131476E-2,3.611862E-2,1.7706087E-2,-1.8526716E-2,4.5138907E-2,5.4760206E-2,3.7843853E-2,4.9596615E-2,5.725975E-2,6.1829478E-2,7.0626296E-2,-2.8175918E-2],"split_indices":[3,3,3,3,3,3,3,3,3,3,3,3,3,3,3,3,2,3,3,3,3,2,3,3,2,3,3,0,2,3,2,0,3,3,3,3,3,3,3,3,3,3,3,3,3,3,3,0,2,0,0,3,3,2,3,3,3,3,3,3,3,3,3,0,0,0,0,0,0,0,0,0,0,0,0,0,0,0,0,0,0,0,0,0,0,0,0,0,0,0,0,0,0,0,0,0,0,0,0,0,0,0,0,0,0,0,0,0,0,0,0,0,0,0,0,0,0,0,0,0,0,0,0,0,0,0,0],"split_type":[0,0,0,0,0,0,0,0,0,0,0,0,0,0,0,0,0,0,0,0,0,0,0,0,0,0,0,0,0,0,0,0,0,0,0,0,0,0,0,0,0,0,0,0,0,0,0,0,0,0,0,0,0,0,0,0,0,0,0,0,0,0,0,0,0,0,0,0,0,0,0,0,0,0,0,0,0,0,0,0,0,0,0,0,0,0,0,0,0,0,0,0,0,0,0,0,0,0,0,0,0,0,0,0,0,0,0,0,0,0,0,0,0,0,0,0,0,0,0,0,0,0,0,0,0,0,0],"sum_hessian":[2.4018288E6,1.3015949E6,1.1002338E6,5.367962E5,7.6479875E5,5.2151672E5,5.7871706E5,2.251448E5,3.1165138E5,3.279854E5,4.368133E5,1.503119E5,3.712048E5,4.1397056E5,1.647465E5,8.8034195E4,1.3711061E5,8.7735586E4,2.2391578E5,2.5128562E5,7.669979E4,2.197675E5,2.1704581E5,1.4087477E5,9.437141E3,2.4147292E5,1.297319E5,1.9908784E5,2.1488272E5,1.4771848E5,1.7028023E4,3.9149664E4,4.8884535E4,1.3589434E5,1.2162585E3,4.874499E4,3.8990598E4,5.8237152E4,1.6567864E5,1.929012E4,2.319955E5,5.7490043E4,1.9209744E4,2.1780398E5,1.9635286E3,9.385043E4,1.2319538E5,1.2216569E5,1.8709074E4,9.312083E3,1.2505785E2,2.0427242E5,3.720049E4,1.8543533E4,1.1118836E5,7.9773286E3,1.9111052E5,2.1327247E5,1.6102495E3,6.085431E4,8.686417E4,1.6984518E4,4.350678E1,1.4587379E3,3.7690926E4,2.9378553E4,1.9505982E4,7.776133E4,5.813302E4,1.1445897E3,7.1668755E1,3.898993E4,9.755059E3,9.741245E3,2.9249354E4,4.8796344E4,9.44081E3,1.4631386E5,1.9364773E4,9.592459E3,9.697659E3,4.846382E4,1.8353169E5,4.804983E4,9.440216E3,9.581066E3,9.628678E3,1.13939766E5,1.0386421E5,1.7038325E3,2.5969608E2,8.44951E4,9.355324E3,6.733322E4,5.5862168E4,2.3371392E3,1.1982855E5,1.8528758E4,1.8031581E2,8.696914E3,6.151683E2,4.4862667E1,8.019518E1,1.1166386E5,9.260857E4,9.334951E3,2.786554E4,1.8417428E4,1.2610539E2,7.4382484E4,3.680588E4,7.1815955E2,7.259169E3,1.7421814E4,1.7368869E5,1.1587586E5,9.739662E4,4.2703177E2,1.1832178E3,3.4824375E4,2.6029932E4,3.512656E4,5.1737613E4,8.43434E3,8.550178E3,1.9664524E1,2.3842253E1],"tree_param":{"num_deleted":"0","num_feature":"4","num_nodes":"127","size_leaf_vector":"1"}},{"base_weights":[3.4409773E-3,-1.0357044E0,2.4100487E-1,-1.4785808E0,-7.512733E-1,4.2704467E-2,1.0242056E0,-1.6733488E0,-1.1187888E0,-1.2976824E0,-5.7646775E-1,3.2814972E-3,4.050615E-1,7.847026E-1,1.2879746E0,-1.7755115E0,-1.5032955E0,-1.4494076E0,-9.987679E-1,-1.6608369E0,-1.0703787E0,-8.1949806E-1,-4.5665833E-1,-2.8179336E-1,2.8638186E-2,1.1515085E0,3.2750615E-1,1.2054812E0,6.3827455E-1,1.3943824E0,1.0870667E0,-1.8095183E0,-1.636974E0,-1.6829466E0,-1.3209941E0,-1.6412823E0,-1.3715696E0,-1.1219242E0,-8.819725E-1,-1.7963034E0,-1.4771793E0,-1.381956E0,-8.816255E-1,-1.0086246E0,-6.8894464E-1,-5.6879413E-1,-3.6637902E-1,-1.0339264E0,-2.1862721E-1,2.1244857E-2,1.7639792E-1,1.4215388E0,9.108363E-1,4.7805265E-1,2.721374E-1,1.414375E0,1.0545293E0,4.7998962E-1,7.488685E-1,1.4489781E0,1.3107486E0,9.749695E-1,1.274978E0,-9.239066E-2,-8.829279E-2,-8.922443E-2,-7.1935795E-2,-8.830572E-2,-7.942496E-2,-7.01298E-2,-6.1211687E-2,-8.5337654E-2,-7.348146E-2,-7.1222275E-2,-5.6800425E-2,-6.0757346E-2,-5.302852E-2,-5.1048227E-2,-4.065212E-2,-9.223988E-2,-7.9603545E-2,-8.606788E-2,-6.1349865E-2,-7.660185E-2,-6.515261E-2,-5.1614184E-2,-3.73169E-2,-5.5570897E-2,-4.7299594E-2,-3.772316E-2,-2.7919753E-2,-3.6135323E-2,-2.4106756E-2,-2.3038028E-2,-1.5015456E-2,-7.962061E-2,-3.8610183E-2,-2.0951604E-2,-8.421481E-3,1.1597004E-3,-8.270404E-3,5.138225E-2,6.7177983E-3,6.584485E-2,7.3990695E-2,3.5577897E-2,5.0899774E-2,1.7082449E-2,2.742416E-2,9.262249E-3,1.6043272E-2,7.3611334E-2,6.5781295E-2,4.573809E-2,6.075583E-2,2.8318891E-2,2.0275196E-2,4.3173607E-2,3.2057427E-2,7.359082E-2,7.068906E-2,6.065012E-2,7.099083E-2,5.3634416E-2,4.613584E-2,5.9793092E-2,6.9378205E-2],"categories":[],"categories_nodes":[],"categories_segments":[],"categories_sizes":[],"default_left":[0,0,0,0,0,0,0,0,0,0,0,0,0,0,0,0,0,0,0,0,0,0,0,0,0,0,0,0,0,0,0,0,0,0,0,0,0,0,0,0,0,0,0,0,0,0,0,0,0,0,0,0,0,0,0,0,0,0,0,0,0,0,0,0,0,0,0,0,0,0,0,0,0,0,0,0,0,0,0,0,0,0,0,0,0,0,0,0,0,0,0,0,0,0,0,0,0,0,0,0,0,0,0,0,0,0,0,0,0,0,0,0,0,0,0,0,0,0,0,0,0,0,0,0,0,0,0],"id":9,"left_children":[1,3,5,7,9,11,13,15,17,19,21,23,25,27,29,31,33,35,37,39,41,43,45,47,49,51,53,55,57,59,61,63,65,67,69,71,73,75,77,79,81,83,85,87,89,91,93,95,97,99,101,103,105,107,109,111,113,115,117,119,121,123,125,-1,-1,-1,-1,-1,-1,-1,-1,-1,-1,-1,-1,-1,-1,-1,-1,-1,-1,-1,-1,-1,-1,-1,-1,-1,-1,-1,-1,-1,-1,-1,-1,-1,-1,-1,-1,-1,-1,-1,-1,-1,-1,-1,-1,-1,-1,-1,-1,-1,-1,-1,-1,-1,-1,-1,-1,-1,-1,-1,-1,-1,-1,-1,-1],"loss_changes":[5.911869E5,5.6131562E4,3.027255E5,1.221E4,2.5917016E4,2.2218816E4,2.4877219E4,1.9615312E3,2.4273281E3,5.427078E3,5.9855625E3,1.013994E4,8.834625E3,1.2716352E4,4.0049688E3,3.2973438E2,1.3876562E3,2.411836E2,6.449844E2,6.271953E2,2.3778242E3,1.6753672E3,1.3938027E3,5.443418E3,1.4072522E3,9.3218945E2,1.1522773E3,1.6786641E3,2.6800547E3,5.575156E2,1.3657188E3,9.15625E1,4.048125E2,1.650586E2,1.646289E2,5.029785E1,1.4288477E2,1.2371484E2,2.2004688E2,1.413125E2,6.5472656E2,1.7870117E2,5.127383E2,1.7741406E2,3.4310547E2,8.1878516E2,4.755713E2,1.2963047E3,1.0633003E3,4.4633093E2,2.1966807E3,3.9316406E1,1.615166E2,3.5693652E2,4.279204E2,1.2573828E2,6.9322266E2,4.0504883E2,1.1121992E3,5.7515625E1,5.142656E2,2.0657812E2,2.1429688E2,0E0,0E0,0E0,0E0,0E0,0E0,0E0,0E0,0E0,0E0,0E0,0E0,0E0,0E0,0E0,0E0,0E0,0E0,0E0,0E0,0E0,0E0,0E0,0E0,0E0,0E0,0E0,0E0,0E0,0E0,0E0,0E0,0E0,0E0,0E0,0E0,0E0,0E0,0E0,0E0,0E0,0E0,0E0,0E0,0E0,0E0,0E0,0E0,0E0,0E0,0E0,0E0,0E0,0E0,0E0,0E0,0E0,0E0,0E0,0E0,0E0,0E0,0E0,0E0],"parents":[2147483647,0,0,1,1,2,2,3,3,4,4,5,5,6,6,7,7,8,8,9,9,10,10,11,11,12,12,13,13,14,14,15,15,16,16,17,17,18,18,19,19,20,20,21,21,22,22,23,23,24,24,25,25,26,26,27,27,28,28,29,29,30,30,31,31,32,32,33,33,34,34,35,35,36,36,37,37,38,38,39,39,40,40,41,41,42,42,43,43,44,44,45,45,46,46,47,47,48,48,49,49,50,50,51,51,52,52,53,53,54,54,55,55,56,56,57,57,58,58,59,59,60,60,61,61,62,62],"right_children":[2,4,6,8,10,12,14,16,18,20,22,24,26,28,30,32,34,36,38,40,42,44,46,48,50,52,54,56,58,60,62,64,66,68,70,72,74,76,78,80,82,84,86,88,90,92,94,96,98,100,102,104,106,108,110,112,114,116,118,120,122,124,126,-1,-1,-1,-1,-1,-1,-1,-1,-1,-1,-1,-1,-1,-1,-1,-1,-1,-1,-1,-1,-1,-1,-1,-1,-1,-1,-1,-1,-1,-1,-1,-1,-1,-1,-1,-1,-1,-1,-1,-1,-1,-1,-1,-1,-1,-1,-1,-1,-1,-1,-1,-1,-1,-1,-1,-1,-1,-1,-1,-1,-1,-1,-1,-1],"split_conditions":[-2E0,-9E0,6E0,1.38E3,7.398E2,3E0,1.2E1,8.15E2,-1.5E1,2.2E2,-6E0,0E0,2.31E2,7.203E2,1.261E3,-1.1E1,-1.4E1,-2E1,1.867E3,8.2E1,-6E0,1.586E3,-4E0,2.09E2,2E0,5.44E1,1.127E3,2.65E2,8E0,7.203E2,1.7E1,4.22E2,4.68E2,-1.8E1,-1.1E1,1.835E3,2.106E3,-1.2E1,-1.2E1,-3E0,-5E0,4.11E2,-4E0,1.069E3,2.292E3,1.597E3,1.803E3,2.49E1,9.68E2,1E0,9.2E1,4E0,4E0,4E0,4E0,1.34E2,9E0,1.752E3,1.651E3,4.22E2,1.8E1,1.618E3,2.1E1,-9.239066E-2,-8.829279E-2,-8.922443E-2,-7.1935795E-2,-8.830572E-2,-7.942496E-2,-7.01298E-2,-6.1211687E-2,-8.5337654E-2,-7.348146E-2,-7.1222275E-2,-5.6800425E-2,-6.0757346E-2,-5.302852E-2,-5.1048227E-2,-4.065212E-2,-9.223988E-2,-7.9603545E-2,-8.606788E-2,-6.1349865E-2,-7.660185E-2,-6.515261E-2,-5.1614184E-2,-3.73169E-2,-5.5570897E-2,-4.7299594E-2,-3.772316E-2,-2.7919753E-2,-3.6135323E-2,-2.4106756E-2,-2.3038028E-2,-1.5015456E-2,-7.962061E-2,-3.8610183E-2,-2.0951604E-2,-8.421481E-3,1.1597004E-3,-8.270404E-3,5.138225E-2,6.7177983E-3,6.584485E-2,7.3990695E-2,3.5577897E-2,5.0899774E-2,1.7082449E-2,2.742416E-2,9.262249E-3,1.6043272E-2,7.3611334E-2,6.5781295E-2,4.573809E-2,6.075583E-2,2.8318891E-2,2.0275196E-2,4.3173607E-2,3.2057427E-2,7.359082E-2,7.068906E-2,6.065012E-2,7.099083E-2,5.3634416E-2,4.613584E-2,5.9793092E-2,6.9378205E-2],"split_indices":[1,1,1,0,0,1,1,0,1,0,1,1,0,0,0,1,1,1,0,0,1,0,1,0,1,0,0,0,1,0,1,0,0,1,1,0,0,1,1,1,1,0,1,0,0,0,0,0,0,2,0,1,1,1,1,0,1,0,0,0,1,0,1,0,0,0,0,0,0,0,0,0,0,0,0,0,0,0,0,0,0,0,0,0,0,0,0,0,0,0,0,0,0,0,0,0,0,0,0,0,0,0,0,0,0,0,0,0,0,0,0,0,0,0,0,0,0,0,0,0,0,0,0,0,0,0,0],"split_type":[0,0,0,0,0,0,0,0,0,0,0,0,0,0,0,0,0,0,0,0,0,0,0,0,0,0,0,0,0,0,0,0,0,0,0,0,0,0,0,0,0,0,0,0,0,0,0,0,0,0,0,0,0,0,0,0,0,0,0,0,0,0,0,0,0,0,0,0,0,0,0,0,0,0,0,0,0,0,0,0,0,0,0,0,0,0,0,0,0,0,0,0,0,0,0,0,0,0,0,0,0,0,0,0,0,0,0,0,0,0,0,0,0,0,0,0,0,0,0,0,0,0,0,0,0,0,0],"sum_hessian":[2.3947915E6,4.456106E5,1.9491809E6,1.7426511E5,2.713455E5,1.5553734E6,3.938075E5,1.1305879E5,6.1206316E4,6.5766234E4,2.0557925E5,1.4027598E6,1.5261353E5,2.0639983E5,1.8740767E5,7.0621875E4,4.2436914E4,1.6298402E4,4.4907914E4,2.5315049E4,4.0451184E4,6.788018E4,1.3769908E5,1.14579484E5,1.2881802E6,1.4362733E4,1.382508E5,5.328158E4,1.5311825E5,1.2251408E5,6.4893594E4,5.66933E4,1.3928576E4,2.1369684E4,2.1067229E4,4.6978574E3,1.1600545E4,2.1854535E4,2.3053379E4,1.4563893E4,1.0751157E4,1.5258106E4,2.5193074E4,2.7718705E4,4.0161477E4,6.1412902E4,7.628617E4,8.875975E3,1.0570351E5,1.2267972E6,6.1383066E4,6.766226E3,7.5965073E3,3.7172336E4,1.0107846E5,2.2347604E4,3.0933975E4,6.298206E4,9.013619E4,7.411556E4,4.8398516E4,4.0650203E4,2.424339E4,3.0181201E4,2.65121E4,7.981738E3,5.9468384E3,1.1353979E4,1.0015705E4,1.1421528E4,9.6457E3,3.3942874E3,1.30357E3,9.469827E3,2.1307178E3,8.666941E3,1.3187594E4,7.63805E3,1.5415329E4,1.1762831E4,2.801062E3,5.437885E3,5.3132725E3,5.251307E3,1.00068E4,1.1916291E4,1.3276784E4,1.0488354E4,1.7230352E4,2.6737848E4,1.3423626E4,2.2119611E4,3.929329E4,3.1410287E4,4.4875887E4,2.830639E3,6.0453354E3,2.1171758E4,8.453175E4,1.2141195E6,1.2677741E4,2.8878438E3,5.8495223E4,2.4287095E3,4.337517E3,2.6591208E3,4.9373867E3,1.26598E4,2.4512537E4,3.6318914E4,6.4759547E4,1.4083152E4,8.264451E3,1.6542703E4,1.4391272E4,2.9158057E4,3.3824E4,4.366931E4,4.6466883E4,4.492444E4,2.9191117E4,2.5530441E4,2.2868074E4,1.4156449E4,2.6493754E4,1.4244882E4,9.99851E3],"tree_param":{"num_deleted":"0","num_feature":"4","num_nodes":"127","size_leaf_vector":"1"}},{"base_weights":[3.330999E-3,-9.844569E-1,2.2990319E-1,-1.409619E0,-7.1310675E-1,4.0247913E-2,9.907446E-1,-1.604531E0,-1.0742376E0,-1.3285524E0,-5.721707E-1,2.7864745E-3,3.858132E-1,7.222394E-1,1.2198027E0,-1.7049276E0,-1.4453478E0,-1.3890283E0,-9.5799106E-1,-1.640569E0,-1.1053504E0,-8.112577E-1,-4.5237842E-1,-2.673124E-1,2.6878122E-2,1.154529E0,3.1526044E-1,1.1572717E0,5.841014E-1,1.3506951E0,1.0203934E0,-1.768752E0,-1.6386639E0,-1.6201385E0,-1.2658159E0,-1.5490756E0,-1.2933205E0,-1.0816991E0,-8.410508E-1,-1.7377796E0,-1.4641377E0,-1.3444864E0,-8.5444134E-1,-9.978684E-1,-6.5567726E-1,-6.5278083E-1,-3.89684E-1,-1.176862E0,-2.2033386E-1,1.9714214E-2,1.7018227E-1,1.3798232E0,9.1166E-1,5.0905883E-1,2.7057338E-1,1.3791482E0,1.000955E0,4.6495396E-1,6.891478E-1,1.4144984E0,1.2640401E0,8.942658E-1,1.2181573E0,-8.931797E-2,-8.7007605E-2,-8.725929E-2,-7.531213E-2,-8.479967E-2,-7.663069E-2,-6.752748E-2,-5.8286536E-2,-8.173252E-2,-6.99468E-2,-6.975444E-2,-5.991316E-2,-5.826379E-2,-5.132962E-2,-4.8950102E-2,-3.859923E-2,-8.949183E-2,-8.142427E-2,-8.353241E-2,-6.1012533E-2,-7.4120566E-2,-6.1102122E-2,-4.755833E-2,-3.375244E-2,-5.5625316E-2,-4.493771E-2,-3.5839114E-2,-2.6699334E-2,-3.906204E-2,-2.6797423E-2,-2.4463361E-2,-1.5582161E-2,-7.734494E-2,-4.4030916E-2,-2.6393993E-2,-8.9887185E-3,1.0790826E-3,-7.966676E-3,4.9443334E-2,6.506234E-3,6.358862E-2,7.203538E-2,4.074549E-2,5.652684E-2,1.8269187E-2,2.916723E-2,9.156417E-3,1.5962305E-2,7.18028E-2,6.362216E-2,4.206218E-2,5.592971E-2,2.7436605E-2,1.9401355E-2,4.1976143E-2,3.0501515E-2,7.20209E-2,6.895258E-2,5.671839E-2,6.835367E-2,4.971285E-2,4.0849183E-2,5.715852E-2,6.792983E-2],"categories":[],"categories_nodes":[],"categories_segments":[],"categories_sizes":[],"default_left":[0,0,0,0,0,0,0,0,0,0,0,0,0,0,0,0,0,0,0,0,0,0,0,0,0,0,0,0,0,0,0,0,0,0,0,0,0,0,0,0,0,0,0,0,0,0,0,0,0,0,0,0,0,0,0,0,0,0,0,0,0,0,0,0,0,0,0,0,0,0,0,0,0,0,0,0,0,0,0,0,0,0,0,0,0,0,0,0,0,0,0,0,0,0,0,0,0,0,0,0,0,0,0,0,0,0,0,0,0,0,0,0,0,0,0,0,0,0,0,0,0,0,0,0,0,0,0],"id":10,"left_children":[1,3,5,7,9,11,13,15,17,19,21,23,25,27,29,31,33,35,37,39,41,43,45,47,49,51,53,55,57,59,61,63,65,67,69,71,73,75,77,79,81,83,85,87,89,91,93,95,97,99,101,103,105,107,109,111,113,115,117,119,121,123,125,-1,-1,-1,-1,-1,-1,-1,-1,-1,-1,-1,-1,-1,-1,-1,-1,-1,-1,-1,-1,-1,-1,-1,-1,-1,-1,-1,-1,-1,-1,-1,-1,-1,-1,-1,-1,-1,-1,-1,-1,-1,-1,-1,-1,-1,-1,-1,-1,-1,-1,-1,-1,-1,-1,-1,-1,-1,-1,-1,-1,-1,-1,-1,-1],"loss_changes":[5.343035E5,5.138697E4,2.80216E5,1.1341969E4,2.358325E4,2.012298E4,2.3830375E4,1.7514062E3,2.3327734E3,3.526414E3,6.336047E3,9.125755E3,8.245059E3,1.0719125E4,5.4563438E3,2.8171875E2,1.3301406E3,2.6146094E2,6.7302734E2,3.5978125E2,1.7711328E3,2.1433281E3,1.8515879E3,4.907047E3,1.3218472E3,6.980293E2,1.2058262E3,1.4896484E3,1.6942539E3,6.9615625E2,2.0658672E3,1.41484375E1,4.6328125E2,1.401914E2,1.760664E2,8.034473E1,1.0251172E2,1.0305078E2,2.2746094E2,7.455078E1,3.762588E2,2.5356445E2,2.495127E2,3.8046875E2,2.9909375E2,5.266875E2,8.723711E2,6.169321E2,1.362145E3,4.100219E2,2.0102583E3,4.176953E1,1.293789E2,2.7826465E2,4.8157812E2,1.0605859E2,4.729961E2,4.0865625E2,8.5552734E2,6.478125E1,7.137656E2,3.9020703E2,3.3825E2,0E0,0E0,0E0,0E0,0E0,0E0,0E0,0E0,0E0,0E0,0E0,0E0,0E0,0E0,0E0,0E0,0E0,0E0,0E0,0E0,0E0,0E0,0E0,0E0,0E0,0E0,0E0,0E0,0E0,0E0,0E0,0E0,0E0,0E0,0E0,0E0,0E0,0E0,0E0,0E0,0E0,0E0,0E0,0E0,0E0,0E0,0E0,0E0,0E0,0E0,0E0,0E0,0E0,0E0,0E0,0E0,0E0,0E0,0E0,0E0,0E0,0E0,0E0,0E0],"parents":[2147483647,0,0,1,1,2,2,3,3,4,4,5,5,6,6,7,7,8,8,9,9,10,10,11,11,12,12,13,13,14,14,15,15,16,16,17,17,18,18,19,19,20,20,21,21,22,22,23,23,24,24,25,25,26,26,27,27,28,28,29,29,30,30,31,31,32,32,33,33,34,34,35,35,36,36,37,37,38,38,39,39,40,40,41,41,42,42,43,43,44,44,45,45,46,46,47,47,48,48,49,49,50,50,51,51,52,52,53,53,54,54,55,55,56,56,57,57,58,58,59,59,60,60,61,61,62,62],"right_children":[2,4,6,8,10,12,14,16,18,20,22,24,26,28,30,32,34,36,38,40,42,44,46,48,50,52,54,56,58,60,62,64,66,68,70,72,74,76,78,80,82,84,86,88,90,92,94,96,98,100,102,104,106,108,110,112,114,116,118,120,122,124,126,-1,-1,-1,-1,-1,-1,-1,-1,-1,-1,-1,-1,-1,-1,-1,-1,-1,-1,-1,-1,-1,-1,-1,-1,-1,-1,-1,-1,-1,-1,-1,-1,-1,-1,-1,-1,-1,-1,-1,-1,-1,-1,-1,-1,-1,-1,-1,-1,-1,-1,-1,-1,-1,-1,-1,-1,-1,-1,-1,-1,-1,-1,-1,-1],"split_conditions":[-2E0,-9E0,6E0,1.338E3,5.58E2,3E0,1.1E1,7.82E2,-1.5E1,1.66E2,-6E0,0E0,1.98E2,7.06E2,1.186E3,3.89E2,-1.4E1,-1.9E1,1.846E3,-4E0,-5E0,1.586E3,1.236E3,1.02E2,2E0,5.44E1,8.49E2,2.42E2,8E0,6.66E2,1.6E1,2.31E2,-1.4E1,-1.8E1,-1.1E1,1.752E3,1.728E3,-1.2E1,-1.2E1,8.2E1,4.59E1,-7E0,-3E0,1.047E3,2.292E3,-4E0,-4E0,1.93E1,5.58E2,1E0,9.2E1,4E0,5E0,4E0,4E0,1.23E2,8E0,1.772E3,1.44E3,3.66E2,1.6E1,1.694E3,2.1E1,-8.931797E-2,-8.7007605E-2,-8.725929E-2,-7.531213E-2,-8.479967E-2,-7.663069E-2,-6.752748E-2,-5.8286536E-2,-8.173252E-2,-6.99468E-2,-6.975444E-2,-5.991316E-2,-5.826379E-2,-5.132962E-2,-4.8950102E-2,-3.859923E-2,-8.949183E-2,-8.142427E-2,-8.353241E-2,-6.1012533E-2,-7.4120566E-2,-6.1102122E-2,-4.755833E-2,-3.375244E-2,-5.5625316E-2,-4.493771E-2,-3.5839114E-2,-2.6699334E-2,-3.906204E-2,-2.6797423E-2,-2.4463361E-2,-1.5582161E-2,-7.734494E-2,-4.4030916E-2,-2.6393993E-2,-8.9887185E-3,1.0790826E-3,-7.966676E-3,4.9443334E-2,6.506234E-3,6.358862E-2,7.203538E-2,4.074549E-2,5.652684E-2,1.8269187E-2,2.916723E-2,9.156417E-3,1.5962305E-2,7.18028E-2,6.362216E-2,4.206218E-2,5.592971E-2,2.7436605E-2,1.9401355E-2,4.1976143E-2,3.0501515E-2,7.20209E-2,6.895258E-2,5.671839E-2,6.835367E-2,4.971285E-2,4.0849183E-2,5.715852E-2,6.792983E-2],"split_indices":[1,1,1,0,0,1,1,0,1,0,1,1,0,0,0,0,1,1,0,1,1,0,0,0,1,0,0,0,1,0,1,0,1,1,1,0,0,1,1,0,0,1,1,0,0,1,1,0,0,2,0,1,1,1,1,0,1,0,0,0,1,0,1,0,0,0,0,0,0,0,0,0,0,0,0,0,0,0,0,0,0,0,0,0,0,0,0,0,0,0,0,0,0,0,0,0,0,0,0,0,0,0,0,0,0,0,0,0,0,0,0,0,0,0,0,0,0,0,0,0,0,0,0,0,0,0,0],"split_type":[0,0,0,0,0,0,0,0,0,0,0,0,0,0,0,0,0,0,0,0,0,0,0,0,0,0,0,0,0,0,0,0,0,0,0,0,0,0,0,0,0,0,0,0,0,0,0,0,0,0,0,0,0,0,0,0,0,0,0,0,0,0,0,0,0,0,0,0,0,0,0,0,0,0,0,0,0,0,0,0,0,0,0,0,0,0,0,0,0,0,0,0,0,0,0,0,0,0,0,0,0,0,0,0,0,0,0,0,0,0,0,0,0,0,0,0,0,0,0,0,0,0,0,0,0,0,0],"sum_hessian":[2.387357E6,4.4542634E5,1.9419308E6,1.7352942E5,2.718969E5,1.5544526E6,3.8747806E5,1.0974539E5,6.378403E4,5.0660797E4,2.2123612E5,1.4024222E6,1.5203034E5,1.7838122E5,2.0909686E5,6.7293695E4,4.2451703E4,1.7198975E4,4.658506E4,2.1124402E4,2.9536393E4,7.384568E4,1.4739044E5,1.14845375E5,1.2875769E6,1.2779076E4,1.3925127E5,4.298932E4,1.3539189E5,1.26232195E5,8.286466E4,3.426469E4,3.3029E4,2.150581E4,2.094589E4,6.430456E3,1.0768518E4,2.2633455E4,2.3951602E4,1.3614311E4,7.5100913E3,1.5120765E4,1.4415629E4,3.3572176E4,4.0273508E4,3.512004E4,1.122704E5,5.6392886E3,1.09206086E5,1.2262754E6,6.1301527E4,6.62697E3,6.152106E3,2.6090766E4,1.131605E5,1.7765336E4,2.5223984E4,6.3440668E4,7.195123E4,7.269345E4,5.3538742E4,5.0599445E4,3.2265207E4,2.116998E4,1.309471E4,1.8297781E4,1.473122E4,1.1511112E4,9.994697E3,1.1336082E4,9.60981E3,4.0896167E3,2.3408394E3,5.194076E3,5.5744414E3,8.985534E3,1.3647922E4,7.986464E3,1.5965137E4,9.211491E3,4.4028193E3,4.0634927E3,3.4465986E3,7.105633E3,8.015132E3,9.362976E3,5.0526533E3,1.5562276E4,1.80099E4,2.680761E4,1.3465897E4,1.6724912E4,1.8395127E4,4.932473E4,6.2945668E4,2.5054817E3,3.1338071E3,1.2722744E4,9.648334E4,1.2136185E6,1.265696E4,2.858417E3,5.844311E4,2.396253E3,4.2307173E3,4.2695547E3,1.8825515E3,8.89431E3,1.7196455E4,4.0465402E4,7.269509E4,1.1578079E4,6.1872554E3,1.0702301E4,1.4521683E4,3.036508E4,3.3075586E4,2.4801846E4,4.7149383E4,4.1966723E4,3.0726732E4,2.3710244E4,2.9828498E4,2.2053586E4,2.854586E4,2.1040082E4,1.1225125E4],"tree_param":{"num_deleted":"0","num_feature":"4","num_nodes":"127","size_leaf_vector":"1"}},{"base_weights":[3.2106147E-3,-3.6990264E-1,4.42373E-1,-6.481016E-1,-1.7253505E-1,2.0399798E-1,6.6368395E-1,-8.452355E-1,-5.0604165E-1,-3.0812865E-1,-6.8237804E-2,8.134127E-2,2.7133968E-1,5.642198E-1,9.164334E-1,-9.609381E-1,-7.711887E-1,-5.5243564E-1,-4.8785603E-1,-3.3771947E-1,-2.1113332E-1,-1.1896289E-1,-1.4486028E-2,6.615226E-2,1.6801862E-1,1.0849587E-1,2.7707404E-1,4.9508747E-1,6.2306106E-1,8.901921E-1,1.1458389E0,-1.0445931E0,-8.940955E-1,-5.6165165E-1,-7.818607E-1,-4.9901566E-1,-6.191367E-1,-4.0464956E-1,-5.170519E-1,-1.7388767E-1,-3.513599E-1,-1.5443674E-1,-3.801662E-1,-1.15277134E-1,-5.243276E-1,4.7474243E-2,-6.551388E-2,8.149474E-2,-1.7792827E-1,2.619689E-1,1.215083E-1,-1.5835746E-1,1.16391696E-1,2.6630983E-1,3.667052E-1,5.095296E-1,3.5854578E-1,6.300235E-1,-2.5425932E-1,6.274544E-1,8.9776826E-1,1.147901E0,3.4568295E-1,-3.220087E-2,-5.2551683E-2,-4.3171685E-2,-4.700899E-2,-2.9265756E-2,-1.486695E-2,-4.0908277E-2,-3.6671296E-2,-2.7757067E-2,-1.37660075E-2,-3.1222025E-2,3.282991E-3,-2.4148038E-2,-8.681707E-5,-2.6402194E-2,-2.1694547E-2,-9.013975E-3,7.957545E-3,-2.2448631E-2,-1.6279291E-2,-1.0105898E-2,4.437656E-3,-1.6175285E-2,-2.181258E-2,1.8380547E-3,-6.115554E-3,-1.7756226E-2,-8.095475E-2,1.2093196E-3,1.29674645E-2,-6.156299E-3,9.097416E-4,3.3928833E-3,8.879542E-3,-8.755084E-3,-1.9685375E-2,5.596727E-4,1.3362211E-2,-2.4815818E-4,6.2915096E-3,-3.858011E-3,-4.6079043E-2,4.583129E-3,7.838893E-3,1.4644387E-2,1.1910217E-2,2.4755659E-2,1.1982702E-2,3.1128148E-2,2.4811566E-2,1.5059039E-2,2.0806512E-2,1.2937623E-2,3.1791013E-2,-5.801769E-2,-9.155593E-3,2.4644956E-2,3.4227353E-2,4.74664E-2,4.308834E-2,5.5200048E-2,5.955897E-2,6.972956E-2,-2.5057156E-2],"categories":[],"categories_nodes":[],"categories_segments":[],"categories_sizes":[],"default_left":[0,0,0,0,0,0,0,0,0,0,0,0,0,0,0,0,0,0,0,0,0,0,0,0,0,0,0,0,0,0,0,0,0,0,0,0,0,0,0,0,0,0,0,0,0,0,0,0,0,0,0,0,0,0,0,0,0,0,0,0,0,0,0,0,0,0,0,0,0,0,0,0,0,0,0,0,0,0,0,0,0,0,0,0,0,0,0,0,0,0,0,0,0,0,0,0,0,0,0,0,0,0,0,0,0,0,0,0,0,0,0,0,0,0,0,0,0,0,0,0,0,0,0,0,0,0,0],"id":11,"left_children":[1,3,5,7,9,11,13,15,17,19,21,23,25,27,29,31,33,35,37,39,41,43,45,47,49,51,53,55,57,59,61,63,65,67,69,71,73,75,77,79,81,83,85,87,89,91,93,95,97,99,101,103,105,107,109,111,113,115,117,119,121,123,125,-1,-1,-1,-1,-1,-1,-1,-1,-1,-1,-1,-1,-1,-1,-1,-1,-1,-1,-1,-1,-1,-1,-1,-1,-1,-1,-1,-1,-1,-1,-1,-1,-1,-1,-1,-1,-1,-1,-1,-1,-1,-1,-1,-1,-1,-1,-1,-1,-1,-1,-1,-1,-1,-1,-1,-1,-1,-1,-1,-1,-1,-1,-1,-1],"loss_changes":[3.8973475E5,7.06083E4,5.7637203E4,1.4945484E4,1.0638518E4,4.344668E3,1.4242328E4,1.9142188E3,2.6142188E2,9.386504E2,1.1593429E3,2.4543481E2,3.170586E2,1.6535078E3,9.62125E2,4.8677344E2,3.0434375E2,3.1088867E2,5.411289E2,5.599785E2,7.326692E2,3.267849E2,6.527164E2,5.9407245E2,1.2143463E2,2.4359482E1,3.16375E2,3.6844922E2,1.3416797E3,2.8521875E2,2.6695312E1,9.924609E1,6.770703E1,4.116211E1,2.2744531E2,6.087949E2,1.410957E2,1.8264365E3,1.5055469E2,4.1035095E1,5.818828E2,6.639187E2,6.0882324E1,2.3184668E2,3.6450452E2,4.6002606E2,5.459717E2,1.9558124E2,5.6533813E0,1.2172791E1,1.0164581E1,2.052937E1,1.1192108E1,2.1868164E2,5.736006E2,2.538086E2,5.8953857E1,4.6878906E2,1.11309555E2,3.0600708E1,2.5821094E2,2.9798828E1,3.9460224E1,0E0,0E0,0E0,0E0,0E0,0E0,0E0,0E0,0E0,0E0,0E0,0E0,0E0,0E0,0E0,0E0,0E0,0E0,0E0,0E0,0E0,0E0,0E0,0E0,0E0,0E0,0E0,0E0,0E0,0E0,0E0,0E0,0E0,0E0,0E0,0E0,0E0,0E0,0E0,0E0,0E0,0E0,0E0,0E0,0E0,0E0,0E0,0E0,0E0,0E0,0E0,0E0,0E0,0E0,0E0,0E0,0E0,0E0,0E0,0E0,0E0,0E0,0E0,0E0],"parents":[2147483647,0,0,1,1,2,2,3,3,4,4,5,5,6,6,7,7,8,8,9,9,10,10,11,11,12,12,13,13,14,14,15,15,16,16,17,17,18,18,19,19,20,20,21,21,22,22,23,23,24,24,25,25,26,26,27,27,28,28,29,29,30,30,31,31,32,32,33,33,34,34,35,35,36,36,37,37,38,38,39,39,40,40,41,41,42,42,43,43,44,44,45,45,46,46,47,47,48,48,49,49,50,50,51,51,52,52,53,53,54,54,55,55,56,56,57,57,58,58,59,59,60,60,61,61,62,62],"right_children":[2,4,6,8,10,12,14,16,18,20,22,24,26,28,30,32,34,36,38,40,42,44,46,48,50,52,54,56,58,60,62,64,66,68,70,72,74,76,78,80,82,84,86,88,90,92,94,96,98,100,102,104,106,108,110,112,114,116,118,120,122,124,126,-1,-1,-1,-1,-1,-1,-1,-1,-1,-1,-1,-1,-1,-1,-1,-1,-1,-1,-1,-1,-1,-1,-1,-1,-1,-1,-1,-1,-1,-1,-1,-1,-1,-1,-1,-1,-1,-1,-1,-1,-1,-1,-1,-1,-1,-1,-1,-1,-1,-1,-1,-1,-1,-1,-1,-1,-1,-1,-1,-1,-1,-1,-1,-1],"split_conditions":[6.152353E0,-1.1117014E2,9.1070015E1,-1.8974811E2,-5.4741325E1,3.3297466E1,2.000921E2,-2.5134111E2,-1.611511E2,-6.690118E1,-2.1984509E1,2.9104694E1,4.59E1,1.301863E2,3.22599E2,-2.9514557E2,8.2E1,-1.7365935E2,-1.4616685E2,-1.07521515E2,-5.7287178E1,1E0,-9.306289E0,2.7796906E1,3.0527933E1,3.4633076E1,8.4149445E1,1.2585878E2,1E0,4.59E1,1E0,1.93E1,-2.665046E2,1E0,-2.1187708E2,-1.7659587E2,1E0,-1.4843063E2,-1.1501768E2,1E0,-9.847953E1,-5.8781868E1,-5.59312E1,-5.345702E1,-2.6039892E1,-1.0536246E1,0E0,2.5078705E1,1E0,1.93E1,4.59E1,1E0,6.720555E1,5.8094475E1,8.7552635E1,9.444129E1,1.2794832E2,1.93E1,1.3207828E2,9.3E0,2.2978325E2,3.5013452E2,3.5013452E2,-3.220087E-2,-5.2551683E-2,-4.3171685E-2,-4.700899E-2,-2.9265756E-2,-1.486695E-2,-4.0908277E-2,-3.6671296E-2,-2.7757067E-2,-1.37660075E-2,-3.1222025E-2,3.282991E-3,-2.4148038E-2,-8.681707E-5,-2.6402194E-2,-2.1694547E-2,-9.013975E-3,7.957545E-3,-2.2448631E-2,-1.6279291E-2,-1.0105898E-2,4.437656E-3,-1.6175285E-2,-2.181258E-2,1.8380547E-3,-6.115554E-3,-1.7756226E-2,-8.095475E-2,1.2093196E-3,1.29674645E-2,-6.156299E-3,9.097416E-4,3.3928833E-3,8.879542E-3,-8.755084E-3,-1.9685375E-2,5.596727E-4,1.3362211E-2,-2.4815818E-4,6.2915096E-3,-3.858011E-3,-4.6079043E-2,4.583129E-3,7.838893E-3,1.4644387E-2,1.1910217E-2,2.4755659E-2,1.1982702E-2,3.1128148E-2,2.4811566E-2,1.5059039E-2,2.0806512E-2,1.2937623E-2,3.1791013E-2,-5.801769E-2,-9.155593E-3,2.4644956E-2,3.4227353E-2,4.74664E-2,4.308834E-2,5.5200048E-2,5.955897E-2,6.972956E-2,-2.5057156E-2],"split_indices":[3,3,3,3,3,3,3,3,3,3,3,3,0,3,3,3,0,3,3,3,3,2,3,3,3,3,3,3,2,0,2,0,3,2,3,3,2,3,3,2,3,3,3,3,3,3,3,3,2,0,0,2,3,3,3,3,3,0,3,0,3,3,3,0,0,0,0,0,0,0,0,0,0,0,0,0,0,0,0,0,0,0,0,0,0,0,0,0,0,0,0,0,0,0,0,0,0,0,0,0,0,0,0,0,0,0,0,0,0,0,0,0,0,0,0,0,0,0,0,0,0,0,0,0,0,0,0],"split_type":[0,0,0,0,0,0,0,0,0,0,0,0,0,0,0,0,0,0,0,0,0,0,0,0,0,0,0,0,0,0,0,0,0,0,0,0,0,0,0,0,0,0,0,0,0,0,0,0,0,0,0,0,0,0,0,0,0,0,0,0,0,0,0,0,0,0,0,0,0,0,0,0,0,0,0,0,0,0,0,0,0,0,0,0,0,0,0,0,0,0,0,0,0,0,0,0,0,0,0,0,0,0,0,0,0,0,0,0,0,0,0,0,0,0,0,0,0,0,0,0,0,0,0,0,0,0,0],"sum_hessian":[2.3784988E6,1.2859518E6,1.092547E6,5.3368925E5,7.522625E5,5.2599606E5,5.66551E5,2.2351573E5,3.101735E5,3.2706E5,4.2520253E5,1.8643112E5,3.3956494E5,4.0656084E5,1.5999012E5,8.7218984E4,1.3629675E5,8.733662E4,2.2283689E5,2.5060445E5,7.645555E4,2.1875969E5,2.0644283E5,1.586344E5,2.7796715E4,1.1551315E4,3.2801362E5,1.8693798E5,2.1962286E5,1.4357203E5,1.6418084E4,3.8731277E4,4.8487707E4,6.6079644E3,1.2968878E5,4.8501156E4,3.8835465E4,5.7884426E4,1.6495245E5,1.9262373E4,2.3134208E5,5.72536E4,1.9201943E4,2.1678983E5,1.9698678E3,9.323402E4,1.1320881E5,1.4925328E5,9.381138E3,9.202714E3,1.8594002E4,3.3141785E2,1.1219897E4,2.9284816E5,3.516546E4,1.6905425E5,1.7883736E4,2.1789394E5,1.728927E3,4.0262922E3,1.3954575E5,1.6375446E4,4.2638218E1,6.1446967E2,3.811681E4,2.912761E4,1.9360098E4,6.063862E3,5.441021E2,7.411741E4,5.557138E4,3.8771758E4,9.729397E3,3.8537082E4,2.9838214E2,4.846454E4,9.419887E3,1.4569016E5,1.9262305E4,1.8900092E4,3.6228006E2,4.832127E4,1.8302081E5,4.7868414E4,9.385189E3,9.555365E3,9.646578E3,9.585956E3,2.0720388E5,1.7073159E3,2.6255188E2,8.4002195E4,9.23183E3,6.705682E4,4.615199E4,1.3070634E5,1.8546936E4,9.261627E3,1.1951055E2,1.8966457E2,9.013049E3,6.144081E2,1.7979594E4,3.005448E2,3.0873037E1,6.960896E3,4.2590015E3,1.5050967E5,1.423385E5,1.7487906E4,1.7677555E4,1.779065E4,1.512636E5,8.9620625E3,8.921673E3,3.3504175E3,2.1454352E5,1.24758835E2,1.6041682E3,1.2023176E3,2.8239746E3,5.7364902E4,8.218084E4,8.142503E3,8.232943E3,1.875758E1,2.3880636E1],"tree_param":{"num_deleted":"0","num_feature":"4","num_nodes":"127","size_leaf_vector":"1"}},{"base_weights":[3.1891095E-3,-9.338369E-1,2.1860678E-1,-1.34351E0,-6.743071E-1,3.8588636E-2,9.546763E-1,-1.5536577E0,-1.04987E0,-1.1764172E0,-5.14584E-1,3.3850763E-3,3.6518466E-1,7.241491E-1,1.2148845E0,-1.6544343E0,-1.4316518E0,-1.3952563E0,-9.492491E-1,-1.5105544E0,-9.5945305E-1,-6.777755E-1,-3.686806E-1,-2.515215E-1,2.6160458E-2,1.1069438E0,2.955207E-1,1.1151332E0,5.7710177E-1,1.3313271E0,1.0248256E0,-1.6999083E0,-1.5953813E0,-1.5916961E0,-1.2581149E0,-1.4652869E0,-1.2204349E0,-1.0860571E0,-8.272267E-1,-1.647338E0,-1.3394895E0,-1.2468913E0,-7.860451E-1,-7.961813E-1,-5.135771E-1,-4.40191E-1,-2.8271008E-1,-1.0439137E0,-2.0318453E-1,1.9493278E-2,1.5981174E-1,1.3301681E0,8.5296565E-1,5.3021634E-1,2.6209465E-1,1.3368039E0,9.682929E-1,4.748232E-1,7.2349095E-1,1.3836907E0,1.2505254E0,9.1061616E-1,1.211665E0,-8.564288E-2,-8.36522E-2,-8.413782E-2,-7.4177645E-2,-8.247145E-2,-7.599372E-2,-6.7518204E-2,-5.7410073E-2,-7.775207E-2,-6.822112E-2,-8.566103E-2,-5.9835523E-2,-5.8604218E-2,-5.0718464E-2,-5.003653E-2,-3.8492013E-2,-8.4663816E-2,-7.2653376E-2,-7.858943E-2,-5.5203885E-2,-7.017949E-2,-5.9191227E-2,-4.6154086E-2,-3.3158097E-2,-4.4545587E-2,-3.5776567E-2,-2.883071E-2,-2.1282641E-2,-2.496999E-2,-1.6625183E-2,-1.65384E-2,-1.0281411E-2,-7.288159E-2,-3.96607E-2,-1.9854905E-2,-7.4705877E-3,1.0593467E-3,-7.104897E-3,5.405436E-2,6.388252E-3,6.862139E-2,5.7379294E-2,3.8112413E-2,5.2902397E-2,1.9545529E-2,3.0141233E-2,8.78891E-3,1.5493691E-2,6.9900736E-2,6.1388858E-2,4.1435473E-2,5.6503523E-2,2.669461E-2,1.8085247E-2,4.196314E-2,3.1137535E-2,7.030165E-2,6.760443E-2,5.764499E-2,6.791615E-2,5.006827E-2,4.264919E-2,5.6563456E-2,6.607675E-2],"categories":[],"categories_nodes":[],"categories_segments":[],"categories_sizes":[],"default_left":[0,0,0,0,0,0,0,0,0,0,0,0,0,0,0,0,0,0,0,0,0,0,0,0,0,0,0,0,0,0,0,0,0,0,0,0,0,0,0,0,0,0,0,0,0,0,0,0,0,0,0,0,0,0,0,0,0,0,0,0,0,0,0,0,0,0,0,0,0,0,0,0,0,0,0,0,0,0,0,0,0,0,0,0,0,0,0,0,0,0,0,0,0,0,0,0,0,0,0,0,0,0,0,0,0,0,0,0,0,0,0,0,0,0,0,0,0,0,0,0,0,0,0,0,0,0,0],"id":12,"left_children":[1,3,5,7,9,11,13,15,17,19,21,23,25,27,29,31,33,35,37,39,41,43,45,47,49,51,53,55,57,59,61,63,65,67,69,71,73,75,77,79,81,83,85,87,89,91,93,95,97,99,101,103,105,107,109,111,113,115,117,119,121,123,125,-1,-1,-1,-1,-1,-1,-1,-1,-1,-1,-1,-1,-1,-1,-1,-1,-1,-1,-1,-1,-1,-1,-1,-1,-1,-1,-1,-1,-1,-1,-1,-1,-1,-1,-1,-1,-1,-1,-1,-1,-1,-1,-1,-1,-1,-1,-1,-1,-1,-1,-1,-1,-1,-1,-1,-1,-1,-1,-1,-1,-1,-1,-1,-1],"loss_changes":[4.7875684E5,4.713675E4,2.5553412E5,1.060825E4,2.1766133E4,1.781531E4,2.2731094E4,1.2298125E3,2.4913125E3,4.7470156E3,4.902547E3,8.120564E3,7.790539E3,1.155218E4,3.9383125E3,1.4464062E2,1.25725E3,1.9628906E2,9.263711E2,6.011367E2,1.9786211E3,1.8892812E3,6.682422E2,4.3939595E3,1.1441604E3,7.327041E2,1.0811064E3,1.7862969E3,2.1860273E3,4.6532812E2,1.4421484E3,7.921875E0,2.3092969E2,9.527734E1,2.190625E2,1.0241211E2,5.211963E1,1.6028711E2,2.9159766E2,1.25375E2,6.2508594E2,1.4600781E2,4.1657324E2,4.3080078E2,2.2547852E2,3.7823535E2,1.828164E2,6.829492E2,1.1274424E3,3.3471707E2,1.8011038E3,5.1564453E1,1.1189307E2,1.7355127E2,4.9750684E2,1.4430469E2,7.451172E2,5.7422266E2,6.999453E2,4.5382812E1,4.5533594E2,2.1871094E2,2.25125E2,0E0,0E0,0E0,0E0,0E0,0E0,0E0,0E0,0E0,0E0,0E0,0E0,0E0,0E0,0E0,0E0,0E0,0E0,0E0,0E0,0E0,0E0,0E0,0E0,0E0,0E0,0E0,0E0,0E0,0E0,0E0,0E0,0E0,0E0,0E0,0E0,0E0,0E0,0E0,0E0,0E0,0E0,0E0,0E0,0E0,0E0,0E0,0E0,0E0,0E0,0E0,0E0,0E0,0E0,0E0,0E0,0E0,0E0,0E0,0E0,0E0,0E0,0E0,0E0],"parents":[2147483647,0,0,1,1,2,2,3,3,4,4,5,5,6,6,7,7,8,8,9,9,10,10,11,11,12,12,13,13,14,14,15,15,16,16,17,17,18,18,19,19,20,20,21,21,22,22,23,23,24,24,25,25,26,26,27,27,28,28,29,29,30,30,31,31,32,32,33,33,34,34,35,35,36,36,37,37,38,38,39,39,40,40,41,41,42,42,43,43,44,44,45,45,46,46,47,47,48,48,49,49,50,50,51,51,52,52,53,53,54,54,55,55,56,56,57,57,58,58,59,59,60,60,61,61,62,62],"right_children":[2,4,6,8,10,12,14,16,18,20,22,24,26,28,30,32,34,36,38,40,42,44,46,48,50,52,54,56,58,60,62,64,66,68,70,72,74,76,78,80,82,84,86,88,90,92,94,96,98,100,102,104,106,108,110,112,114,116,118,120,122,124,126,-1,-1,-1,-1,-1,-1,-1,-1,-1,-1,-1,-1,-1,-1,-1,-1,-1,-1,-1,-1,-1,-1,-1,-1,-1,-1,-1,-1,-1,-1,-1,-1,-1,-1,-1,-1,-1,-1,-1,-1,-1,-1,-1,-1,-1,-1,-1,-1,-1,-1,-1,-1,-1,-1,-1,-1,-1,-1,-1,-1,-1,-1,-1,-1],"split_conditions":[-2E0,-9E0,6E0,1.212E3,7.398E2,3E0,1.2E1,6.53E2,-1.6E1,2.31E2,-5E0,0E0,2.09E2,7.709E2,1.186E3,3.55E2,-1.4E1,1.825E3,1.762E3,8.2E1,-6E0,1.934E3,2.057E3,1.34E2,2E0,6.3E1,6.66E2,2.76E2,9E0,7.06E2,1.7E1,2.31E2,-1.4E1,-1.8E1,-1.1E1,-1.9E1,-2.5E1,-1.2E1,-1.3E1,-3E0,-5E0,3.89E2,-4E0,-7E0,2.365E3,-3E0,-3E0,1.93E1,9.68E2,1E0,4.59E1,3.81E1,5E0,4E0,4E0,1.45E2,9E0,2.119E3,1.618E3,3.89E2,1.8E1,1.618E3,2.1E1,-8.564288E-2,-8.36522E-2,-8.413782E-2,-7.4177645E-2,-8.247145E-2,-7.599372E-2,-6.7518204E-2,-5.7410073E-2,-7.775207E-2,-6.822112E-2,-8.566103E-2,-5.9835523E-2,-5.8604218E-2,-5.0718464E-2,-5.003653E-2,-3.8492013E-2,-8.4663816E-2,-7.2653376E-2,-7.858943E-2,-5.5203885E-2,-7.017949E-2,-5.9191227E-2,-4.6154086E-2,-3.3158097E-2,-4.4545587E-2,-3.5776567E-2,-2.883071E-2,-2.1282641E-2,-2.496999E-2,-1.6625183E-2,-1.65384E-2,-1.0281411E-2,-7.288159E-2,-3.96607E-2,-1.9854905E-2,-7.4705877E-3,1.0593467E-3,-7.104897E-3,5.405436E-2,6.388252E-3,6.862139E-2,5.7379294E-2,3.8112413E-2,5.2902397E-2,